solver_type L2R_LR
nr_class 7
label 0 1 2 3 4 5 6
nr_feature 1452
bias 0.1
w
-0.01381460340024592 -0.1233564294207057 0.05749258523245783 0.1075561707694649 0.0558101905912101 -0.1092612896376229 -0.1147005712822603 
-0.2702278397681518 -0.232213407008738 0.2071921119305102 0.07972021329429919 0.09284598661283699 0.1681581395256469 -0.01558142052329469 
-0.1048007331135847 -0.1679034404139724 -0.141792345131208 0.5130076262311892 -0.07611846075505575 -0.1536489574134674 -0.02628837231003586 
-0.2246246984744014 -0.1620289931961026 0.2572281660779007 -0.1203374650591883 0.1190810526401786 0.2237469758127727 -0.005548126209773029 
-0.07943258001740242 -0.04784795577312503 -0.05195041884476965 -0.1339320960568744 0.06613030002399632 -0.04335988714409272 0.1761415284411381 
-0.03638552759975242 -0.1795630511363813 0.03545699738357948 0.1202306293129538 0.09323379093588692 -0.05067603363235788 -0.1164113939060441 
0.01564744498017346 -0.2286718756983167 0.1428058130097927 0.1786367633690327 -0.05188213876962194 -0.09654362682759987 -0.09993034130486539 
0.002858485934766837 -0.05955437065728628 -0.02757843100939703 0.04530554475829296 0.1089335962009574 -0.09408982951273588 -0.158811511324222 
-0.01924512633847048 0.2209413775826144 -0.2701079842269195 -0.1734563359009316 0.294633996189426 -0.04747311703818881 -0.1734746115839403 
0.01652384818122149 -0.1861129825256946 0.04275258683392849 0.08396468989681313 0.04338366399986022 -0.08153310864942324 -0.1008946778040898 
0.07063147490959476 -0.04165312336935401 0.05587038298575505 -0.1074836628630728 0.09807270280411291 -0.0996649051213868 -0.09330746426850391 
0.06794106706071766 -0.1693762285075312 0.01764779569598456 0.1841195934180962 -0.177848667967924 -0.1355631271944349 -0.05860299670083671 
0.02775727944517824 0.06805327204897048 0.04559850515034769 -0.2315914886185203 0.2164655451550631 -0.01539299364497997 -0.05930178327525405 
-0.0564473263678755 -0.01409074021318213 0.006318168043774394 -0.1082471039839393 0.08101996948229101 0.03646944697790921 0.02201919197505933 
-0.02106212840189637 -0.2728922351030689 0.0789866657962912 0.1160209742961164 0.0772376838277405 -0.02558276322580905 -0.1064766827973267 
0.012769073063591 -0.1963862798765791 0.01600861180490161 0.1537360840790456 0.01844733795874891 -0.09688889944938552 -0.06879732802005718 
-0.04795879579988069 -0.1490855506161373 0.03148094873407146 0.02371284792481457 0.1416413018046924 -0.07231431711887382 -0.1053754314983371 
-0.1077505980076422 0.001192225391704504 0.03539307561331864 -0.173235260670184 0.2360909008607779 0.00247682652677247 -0.09877338598073672 
-0.02849122997922527 -0.09283631638860652 -0.01062414996151381 0.08912853257760468 0.07352750264009157 -0.06772746539806133 -0.06346114694156091 
-0.07795573059318783 0.01448082314648089 -0.07408749061614706 0.03257549199257972 0.1932050813624702 -0.1490714396837538 -0.01942013797729215 
-0.001575137519392587 -0.08303063977680421 -0.04214474657562443 0.09485441118650462 -0.0927450605961463 -0.06100164001699157 -0.05882656343674235 
-0.09622685000451835 0.0918582798710887 -0.05536049867901899 -0.04342719717292905 0.3243035696063873 -0.1325211026211149 0.02791244193539083 
-0.05912712035586173 -0.007154603467174324 -0.05716497048334841 0.04636127280975165 0.08812813121973188 -0.05036100275078429 0.01225784641700188 
-0.08269234842771998 -0.1290515030668589 0.02194497212772378 0.05949296369465384 0.1742202734818755 -0.09216964094860156 -0.06409868270682686 
0.03014823101158413 -0.09500595230908637 0.0221503601292718 0.1143624269508022 -0.03592522809802286 -0.130145483909896 -0.03315715067427263 
-0.07826200498823724 -0.08085733329658742 -0.003258162222700322 0.1011675924335737 0.138830083895911 -0.03505653599029492 -0.089358484205879 
-0.13483833579215 -0.01187890000369288 -0.0267202843567313 0.01941604894531599 0.2214588407512442 0.08470486728238572 -0.08569251533093553 
0.02882393545793403 -0.1431421602482899 0.09206018781529039 -0.08175075314957847 0.1306560261995449 -0.1435338693469268 -0.1690214745504798 
-0.158270654034689 -0.08429637292350615 0.2438223710994518 -0.1237807412574134 0.3129241316362377 -0.02167622783229366 -0.1268726962401631 
-0.1000341876486658 -0.1093180749281107 0.05332716510339817 -0.06083773326391803 0.1633881396082713 -0.1208088335072723 -0.07174973929253038 
-0.1563959471885178 -0.08211123554572661 0.2429063440143852 -0.1226078634204999 0.3097619231621209 -0.01923787826322447 -0.1255382257725317 
-0.04414008026122716 -0.06615041414879556 0.08410208060950347 -0.1340725623330368 0.1132215686228372 -0.1230527695916496 -0.04957138162606828 
-0.00300429837457555 -0.05793999725528202 -0.04957177767946072 -0.01236215693940248 0.06274362632354939 -0.1593975339707512 -0.1185580306916142 
-0.2263715924467748 -0.08729437005076539 0.03350011508995025 -0.02610394827865057 0.196073137451471 -0.01789634316690746 -0.0801743831756053 
0.06540321026396406 -0.1386679483353632 0.04077428285084088 0.04991386726195402 0.05938408756890264 -0.1099022204069429 -0.167130118205553 
0.1336675961687854 -0.1118653264084482 0.03008340338428696 0.05825811833232786 -0.00139785847798312 -0.1047601450975008 -0.1430391213426821 
0.01382063207756833 -0.1273791436183305 0.05723575006165791 -0.04639952386631603 0.02766699623716943 -0.07201830046707298 -0.0167059454789117 
-0.009628961466334632 -0.1022249714568037 0.02060928883697823 -0.1681888576153018 0.02800017069291049 -0.006793028113173774 0.03172116990458578 
-0.1488121509766445 -0.07207772164044826 0.1253359943134754 -0.0976194956286066 0.09875548503676101 -0.1307569488778748 -0.02512886682333577 
-0.008021790637105682 -0.1012804123618166 0.01912200507404803 -0.1668500122535571 0.02672741418084511 -0.005364133356903909 0.03191765834192256 
-0.06490145875240319 -0.01337645749199466 -0.008316128264232055 -0.0697032851855718 0.09241353829443236 -0.03159201635249887 -0.0004159967632955808 
-0.1378220932192576 -0.1646402542666063 0.1618527345069805 0.0119766393813272 0.2020788520475244 -0.08164096682679417 -0.1283493526009261 
-0.2005745714050463 -0.1617570976359468 0.03617321699337455 0.1132499670195657 0.1925461924736067 -0.1311361353305099 -0.05686807567253768 
0.10056422012509 -0.1443708460306136 0.05127947195033587 0.001687248439309702 -0.0548383047386198 -0.0929810392336794 -0.01319491823995395 
0.2556715870742877 -0.133446111456313 0.05818401748754454 -0.05610236104344754 -0.1836953913183589 -0.07224230430710392 0.009418686770451502 
-0.07545666176982797 -0.09385905096834525 0.1059549774022026 -0.1025595733367053 -0.02865188899493019 0.105238357330635 -0.007716707664415843 
-0.04934798727050559 -0.03685544104102537 0.08728204451663721 0.0246685100553341 -0.02272108390793178 -0.0779295443120798 -0.05432544437535142 
-0.1135758984359484 0.1704531813336137 -0.06340754719280736 -0.06079393848660825 -0.006405918117315278 0.0297137526420146 -0.005627993712871034 
0.007415472259126784 -0.1187618945050011 0.08717972875416685 0.06666336222894802 -0.04830467936015467 -0.08785166387214888 -0.05105101343346549 
-0.05916074260058387 -0.06211476056302416 0.07837482753281294 0.006423292181434711 -0.04924343248737571 -0.152841413316547 -0.03559778042115171 
-0.1628311517367964 -0.0437403281708443 0.163637811012377 -0.08347002787657104 -0.1326315776322569 -0.006559953370393357 0.02067002262390042 
-0.01964490769695996 0.04218747340718809 -0.02573837871200216 -0.2992087287198656 -0.1884395001236443 0.3622285760514041 0.1815771009411986 
-0.1200549537092607 -0.1890235065054834 0.1435698410004843 0.0490531227149407 0.05562427350164496 -0.1080522141154425 -0.1013331909706789 
-0.08882627080615629 -0.1518515273239821 0.105683115204185 0.1787684994377705 0.1041526364613182 -0.2484348007263245 -0.1626403984752742 
-0.4566660953528534 -0.008524059499945835 -0.1387318856227401 0.02421089781315969 0.401027042697692 0.1601688979403 0.1969824611622243 
-0.06552688883032096 -0.0867878389814815 0.01485883877288306 0.1128082768313281 -0.0362156565468412 -0.04192061261491305 0.01496229406458291 
-0.09398646451082061 0.01555433880973566 -0.01224073626517264 -0.07387481192238275 0.08083583156742871 0.1291555642396423 -0.0287203806875224 
-0.007940833833012851 -0.05415287954490272 0.001280449027742158 0.1157830036118273 -0.09311356004719681 -0.1001875161099862 0.01182266684344296 
-0.02807869194123295 -0.03302251900374141 -0.01223212218691822 0.02249689407540438 -0.05220245725822747 -0.06758016973977787 0.004771163183731687 
-0.1500825470772728 0.02536202848165448 -0.1917771399884779 -0.1108675247620869 0.2359828854848795 0.04277313581615465 0.1856957313921892 
-0.0519757153551899 0.1592387825741457 -0.2124488894194308 -0.2165203846669546 0.01960377299253807 0.2343512696354953 0.1244888038705913 
-0.4974773371446513 -0.2673630568311484 0.09781122726930785 0.2914787045478616 0.4386088120192926 -0.2505089692082698 0.08466386552442649 
-0.1824214855545634 -0.2217058774139026 0.182086522808509 0.299669962760173 0.1146147258312662 -0.2943889835430929 -0.07823795966117758 
0.1002123446210202 0.1014666541608041 -0.001126448260855709 -0.05246567212674244 0.09902620928212603 -0.01578637381240038 -0.3782543083627883 
0.3374104787184026 0.3497241688142043 0.09033108728425002 0.02491248334090855 -0.1995054124383953 -0.1449674312397698 -0.3841827563223245 
-0.1547988191764515 -0.01287817931130109 -0.07712494644830058 0.002996908466273293 0.161722145310915 -0.011999096597548 -0.005280402763976262 
0.3444467882521699 0.3503095400801005 0.09383676460417084 0.02477626032579217 -0.2068564160479325 -0.1444220178967725 -0.3839427380879572 
0.3626745565132104 0.1412536486385328 0.07445927139088901 -0.08997438575283383 -0.1544755570967144 -0.1274277560036906 -0.2170795785161505 
-0.1061725287991252 0.02127104171388015 -0.07569506906298583 -0.09648567918476697 0.3104442923144024 0.05023136287579041 -0.223018585602068 
-0.1547925807310798 0.08326831072993889 -0.08194855475802855 0.1668455582470571 0.1337926422225953 -0.1578043249426404 -0.1667445321417534 
0.03602817081685095 -0.006780572379572176 -0.1045212113567114 0.02704380354694284 0.1038459699603888 0.01503420571673956 -0.2845457292411652 
0.09002758636945303 -0.03498870724178233 -0.08417311467404653 -0.02676845802852004 0.06617148402631662 0.06863792779211429 -0.247933940307979 
0.08653056867287943 -0.1570140281588664 0.1051864229755651 0.1756104740711401 0.04554444926538098 -0.07400401397460783 -0.1266585870940325 
-0.1352819883784915 -0.08302734091215878 0.2276633710842953 0.07609415885161364 0.1470151120799299 0.09523226716869035 -0.1708327241722406 
-0.0189874948131906 -0.2592541176773195 -0.2253500475257033 0.5623830760594815 -0.03772254195707472 -0.1706024786919857 0.006408783260955715 
-0.1125804165465059 0.1029362462468982 0.3570732562669318 -0.3129674216370695 0.1526248053046577 0.2005829469760698 -0.1610159190641832 
-0.0497827209877176 0.2107148988413561 -0.1265825488665467 -0.2431184129831319 0.2222558187876031 -0.08415553151507366 0.03268260875455494 
0.06518146354485772 -0.2321051863060628 0.07769857011506107 0.1734462545467075 0.08484430728325404 0.005506921195934897 -0.1075680300596997 
0.09837388355686988 -0.2945721979240513 0.1864906568335806 0.211229738267403 -0.03661197536197211 -0.05496651148678779 -0.07372633319057646 
0.09290088562047168 -0.05306153800571493 0.01300737930228584 0.1012042048718011 0.1153541923305433 -0.0576024151386084 -0.178431272415581 
-0.004798050445350348 0.5476540631526307 -0.4010598995905444 -0.2324025521372927 0.3543620007797859 -0.01870863586685755 -0.2715068351674582 
0.1122801338858735 -0.2504561318810224 0.09062710687223229 0.1651679230611385 0.04341753840097282 -0.0402647014097981 -0.08763180300265749 
0.1447872444607839 0.007241591363367193 0.05858817219311941 -0.02144619174432297 0.1010762934092074 -0.1261170959413338 -0.1615960251141822 
0.1381453639207903 -0.2448593993765743 0.07395099678832728 0.2765559906638451 -0.1594665124103432 -0.1420776332432392 -0.04369233657397333 
0.01961418328803099 0.2253049628482417 -0.0094687918719247 -0.2641846860168182 0.2365570474506587 -0.002994032400098464 -0.1260801672599338 
-0.05152203241854603 0.07021183337852931 -0.001234287899731413 -0.1552673571004787 0.1312036739138688 0.026315402644485 -0.03463959360356315 
0.07647685604486511 -0.3682052411823682 0.1462785451847907 0.1729264017150687 0.09073522626207103 0.06639490350400033 -0.07956241256653013 
0.1072269714363872 -0.2812612165878929 0.04888038310795183 0.2258414529043251 0.03232371491003748 -0.05117725354563597 -0.0367087537855747 
0.03852963164625346 -0.2024290578471586 0.08132133179196771 0.08476719366925636 0.1484806779991714 -0.02243138654386455 -0.0998527280036836 
-0.1145915894969069 0.1010570442904632 0.06999624982751378 -0.2293223825657885 0.2264461141680384 0.0449424062778685 -0.129596699756476 
-0.002876374563319032 -0.04102037147339067 -0.009239887618039757 0.05626121600906837 -0.02245776204416453 -0.0270685532947459 -0.03255524781570919 
-0.01620980545945915 0.03718452733678396 -0.04232822731043896 0.02947149664302647 0.01863331249116924 -0.07124341839890837 -0.04695717942351348 
-0.005487071780264806 -0.04660555012099504 -0.02727516932170857 0.07416544198853041 -0.06952152969871564 -0.0372644017064404 -0.03954202971911275 
-0.03697266568546453 0.2726031169036939 -0.05547126004992062 -0.1364206255429637 0.2830693018424965 -0.1207845390990192 -0.03208342185875375 
-0.0365152111802182 0.08153190085055884 -0.0744529617882059 -0.04646933909748425 0.123003095819921 -0.03423986227509971 -0.01912300176714015 
-0.01697448229928368 -0.06256291155500968 0.001980288428582674 0.04618839069346339 0.01221679768934815 -0.02999824165861373 -0.02839202419958682 
0.01609055198339836 -0.04373354883033934 0.003601494313570118 0.06921734795967781 -0.05239300024013661 -0.06407604225219081 -0.02013561086242151 
-0.02170073902412955 -0.04126392843189176 -0.004415804033814373 0.05285034900699744 0.01018413499277455 -0.009196192866819643 -0.03756802558288675 
-0.1676454771629525 0.002391333245883188 -0.03552748232338042 -0.060115476724612 0.2724310265621214 0.2352834282960325 -0.0828610215015332 
0.04560541774944112 -0.1006322196118917 0.1968224541515543 -0.04927211126096467 0.1938332702806162 -0.1691447482122148 -0.262465976802252 
-0.04118350571636051 -0.04850185890629782 0.1810177642230934 -0.1946036506728212 0.3192236042211587 -0.1854191641064805 -0.1791879561647583 
-0.1048261677244218 -0.1330964614486773 0.1567925223323397 -0.05874214998172047 0.1872505160846933 -0.1800496150423247 -0.07045684997617313 
-0.0380092812696162 -0.04429141883073705 0.1760082354198553 -0.1926840570607002 0.3131439630175212 -0.1798457308954713 -0.1770636439088938 
0.02398742383689 -0.1183414972834374 0.04473953428238298 -0.221320808495507 0.2186927938902189 -0.1937073582227249 -0.07819686428483719 
-0.03059095812376227 0.04731445101476636 -0.03410393502805398 0.06350622668279297 0.1834278977193262 -0.1661055352446186 -0.1454890150904993 
-0.2569302267455562 -0.09242105440923776 0.007739621976772798 -0.0105699781994873 0.2807070152206901 0.08502142480987963 -0.1278830169519688 
-0.0490025301299308 -0.05911948318016991 0.3028276615561512 0.1131027538498097 0.1549590444355383 -0.1361289212694392 -0.3379477823373578 
0.04894365356954593 -0.02915734735182717 0.340672873184916 0.1334433251550824 0.05990973703350724 -0.190080592197926 -0.3323468845714511 
-0.01787574676222432 -0.04347467907707057 0.03195055748093163 -0.1216825079308742 0.0006047190044189135 -0.00787525461234132 0.0601473094511774 
0.006957969992449078 -0.02567585868424794 -0.1258922579435754 -0.3624426854606803 -0.0443779971057351 0.07053989341813932 0.1326536376013042 
-0.1447068794961314 -0.1129158947391734 0.2609463663817883 -0.1300335649070122 0.1580120762770268 -0.189327115481482 0.02712003555682811 
0.009786027257955411 -0.02339650739114802 -0.1311071105961674 -0.3596809828288619 -0.0476263003639471 0.07425955415293291 0.132027361173966 
-0.05064310061689813 0.01952765639068899 -0.1078096200785897 -0.1159965037318671 0.04884623177079185 -0.004024002487110779 0.02639538833258016 
-0.1684216948334506 -0.09828623488504855 0.3108712021653705 0.06328875152962908 0.2725055757538112 -0.03764111130384697 -0.1304060807146019 
-0.2150609147986378 -0.1135703211372569 0.1006867432214115 0.05177330027822524 0.2412413979654216 -0.05604794281633645 0.02567028226413105 
0.01026308494396568 -0.07600338172234734 0.1178718351713426 0.01459277655000149 -0.0863002412314549 -0.04291487144842501 0.1005700970757158 
0.1104675492931381 -0.03420202431040839 0.0876138422343225 -0.006272629778459814 -0.2141429452668831 -0.02416795786024994 0.1027974827708869 
-0.01824706707687225 -0.1438272161820081 0.09073835245191 -0.09570507846384664 -0.1101556230688048 0.2128620255421473 -0.009577037586486547 
0.07375882219637357 -0.02601370522073233 -0.04885359185468754 0.01500516304043787 -0.1335322535284215 0.01368992621095071 -0.01338307150258793 
-0.2108306095275185 0.2195174005848431 -0.1841416931582701 0.01794837799790772 0.1742146414107157 0.09711742669184859 -0.09879892152534574 
0.1538992152827482 -0.1354304864843045 0.05002791120695789 0.0143891917201769 -0.2293065253434975 -0.05405473818565022 0.03217907170788411 
-0.02424411933592325 -0.08241122572658284 -0.03573936829555267 0.05421904802181519 -0.04128278079528921 -0.1245259217651624 0.03876250498949417 
-0.0725359963830849 -0.0647222398354978 0.1835490689347969 -0.086668895119994 -0.2513011821357375 -0.08531960535677847 0.05879827231619638 
0.03711601622510114 0.0134143777324993 -0.1055158698043214 -0.4498864338830347 -0.2426900744315337 0.3584677416495687 0.1486158076085748 
-0.1412281078865736 -0.2713285632603568 0.1939999172745707 0.2189989203997251 0.04463885897462919 -0.05189957318972701 -0.1210058847941561 
-0.1486124807177993 -0.2152101375346157 0.2113722040915646 0.4888943259818876 0.1758105841185367 -0.2952916642673621 -0.2052141068243159 
-0.310471059383874 -0.08488495636272786 -0.3360802761860009 0.04913238429486072 0.2088410375775186 0.2173680736830771 0.2613951726321644 
0.03633120175549465 -0.07456809965880076 -0.1241771320839184 0.09541010384647509 -0.1430410496114586 0.08356927559522606 0.105309863542077 
-0.1641832698388145 -0.0451031519222417 0.04086480418412457 0.02411376382701833 0.1854167697815245 0.01529025715620102 -0.09879896812912353 
0.1070933765668526 -0.01562966892725162 -0.126604504952293 0.0644243424276129 -0.2530298490750069 0.03320892660202877 0.1188608685574471 
0.007737896901464184 -0.04203328469609593 -0.184986954751119 0.02658939116257885 -0.09625584553314569 -0.02238192884092431 0.1439691700309577 
-0.1128312988210447 -0.01842754022832462 -0.3101493356781143 -0.1676760400043787 0.1139710129870802 0.1059077372621527 0.3399369982443787 
0.05098719475686454 0.1955898081089899 -0.4430334212485855 -0.3761904304591959 -0.2377415562424995 0.4190498167528284 0.1310022377757568 
-0.395093079753848 -0.2560468465964156 0.03113454700045619 0.3086787410722054 0.23518252739393 -0.1368101436221489 0.2812129666301743 
-0.345613528970703 -0.3318214871392627 0.3543028664160045 0.5345920892339789 0.3152445425221014 -0.4428816726003356 0.08289298505081408 
0.04461906549349607 0.3765346988798599 0.0702474781766881 -0.02421544012012948 -0.2257185215012557 -0.3373233615070229 -0.06195729725548151 
-0.1898527123479792 0.1289885170678826 0.1439093349299998 -0.07981308345661377 0.057446822584727 0.08326472896153427 -0.06856028200622566 
-0.1519137994640113 0.04393764385001279 -0.4140261221785914 0.4416113187543477 -0.2304132515021739 -0.2336729742825257 0.1481046911722542 
-0.1125803764632669 0.1029362901414148 0.3570733380565432 -0.3129674440031031 0.152624587502674 0.2005829270018884 -0.1610159212780131 
-0.04986548104841081 0.2107441634534891 -0.1266314554768931 -0.2431546031622723 0.2224980605839538 -0.08424540515285016 0.0326822878150115 
-0.02058840083789523 0.2891380006105296 0.2531614004006812 0.0275108044865042 0.4646597867169221 -0.5587428076715103 -0.5170234996903654 
0.05063134994150092 -0.1264117808151928 0.257944389352094 0.09793715283427754 -0.393354610704272 -0.1817924706766661 0.08681481064726562 
0.1303692566025599 0.8514477109486019 -0.3127601630361281 -0.3334706774571849 0.1391855972797237 -0.3078609837055195 -0.3518417367742018 
-0.004798145238121176 0.5476542211853308 -0.4010601214414923 -0.2324024882433851 0.3543623205103077 -0.01870888545833847 -0.2715068243125297 
0.1117767895970602 -0.07641129850429171 0.0327161317276829 0.01572323886837546 -0.1126846743604862 -0.1191819194535979 0.02342205769024922 
0.09528245949834242 0.2223090856573465 -0.009716138027733072 -0.1812518893661235 0.02740859253041035 -0.1440918371233292 -0.07878956469032676 
0.08407826298227883 -0.02548770865193888 -0.02032439767542151 0.1757230712719508 -0.3894124269774338 -0.2259878195312938 0.06846866384545261 
0.01961430004014227 0.2253052903377577 -0.009468881799483086 -0.264184763100859 0.2365568970088005 -0.002994111755846228 -0.1260802205632448 
-0.0515319417367442 0.07020405621670116 -0.001240364736026902 -0.1552835126155743 0.1312208059167451 0.02632380189829396 -0.03462837219259834 
0.01267532423946966 -0.263987002433023 0.1176023129147682 0.03270344539553839 -0.00738553882282635 0.09774907888372457 0.02470125509982799 
0.06854259079863687 -0.1256565059332402 -0.05519308418568565 0.1413427617712691 -0.118123132854304 -0.1152801851874791 0.09709176194147698 
-0.04200821701689977 -0.0325233461714451 0.04441309280667111 -0.1481182007162272 0.202850855094551 -0.07292454816232524 -0.03348722577400718 
-0.1145914377521699 0.1010567410654391 0.06999653885882534 -0.229322603466014 0.2264463199443552 0.04494247504456114 -0.1295968173691361 
0.02339733260041605 0.1304243572266856 -0.1073731129589302 -0.05566631521325746 -0.02951246837350133 -0.1356309717242016 0.1042522641450674 
-0.03605532541221499 0.3015307031340869 -0.1488770744288473 -0.101319799091027 0.1273396474267052 -0.1991293307023898 -0.01716783802865242 
-0.01782742956728938 0.05087890608762242 -0.1701664136749502 0.07377405798795934 -0.2969552635012893 -0.1409268059158488 0.01162710108943392 
-0.03697282550431368 0.272603216234828 -0.05547124280028558 -0.1364205117857012 0.2830694863745197 -0.1207846518256946 -0.03208342981571417 
-0.03649968047000748 0.08153746124569641 -0.07445528069859782 -0.04647734202668345 0.1230107393734988 -0.03425475001207201 -0.01912555266409023 
-0.08324141484277214 -0.05229560650019788 -0.005527793518312916 -0.1018978703717209 0.2029064412875507 -0.1210816835622558 0.09811390616470231 
0.1132122682494375 0.07347818055117369 -0.004321413840394544 0.05062995881866023 -0.2252795989646244 -0.3168595641004312 0.1321295602753652 
-0.06148991739881413 0.04381957063530975 -0.02380257333451843 -0.02778054530755884 0.112524518773875 0.01199489777220283 0.01808139175312664 
-0.1676456567200026 0.00239127854626453 -0.03552740252188415 -0.06011541354708314 0.2724313916602202 0.23528367602616 -0.08286114128481116 
0.06394817416380238 -0.2161762666893329 0.06882416505291347 0.1810668006965105 0.09086260697886857 -0.006128823793076128 -0.1175490658740737 
0.0807483127190186 -0.2440010338432724 0.09631033494555191 0.1014796478791326 0.1548610029999101 -0.03122274481157395 -0.1275932405152224 
0.05659265303763073 -0.1581803884148665 0.02456166084690671 0.1854163980759563 0.0489683575030383 -0.04750573298269285 -0.0751599476139166 
0.04484197506354976 -0.1921000622911047 0.138814209539168 -0.1352004927662396 0.198915302205688 0.01895310315784594 -0.1244161957759182 
0.04346970758430069 -0.1355774312446601 0.03899060150698608 -0.1952560461421956 0.1938058486905883 -0.1744680382452168 -0.09281419434992304 
0.05093726740762347 -0.2223877635329917 0.07239273137874681 0.1739126778574341 0.1029546661219503 0.005426195399447854 -0.1191957740751822 
0.06308434935622292 -0.217511987340601 0.06619030213029213 0.1897357728899532 0.08752657950801489 -0.003611128887829032 -0.1089582593101721 
0.05786161584510553 -0.2031764362706835 0.08806422210986631 0.163411094930647 0.09458265711604376 -0.009886831449955912 -0.1251317580795094 
0.001965497036694223 -0.03509842762088121 0.2130295721013301 -0.0759695362355709 0.1130344600016545 -0.0508201305076285 -0.1977051702744686 
0.1911495155670335 -0.1459616702548495 -0.02931330120376606 -0.1774219861187016 -0.3090026347498939 -0.02569339193318577 0.4088511077358028 
0.2148682631795346 -0.0715934790568491 0.1148961170140359 0.06691838351037527 -0.260275486239779 0.005768470457925332 -0.03354657204343837 
-0.2558798047438421 -0.3711168631143307 -0.06524135274625838 0.0113864488387443 0.05547788309784665 -0.07860820861770461 0.5225853690672823 
0.2462100918361724 0.00288433584671933 0.1175028699265787 0.06276326827905036 -0.2597935287489999 0.01823600921152478 -0.1308823372539708 
0.3328173463030352 -0.07407312951964347 0.07995580095217218 -0.1078830953048107 -0.2744991076979395 0.1304098907406294 -0.05026815181651183 
0.1487871754783946 -0.2039419112959264 0.006218227129984618 -0.1836730115371901 -0.3044059839793914 -0.04967391885997387 0.4334632500891814 
-0.02367476882983527 -0.0965577509738781 -0.007659414921458749 -0.1356221893180337 -0.1017647952088849 -0.1777617802712208 0.5270174419686862 
0.1029703722049205 -0.274734047083705 -0.1500277771101588 -0.1008896939854469 -0.02993946605333424 0.2181700560782762 0.173947668985578 
0.1130142014767041 -0.2343467545712007 -0.1503762189768784 -0.03943980643599393 0.01176441200677329 0.300307912449109 -0.0633571064917877 
-0.01824701319488161 -0.1438273472588359 0.09073845579573712 -0.09570505430272847 -0.1101557715417885 0.2128618469799348 -0.009576940314761122 
0.07375891439305379 -0.02601360451868871 -0.04885343500159132 0.01500556246978212 -0.133532951799623 0.01368981000594515 -0.01338302616709997 
-0.210830561496424 0.2195170389933413 -0.1841411706858599 0.01794882067589599 0.1742147579041973 0.09711736363019759 -0.09879892385945187 
0.1538993000355132 -0.1354302666232871 0.05002781377112731 0.01438924269804466 -0.2293071640803858 -0.05405483186973739 0.03217912729516548 
-0.02424402141315419 -0.08241136170301877 -0.03573931618861744 0.05421894506618628 -0.0412829308214919 -0.124525962149904 0.03876256269765745 
-0.07162233499354329 -0.06475452886391185 0.1819506898271915 -0.08805041971051275 -0.249949525177822 -0.0853371510753678 0.05878264491859064 
0.03711481416331508 0.01341630597766542 -0.1055167129207221 -0.4498833166783994 -0.2426905857307165 0.3584624981898676 0.1486169538333433 
-0.1338920868898902 -0.2796665547196575 0.197982209745303 0.2334713327716798 0.02833081848596712 -0.05744326659596038 -0.1243923674401925 
-0.1420154779761557 -0.219729359171259 0.2130381162809672 0.4982992192795381 0.1628804282285801 -0.299036736455088 -0.2069247923461038 
-0.310471409074196 -0.08488492020726189 -0.3360799410863483 0.04913184138965933 0.2088415589281832 0.2173687705918834 0.2613950317197333 
0.03633126147958883 -0.07456797982930645 -0.1241774571555651 0.09540975194620388 -0.1430408967507215 0.08356918190251258 0.1053099157632515 
-0.1641834175909027 -0.04510348546177623 0.04086467320832362 0.02411409080213169 0.1854167896724317 0.0152901691266034 -0.09879881766145489 
0.1070935353829514 -0.01562942387651879 -0.1266045825766093 0.06442393031220243 -0.2530297619580505 0.03320894712174292 0.1188607750745823 
0.007737901404035145 -0.04203327935055406 -0.1849870411679131 0.02658946158259231 -0.09625589400579426 -0.02238195504324459 0.1439691728317944 
-0.112832882665211 -0.01841246459579592 -0.3101550222638621 -0.1676775495139338 0.1139750546409479 0.105903991194719 0.3399395368568965 
0.05099335251384965 0.1955968097634878 -0.4430346085080387 -0.3762002202463327 -0.2377409310509723 0.4190462269641654 0.1309993564616375 
-0.3950106021681833 -0.2560325554570953 0.03070940693135205 0.3089874243828105 0.2364776695396683 -0.1367947501159382 0.2812395344992695 
-0.3455610004739708 -0.3318174568085595 0.3539982460375037 0.5348216568963937 0.3161724247420508 -0.4428676202994917 0.08291583353006168 
0.01301487690127676 0.1882760070174905 -0.007317651498083597 0.0331365417394527 -0.2137548810530608 -0.2966131383968043 0.1655573797854448 
-0.2591563335625261 0.1396640511907393 -0.2063904198086628 0.1471675085559113 0.02508799953524805 -0.08952921121308356 0.2192847323820957 
0.09454825915997477 -0.794005916569248 0.07725342040476453 0.5184148158383777 -0.2741196623603454 -0.1031260338301759 0.2999785846151381 
-0.246949887192595 -0.05878985815127223 -0.4378200659700054 0.1518565379306015 0.3010747342574885 0.2729454229373051 -0.3224264042798432 
-0.05809413172051312 0.5267839209912996 -0.3510698927816071 0.2369926080067054 0.08821425576827421 0.02151947790726979 -0.4290143707978356 
-0.006340824623284102 -0.4826297141407607 0.4418270701788677 0.1322722272038833 0.1444158640412661 0.01589967906601383 -0.1734272350866542 
0.1840700116368923 -0.1006890589102154 0.04476647251095991 -0.01466525613206493 -0.1115983779114884 -0.08486307847221145 0.01083365707032802 
0.1251052436978293 -0.3162644198851055 0.03236781682335703 0.07597594690986786 -0.0381602187130305 0.1193996734108664 0.02158398657551063 
0.1782895630299925 -0.2597317750366157 0.329315618429076 0.02360130375724832 -0.1994883768765223 -0.1383634513789018 0.04480694649368915 
0.2044267114708364 -0.1096751292919808 -0.1572397997610747 -0.02873312445551114 -0.08885003230351166 0.03639398596843826 0.0211411192923649 
-0.2369662844998645 0.1289726571783247 0.006910064065806491 0.1482782316297748 -0.1744983470011198 0.2375994040858925 -0.174937850284597 
-0.1614327348839293 -0.05654124826604471 -0.1881562994053225 0.1036196815512754 0.02021992940546421 0.1624017715730724 0.2368277288443926 
-0.05156939426193765 0.05461646274278029 0.1630882175882641 -0.182681949297467 -0.1018064825464804 0.1068344058244823 -0.02555061500192701 
-0.002552824608003195 -0.05177834051561022 -0.2078065612556936 0.2130849865012591 0.0439608310346782 -0.1009862632548678 0.03515093897162373 
0.03229312834340879 -0.1569131760721373 0.1736828633546217 0.03198268088682876 0.1368411041642164 -0.06130996507694202 -0.02175103038907656 
-0.2017814501830863 -0.02992868875988712 0.1731250489018607 0.07148282481248665 -0.1019878969763392 0.3441217830106064 -0.1256051593231319 
-0.2263449672523426 0.2226546480266604 0.1310492168166234 0.197265837968262 -0.2444439427725307 0.2329625358708048 -0.2251460642685758 
-0.1159146105664633 0.04053708422204873 0.1160645261667437 -0.004977904536077073 -0.06682641654828678 0.1893605345428521 -0.2519258387613663 
0.1806994793748055 -0.2505540069562288 -0.09853165185620041 -0.2424511008707311 0.2226537042082698 -0.1696148905909524 0.08157592863282258 
-0.1035948653092376 0.01980275252404569 0.07324805521900089 0.04867704363673579 -0.07859820555170113 0.2466219028924787 -0.1773388191066465 
-0.1614327348839293 -0.05654124826604471 -0.1881562994053225 0.1036196815512754 0.02021992940546421 0.1624017715730724 0.2368277288443926 
-0.1054958562090453 0.1536140102834277 -0.8115544842501144 0.2263657339614168 0.07687221691926126 -0.1253915514559697 -0.08733005115945561 
0.03029829762613934 -0.1799593484064524 0.8034139984000173 -0.1912495014085649 -0.1335854359901283 0.1748050141467822 0.1567241613991995 
-0.004783274865175199 -0.3329142284491551 0.3822899890787707 -0.1064757553883539 0.007406462660448284 -0.1104106063721743 0.1831936612423209 
-0.1122739848970266 -0.03084782846029751 0.1467736270121474 0.07997004757562741 -0.02345653798869678 0.1582091183245122 -0.1435737274408904 
-0.09540153187411016 0.03811448853841825 0.3231709302858913 -0.03082132944999294 -0.1650928787652488 0.3441148089007941 -0.1531448990358134 
-0.05822286174279522 -0.07620955032913444 0.07029856182749575 0.02489820533485213 -0.09824922919655465 0.177466133067761 -0.1667494807468015 
0.06272846927389837 -0.1050428426478229 -0.4200176182064707 0.08149759064084389 0.1074486320115817 -0.3617801495385727 0.06830238535361272 
-0.3323473182975791 0.1587226491001938 -0.002753843815003367 0.224820497070201 -0.120739876335005 0.2987254851004455 -0.09187152741557089 
0.05947184973283877 0.07289606749582463 0.1040775672093856 -0.2754149602685665 -0.07049052622107559 0.1697458853126154 0.06951380714627253 
-0.2011003535117007 0.1141831674253904 0.09062751425505008 0.1438368973435101 0.001304400054758077 -0.1158474135798499 -0.04389407085587332 
0.177072747751941 -0.07774505941718585 -0.07485642900309514 -0.1922727729392271 -0.06833007317118603 0.1392498259071375 0.04289488348511488 
0.315785610729432 -0.2536139438286659 0.4776983615491338 -0.3851490523930908 -0.03438027931643212 0.1387852548803563 -0.01692373126565516 
-0.1801865646052698 0.04900042246801627 0.3216779025821968 0.07867327861174725 -0.2250156318793871 0.3835231380479287 -0.05988505390251547 
-0.2496599322861592 0.2728156455404308 -0.2480202050484489 0.2995820450852703 -0.1862995158188535 0.1485855594510868 -0.2197177885846319 
-0.1654449435477496 -0.131040665937925 0.3586299448958081 0.06418329838584516 -0.070053580298495 0.3601098075831923 -0.1163206640386013 
0.1469341825844861 -0.3855794679835301 0.4996468710804353 -0.27562562137395 0.1233423782325387 0.06328375184624765 0.1529218881289045 
0.07844059042441352 -0.04013928804639118 0.05346413821505629 0.09480022445449318 0.05828438552708257 -0.1705493251580441 -0.2168374991301114 
0.1010876541318679 0.2087794375260418 -0.1763817889140959 0.08920838240336251 -0.1130129009900108 -0.2331911168317341 0.01121931309044321 
-0.003394204948894673 -0.01639705365034723 -0.05709242677075846 -0.08507638516211866 0.07295011598066094 -0.03507446634020805 -0.003445980458642053 
0.1012997919411737 0.2098042533791885 -0.1728135122409234 0.09452565647599492 -0.1175722832388019 -0.2309989626854712 0.01143468686910841 
0.2426777311044602 0.130556536108509 -0.1430662894991011 0.1801147100952537 -0.1444060772002779 -0.3064899251721278 -0.1351154088298771 
0.03204382579317221 -0.1121686429324474 0.1703456105560377 0.05750266639169476 0.1673208871441309 0.03240771590351776 -0.2486669074452965 
-0.1347020206958499 -0.1894879036247299 0.1836786289061361 0.130801938528871 0.06206150233211036 -0.1119471016906976 -0.1768662546156035 
0.08308544321193514 0.06475276770480433 0.09045385578759979 0.1617180092647062 -0.06382709454326342 -0.2093242618082967 -0.2557435877323271 
0.1867343714924932 0.2018701630075641 -0.01692292156147497 0.10146973285487 -0.1158392907106206 -0.1695802200619931 -0.1804566801320551 
0.2142797720892986 -0.1447093474892441 0.1033373159748636 -0.1406257253702687 0.05158419365340237 -0.0268984436320046 -0.1615217110470427 
0.1150798193598778 -0.106790418981452 -0.02132301451676349 -0.2103288374337149 -0.1050675686037162 0.09964211160757017 0.07003122583567634 
0.1110054810213883 -0.01422015706630528 -0.04552845210508555 -0.07722782650922509 0.02960356710524643 -0.1149961989931781 0.008489542912758715 
0.1097282678519927 -0.106051853521586 -0.01917000190503276 -0.2065346797309226 -0.1064578373411749 0.1050300673274267 0.06957509771810785 
0.2491501352911303 -0.1495822058457487 0.3054387340843158 -0.3888774201408333 0.01369119728826639 0.03997288741571724 -0.04438841561344057 
0.1499608486215951 -0.07886945176162456 -0.147553785342126 0.09623777227209607 0.110524197556732 -0.1306012635647996 -0.2591266977319718 
-0.1436891315787594 -0.1190796064669323 -0.08996573984401331 0.1906391400077797 -0.04511259872404597 -0.025545950755581 -0.1383148343517707 
0.1838106870500118 -0.1098132783510703 0.05289409592967989 -0.06029765620482368 -0.07559154308471722 -0.0366363403914283 -0.09953369057651096 
0.2528705588831857 -0.08699969795838486 0.08795165934601099 -0.1278137454637014 -0.07148761240397455 -0.03348606126577895 -0.06938840871255467 
0.06798310456185383 -0.1151600797606618 0.002546895560735743 0.008060096355120646 -0.004484665242906622 0.1147896700523899 -0.07495207628665039 
-0.1190809381806571 0.08662069640471551 0.002536929700669908 0.007313884867018259 0.02096434580551091 0.03718179793314381 0.04507834151350552 
0.01929523257655998 -0.03215932408345482 -0.09293038246972719 0.06342802474366753 0.07719952583986474 -0.3038417705978483 0.02956139622336043 
-0.1193457377860417 0.08719781399083076 0.004685069279420164 0.005844748690526676 0.01880927689372506 0.04437332019704196 0.04415528385768405 
-0.06640065094525414 0.006075737190757344 0.02285643819116134 0.008701464522822951 0.04220464855364735 0.01615767118017265 0.01830992547298787 
0.1331859521371007 -0.06908835566674031 -0.1049179299974683 -0.02020224897527828 -0.000537563266853633 0.02645107451333064 -0.1947066460673681 
0.1124517828692881 -0.1014737927783363 -0.07062797133661711 0.0845776518118939 -0.05708981805903812 -0.01043491824586678 -0.1649128262661999 
0.210155046024998 -0.04246952166734685 -0.0906733033423803 -0.06302600360498059 -0.008085542685513813 -0.0625857308211081 0.04521360187817293 
0.1890144761809762 0.008126320218909307 -0.06873682016150605 -0.126194646232382 0.02347295183085624 -0.0699870305091245 0.1518088032987502 
0.07401924941168216 0.167302660952542 -0.2109515849945585 -0.03309777813967172 -0.1345335870870452 -0.2213915824757949 0.1783080803033283 
-0.120220840451663 -0.05271179153803089 -0.118351466321478 0.07155901191515852 0.02171741894416348 0.01655856298743429 0.0231781526873904 
-0.004332243258115947 0.01875102102494157 -0.05065109956316972 -0.1560189376964712 -0.114668414298521 -0.03263142049298028 -0.0006973076321620964 
-0.08275590141684167 -0.03487170617929328 -0.05495216936234584 0.1321569266073774 0.03987505107389487 0.01564787843496387 0.002197676030527125 
-0.004314458597874729 -0.0521976596767995 0.05596242282102824 -0.02804718207453318 0.1011815187761179 -0.01297449239793552 -0.02343038857608289 
0.2604387489312894 0.06918437940389671 -0.1997928626781667 0.04340892010858204 -0.3402796392143916 -0.2485155156059136 0.1225905712772175 
-0.1065564899546475 0.2399841408564055 -0.05436818374870496 0.08097297171140522 -0.1907866700274075 -0.1212877340252868 0.1657326698629266 
0.2217930434658075 -0.02533021946155261 -0.08937468628685914 0.09592580857362869 0.03390394944509569 -0.0923568951954335 -0.1219444605554987 
0.1544976412656942 -0.1341248935271044 -0.03269334964651358 0.02080263927966708 0.08509674000560236 0.004112930472302444 -0.1628052423516508 
0.06934164225664456 0.03066012464729935 -0.09509117887085437 -0.05454087472315532 0.03139611993490164 -0.001729456328346775 -0.05726458897648173 
-0.1220410752879939 -0.05270560079129079 -0.1183045801120714 0.07121824128254201 0.02449233580668613 0.01699704396897661 0.02318939060963875 
-0.2665324841613391 0.1428143721491817 -0.5149972010488703 0.04859907842934517 0.1219591188982156 0.0440061319899891 0.3536822182751966 
-0.07897264764377099 -0.07234543440541283 -0.03444228128626213 0.06400773878943802 -0.004801423458333494 0.006317220838377218 -0.03791591147259302 
-0.05221349376074866 0.01666946278987288 -0.02151889697057541 -0.006950839260099281 0.05329576451089427 -0.0312426371673462 -0.02811901034516487 
0.1436946319964341 0.06553160006513872 -0.1259354785813914 0.01537867799178933 -0.01197551438904514 -0.174273684539505 -0.1602495253017001 
0.1422322201937586 0.0009811568453738234 -0.1080743448864096 0.120410030986679 -0.2855752801113532 -0.3090677609860592 -0.0175500621169288 
0.1776916913088923 0.05311943419972312 -0.1564043100799897 -0.05128971855874902 -0.03615969881381708 0.02224492545013582 0.0106464313994961 
0.1435038515064054 0.05947243406065136 -0.1371990132938238 -0.09835910213403243 0.05752498682116847 0.13434204342974 0.01625940205117432 
-0.09145814675176835 0.07503155624283041 0.01003473640533926 0.03025367696213312 -0.1208605536890369 -0.1012832367504756 0.0963913046498783 
0.2446179084249551 0.1609515539170924 0.05783083241918041 -0.1198086623784026 -0.09129102372625053 -0.1354210621441961 -0.07268355069891709 
-0.007224032291047883 0.006084534023471927 -0.1012678809296757 -0.01562258134442738 -0.11777812774151 -0.02854372985786567 -0.03783666466903138 
0.04668060043551977 0.0501202435375728 0.09185485742026633 0.004022726340319083 0.0309837464080326 -0.03136632032991687 -0.005563610182299226 
0.02601991938165603 -0.008911839983122378 0.02606557308237462 0.00172286118112839 0.06361557416564956 -0.05297677853924 -0.01517056703402902 
0.06790598805510401 0.1266396795621799 0.1064816512761017 0.01968344025049878 -0.2502946079698898 -0.18600885749527 0.1463879126616337 
-0.1857773618032625 0.06790079344301567 0.06696215479207426 0.005559951169429159 -0.01583185985291013 -0.1395001931867086 0.08760454269799117 
-0.08988275104538572 0.05215957187622437 -0.0001854331584005778 -0.04245460966138469 0.1498023209021623 -0.163191628291582 0.06941429211671953 
0.1065668068833818 -0.03258458618889336 -0.07565974476672961 -0.008181059958753688 0.04016668657085143 0.04222063323778522 -0.06197024071269831 
-0.05997182355932502 -0.03297477586794148 -0.1670326062785736 0.0930649717226421 -0.1200728583906609 0.01608628008008656 -0.007447763648045887 
-0.02773813690354377 -0.01471149303374348 -0.2923223395283908 0.1432765484953131 -0.07138805172570269 0.008301100663345979 0.001893558006565717 
0.138461860248981 -0.02550109457454973 0.1208300342746342 -0.1509016093151835 -0.06849297208253874 0.05356243943191601 -0.1062303061439148 
-0.08465741237303297 0.004189813509196617 -0.2436835532195333 0.1594907528717673 -0.04302696399169428 -0.02371373371332448 0.03361968271196186 
-0.06646209851894709 0.0008818810781344492 -0.1195104458387083 0.1257786251288619 -0.01596668779840832 -0.03318296640291957 0.007256284416406166 
-0.1977603950513188 -0.09457765137066955 0.04488501585334427 0.2550241804233518 -0.09230818997067594 -0.08853449744623014 0.2732963600968082 
-0.2288100070192555 0.1794597449829211 0.08026944198564345 -0.04426634169648759 -0.1952430311225694 -0.1781547578741228 0.2108674579241716 
-0.03523775505055501 -0.2244036521765374 0.08178677393842794 0.06066538144679506 0.1196406190299716 0.2046010909050774 0.02667269782282494 
0.08984484165014381 -0.1983817957246116 -0.01992920799660638 0.06596228602722798 0.1290765897971638 0.1820738124972167 -0.1146677003957581 
-0.05803042310710874 -0.1356208216074576 0.07365424515625353 0.05707004532660892 -0.008163492203253546 0.1233827936110946 0.1072473896903268 
0.001767137663332367 -0.03250945998392164 -0.200021518288185 0.01934855613354115 -0.04331585273541153 0.08222580586874639 -0.0006866396834510537 
-0.09887634743769405 -0.03928590662611517 0.3011605913875632 -0.1109386332607035 -0.1492354063770908 -0.1509201301177679 0.2804526537898674 
0.01058178308962311 -0.0262464437193048 -0.2330195591938587 0.03410266525767561 -0.02982491629505501 0.09627618964583855 -0.03585732352382708 
-0.004910859033295276 -0.03555976872845799 -0.1150615444349164 0.08766665870932898 -0.04381587144664314 0.027558790573736 -0.01770109038264157 
-0.1854294751458398 -0.202452336325293 -0.0106950494966847 0.1913361264382639 0.1464855962015633 0.1814898668828274 0.02054368067230521 
-0.2078456200695542 -0.1317569485368381 0.2559340580725513 0.3134256582661595 0.02587405333467544 -0.2501457037553485 0.1392059162804324 
-0.00544886823332267 -0.04949664435753434 -0.05675778873519725 -0.2001573752265766 0.02037915484958341 0.007155443725670703 0.1667124790485416 
0.03898173176457916 -0.01907880815047143 -0.120387828756663 -0.2748389128871221 0.008112128685599925 0.06307176032736909 0.1358204229799923 
-0.03980506791964784 0.1287235141074174 -0.03805544674934749 -0.05965418104676289 -0.05118999700747223 -0.03390976038565548 -0.03602447010690425 
-0.1431749782319421 0.008325689940618847 0.08413139829567168 -0.2342175874013429 0.1775739246566725 0.5442826955579219 0.02532383602009479 
0.1483371492169222 -0.02726395989945929 0.1219693100671142 -0.08531281916365767 -0.07819285985473494 0.04084725463981854 -0.1131403011864169 
-0.1957985732832541 0.03559615319589135 -0.1243046106075711 0.06046755891691187 0.04884386927788917 0.04038412523191719 0.09008766646392016 
-0.1294466589204311 0.006482477605733677 -0.03541064953641652 0.1273854271678783 0.009338898401683568 -0.05801414203675125 0.04557942628284965 
-0.2346007110315694 0.1223568536538872 0.1707917045149422 0.06355008596054312 -0.1223143464014409 -0.05385763088210622 0.09636385202818025 
-0.02118359127948374 0.08963727211954853 -0.002789113099101395 0.09488448333041451 -0.1185243727319228 -0.02144798018956272 -0.1774536903398842 
-0.1429483320075239 0.03713768794332039 0.1156030305600201 -0.07191982021617564 0.007970995273864689 0.03122612795068951 0.1271084468769637 
-0.05611337190877694 -0.08225104972170946 0.02430614092673172 -0.1166432700567214 0.08966381069086857 0.01950936129959194 0.2340905784628764 
0.3016617099620466 -0.5944502435247861 0.5352398924522375 0.9633769265399669 -0.4829344876601957 -0.4355791152423535 0.1227207456733457 
-0.2084283350019243 0.06405884311012779 -0.1481591018952874 -0.02425476058151328 -0.1015506644610742 0.1422421076544771 0.2525352054067402 
0.08996157630086733 -0.1344487076310105 0.02193787467217215 -0.0364970548134896 0.06205322721320341 -0.02519148838040604 0.08367891891769333 
-0.06196576310265303 -0.1756527995938007 0.1518109341858249 -0.1269156341823497 0.158877405920531 -0.1860909762606731 0.1009700564163076 
0.2451310335112862 -0.2016183958264389 0.02177064491140171 0.06450658642716167 -0.1185192624871092 -0.1781610768860355 0.08328116549454462 
-0.2442812416564358 0.03566740091575415 0.07204054091981199 -0.1208905240568144 0.1616977693307177 -0.006103545759345962 -0.006113015672243228 
-0.2510767171101263 0.0324774004345119 -0.1124472610827891 -0.1155530522892584 0.2339779738196039 -0.03697799795596372 0.1773089900320065 
0.09673172642701253 -0.001403709888047657 0.000374477882834099 -0.02675750043718182 0.01953814708651399 0.00137931969230409 0.1008195324235708 
0.127846654757811 -0.04559910524362169 0.1300165849141766 -0.05647661740326745 -0.0514914178124847 0.05486557062737633 -0.08468061838652932 
0.05058239509707603 -0.1571176855767251 -0.1146249927740156 -0.03596019531814176 0.0892829246856509 -0.01396789479586572 0.2024632848839699 
-0.1206824761560834 -0.1299361479548759 -0.3239691552299281 0.04155326267902216 0.1445786063938176 -0.09916192490723919 0.3476009059353418 
0.1358930112807228 -0.1315566929292125 0.01012003800854005 -0.02747599501503974 0.03070222873968366 -0.02886199568735322 0.0899758283095579 
-0.05435571593035193 -0.1755220048850693 0.1558878762781233 -0.1588841192032059 0.1685555396159736 -0.1831579164824619 0.1087969583729014 
0.03583393474901387 -0.08296551404808974 0.02075211974109159 0.1278167940711556 0.007079150489839979 -0.1025226633997032 0.02658014061712962 
-0.082078734340795 -0.04803970220075558 0.07329310560610612 -0.1913838463480118 0.07344364633807951 -0.05434559327704504 0.03972470627778296 
-0.003136105280018134 -0.1063052894548662 0.03785499102821146 -0.2606972032259441 0.04047080051629625 -0.05534779203988634 0.06983158431659778 
0.2089617073490772 -0.1683639801410662 -0.006961291329523039 0.09261043952489222 -0.06051242229721169 -0.0269816908537774 0.09362114187553341 
0.1565885261816968 0.07539615761063986 0.03076364306502612 0.0141128178966911 -0.03933018264893411 0.05518591118918063 -0.0802272841700617 
0.1105670287185338 -0.1804747202349622 0.008813535248875714 -0.1280008610971304 0.03988053403659579 -0.04976473931153688 0.184344249243484 
-0.07134569406600749 -0.2535199585114634 -0.033560843023188 -0.1315715008304759 0.05999770874050483 -0.1146842975512941 0.2578833152022306 
0.08160082021044049 -0.06409333880671778 0.01525282427225519 -0.07734523197193366 0.05447467000895886 0.001493335164743165 0.06942281395951323 
-0.006658148441627879 -0.1686323148843819 0.06360893316796788 -0.1796867891495291 0.208678682922897 0.05984165007104925 0.05999892721867164 
0.2448971292253339 -0.2145075462445112 0.03021941771390112 0.06395852153375017 -0.1188052255692615 -0.1782069100196333 0.08318851094502393 
-0.2172528054628723 0.01405932720639685 0.02756677637052953 -0.217562719173146 0.2770459592364344 0.1954795926518776 -0.0174470271077591 
-0.1950207306140496 0.007878658027937351 -0.2433290710200666 -0.07108280597670141 0.2396827266242317 0.204735606392452 0.2185778773633868 
0.02749243332799179 0.06354119210907863 0.1730015892318495 -0.1327110157912827 0.03129047016474959 0.2617570927201823 -0.1183477219350974 
0.07573427879085448 -0.06457333450454369 -0.1318717968326017 -0.06537783296372644 0.01914219075202655 -0.08540856323456408 -0.01572764714471484 
0.09662727338387508 -0.06298224763345811 -0.08719142399686454 0.003483871574068167 -0.004778754028311476 0.06245019168841991 0.1601328243018931 
0.02606750065987729 -0.004379737467573844 0.02744595565734166 0.0865872104793651 -0.04961321107120657 0.1680772625806217 0.2135184291247622 
-0.05403061316573792 -0.08649857287430254 0.03339003758834774 0.06677297554178968 -0.007962346533983068 -0.07870783120025447 0.07774635838966125 
-0.05069592877379422 -0.1507951657940495 0.3169588754554882 -0.02452868962550545 -0.09649578941264025 -0.1955402854941607 0.1116799918530535 
0.0004239972454128512 -0.2891905665519341 0.04299977218470318 0.2234926947387045 -0.03335876463028385 -0.3625446821115496 0.1632896765578344 
-0.06050430437907798 0.2163098538924307 0.1450230184643045 -0.2369897879382304 -0.07705631417949016 0.2415594835526428 -0.1180338036885666 
-0.05902806984841191 0.1882891244417741 0.2616401767936714 -0.3947284530998529 -0.08044023416660349 0.2450923485913037 -0.02562857899836894 
-0.1185461403375934 0.08065761329339911 0.06116105914257222 0.05020443175938197 0.0196327485671306 0.03584011190950859 -0.03604813145055508 
0.01104850406149921 -0.1887475002091502 -0.1190506839750749 0.1088940361299535 -0.001618481079556943 -0.08450680910165587 0.03400600475242345 
-0.07315864953854528 -0.08987504058640179 0.06538850033537139 -0.05011430172621327 -0.01542576045899796 0.05154475041273362 0.1354564131534599 
-0.1276213687999448 0.1466621820479511 0.2415944780606614 -0.2081561020944752 -0.04497250448056973 0.1776722640276511 0.123993900615019 
-0.06167613398266261 -0.06798054154725525 0.006674740835030861 0.1170335297179869 -0.001051919277161725 -0.01018955836937181 0.001998563079257581 
-0.07910284224713074 -0.1503350891712696 0.3285692279888706 -0.01322594590092621 -0.07672322099264876 -0.1869271098778023 0.1118403403211617 
-0.189670039056288 -0.3469934784133974 -0.09892695491375714 0.2422747389789073 0.2764931434805077 -0.1799513399425027 0.2327780890362727 
0.12487440689398 0.2814238102132366 0.2380117492162907 -0.2297481956857075 -0.3631718858644288 0.07254207670639877 -0.1964983240963032 
0.1076498955087966 0.01414127585291459 0.4079107248520726 -0.3347489833627574 -0.240003647669527 0.007535908984106513 0.001041865245572055 
-0.06929145763263629 -0.008916031340630294 0.1052865938776422 0.1110004538226195 -0.0124429142783925 0.0970443065316134 -0.02816519997115229 
-0.09185461350431375 0.1369726724498857 -0.1528742837906847 0.08259792771452851 0.03960676100327445 0.03613876194564622 -0.2288593045972128 
-0.007214378972871183 -0.1769563325026175 0.1100452591695616 0.0752682308443454 -0.1513796460400432 0.009169861113953747 0.1258728897119872 
0.07757263655716752 -0.3052372038005556 0.2533093839845022 -0.009171210877137079 -0.2079299142150568 -0.03937906427035789 0.3512701023772504 
0.007616932317980708 0.01629348918488526 -0.04937490612924423 0.03043362935178465 -0.01038096583345355 -0.09700969211204945 0.06386999174017095 
-0.1557174711163464 -0.02769832384622922 0.0898985321210802 -0.1599262707827298 0.1071147405405797 0.01143574930119088 0.1421363500400849 
0.0004239972454128512 -0.2891905665519341 0.04299977218470318 0.2234926947387045 -0.03335876463028385 -0.3625446821115496 0.1632896765578344 
-0.1359319700775821 0.2818651642941652 0.004117503666119808 -0.3298622497846657 0.07235305294165237 0.3660857764103648 -0.07807151769200878 
-0.07767727851699315 0.2297979472725179 0.1186070189606959 -0.2554904854539518 -0.03281391021423231 0.2669172429354086 -0.1339129913407428 
0.01820386779883197 0.2339636244815079 -0.1505664805762865 -0.09061779953685936 -0.00876920127334049 -0.05065507747819062 -0.09706479599234522 
0.1839560063404323 -0.1260601541642249 -0.299506370782993 0.1069600845043228 -0.2226098166788641 -0.1784496094426082 0.1670265683996085 
-0.04793285937439296 0.0793923921056649 0.1882756040848705 -0.06492478261828502 -0.0479645440060988 0.1024297345498818 0.06713485936087969 
-0.2284846830743381 0.1868227259258584 0.4210622854507381 -0.1417717137440967 0.1463331111542836 0.2410803041903692 -0.1170981518632444 
0.1108443109444067 -0.09900793539207091 -0.005089689794601731 0.02273542419556345 -0.0757665000189293 -0.06282482493515687 0.05145535386614879 
0.1323646419612367 -0.05994987899722752 -0.002645451025766043 -0.1335768539512235 -0.03861986008977594 0.1964533107402667 -0.03593863369609742 
-0.1644509235605885 0.03466148446649604 -0.05328133500791566 -0.0876855726575132 -0.07655127684369509 0.08420427951570736 0.1478087712817663 
0.2001189567001803 -0.06377923612747173 0.02463277475645267 -0.01697899702846629 -0.0005297005823360957 0.06587158334982501 -0.1470943897857361 
0.08166807856809256 -0.06934017609830316 0.1165145016077087 -0.2554456989242293 0.1396677224651389 0.02888240129351525 -0.09398784131153788 
0.1709678893099716 -0.2394039931254873 -0.07683138502049193 0.03043063349477663 0.04807273989258073 -0.1279238710834119 0.07123843645477242 
0.1243435525703212 -0.07672153191866515 0.0001415644721836093 0.1532356823453261 -0.2726267689666557 -0.102115154523768 0.05853719690455934 
0.1288656693466916 -0.1269667593718568 0.04768642747793505 -0.09350387336664921 0.1597718637591334 -0.05193744989238707 -0.07450469418766809 
-0.05402948644655291 -0.0052559055655679 0.01525145047415809 -0.1950901042437495 0.3315597876660558 0.05101605120958327 -0.1198959176493992 
0.2827184552468706 -0.116155906199377 0.02971121490663577 -0.08144608948295824 -0.05052316879587502 -0.09169884090931327 -0.07215843892686076 
0.133086814322581 -0.05910818405379409 0.007554197587467044 -0.1329211009600181 -0.05508444823974581 0.1971447046475943 -0.03589254126685445 
-0.1198224086716121 -0.1185333377743008 -0.08626612374117187 0.1835898883686921 -0.2073207535823754 0.04119105257206294 0.04178577585966314 
0.1503050674230761 0.05039921318918203 0.05052124124484042 -0.1997121046101083 0.07663009729747368 0.08519188643689778 -0.06435674527689608 
-0.01202938502136099 0.0003952942568781314 0.1092131174964317 -0.1998636630134048 0.1399027564207813 0.01086438073086644 -0.04530851812845782 
0.2373561900234161 -0.08178181830594008 -0.02875476717011512 -0.08975912444786727 0.1820904150561405 -0.2667362208216276 -0.0728291953378971 
0.1457342027987893 -0.09955944100976828 -0.03763378255886685 0.1027405626618181 -0.1054308257850564 -0.1302630307237774 -0.009099687007150132 
0.1899278905739677 0.01541323343575669 0.1266528140487413 -0.1749343729530461 0.08240855028555084 -0.004967108854809632 -0.191734772093933 
-0.04134955747128331 0.1034525724562636 0.09089936317709099 -0.1784324953087081 0.1070604776395968 0.1025380507594516 -0.1140164955381033 
0.1078067788087384 -0.1107432165871949 -0.1075925388816705 0.0237602095545928 -0.03483987879377974 -0.07376064888789353 0.08658582313208643 
0.1243265392062922 0.02808130690777944 0.09958911146426477 -0.2396831095771507 0.0386863267285791 0.1757117503650588 -0.00643859279779028 
-0.1645084976891047 0.03151653617533669 -0.05562265152582638 -0.08609894577222114 -0.0768522978605372 0.08776174784193343 0.1475347072511503 
0.176504363017917 0.004090222909851088 0.09291831150725513 -0.1029138890112784 0.04730664572607565 0.05846161954332041 -0.1087830349869289 
0.109461878752839 -0.02633673938484871 0.01812803582078236 -0.183340985606256 0.1339197770436887 -0.02404058848772606 -0.0643097764490313 
0.1440221155514937 -0.1936866114627161 -0.1204616220627733 -0.01684760417689406 0.05041250063862716 -0.09628363019115377 0.1028492997614018 
0.05715356386669954 -0.05661967359409882 -0.09876051079219773 0.1932766224496803 -0.2911694352760772 -0.1239223198907554 0.09239083613454929 
0.1789782292657245 -0.09031208458608847 -0.08630676704243348 -0.128969529550078 0.235359287061175 -0.1188653159434234 -0.02159867563988969 
0.03081424555912509 0.003231409244231386 0.02075822297985268 -0.2146316341015205 0.3320162285635143 0.02737851228177601 -0.0994548390591428 
0.000572113623583094 -0.08914540058675062 0.0486018875709348 -0.02711895863834079 0.06175905258517529 -0.02316680025344195 0.08758630616761569 
-0.0916318619732783 -0.04092464884009574 -0.03843726654048164 0.06342662090028528 0.2171210830048353 -0.105383855445868 0.09608353244997715 
-0.1194122459957596 0.00153729220927345 -0.06949230666604815 -0.07414023084571074 0.1808115969887009 -0.3862330076210141 0.1551056875826222 
-0.01418952157967704 -0.03304382614071036 0.001822069264542897 0.1124519174892599 0.04744894593424381 0.1524554906416111 -0.02620355543289524 
0.2210950575599929 -0.02786295174617055 0.1960575861343692 0.02973674770700545 -0.1058176312891197 -0.1521010584099872 -0.03491026396351679 
0.1042992154266328 -0.09251316475644128 0.06496167975927426 -0.05679127805512569 -0.008125444531816465 0.07856000397771599 -0.07726472675121054 
-0.1106694256783922 -0.1460303588097519 0.04567187563458443 0.03230175281583688 0.06408839354743844 0.05094445687657596 0.1555562911380616 
0.1506629414039269 -0.06222241114007211 0.08560626767772067 -0.05634509464033065 -0.07780326739287022 -0.03111467087824399 0.1140333245287305 
0.2152020884892553 0.06062803772712386 0.03364004630357698 -0.06883976574992495 -0.146301995700427 -0.0769996533286937 -0.02489456903738577 
0.1018543539078635 -0.04816578802961053 -0.08688664641071728 -0.06302973211998296 0.05018096597634547 0.1161142474879008 0.05214624795215514 
-0.09937354076213235 -0.04090875589467723 -0.03834999063452062 0.06376344668996026 0.2326399035904738 -0.1052068259199611 0.09610055992732179 
-0.2843070636756199 0.05979163549524333 -0.2368404697592263 0.02518424823381205 0.2357421172757722 -0.1328332541659381 0.006347701677066784 
0.09963655926103211 -0.07197797383830216 0.1207553110033621 0.046992621520917 0.003900974451983789 -0.005208611957250017 0.06630940731661447 
0.1360460091658524 -0.08832487061512174 0.1922697521171864 0.02451092533593575 -0.1054617384773364 -0.1547754117567784 0.04483011465124494 
0.2239524981186883 0.08016715643072859 -0.1848114371732907 -0.05812045402435792 -0.1692720638721634 0.1941841503985623 -0.1244446406047187 
0.101009732687629 -0.03905452047993679 -0.1033386358448744 0.0314218354821566 0.04853546604713112 0.1006411841350755 -0.004880559139820131 
0.1863958032753324 -0.07168283348195281 0.02387665322811438 -0.01025533833739124 -0.1707791908396774 0.07100767790336969 0.08329989831746379 
0.09009284147034019 -0.03581502323722918 0.0932690875759761 -0.02530237338699426 -0.2258911049806683 -0.01680908103684244 0.07616107607785264 
-0.03678096619240445 -0.1594650743922704 0.02134618598385049 -0.07994487642903306 0.008116693884546979 0.03921623103238536 0.1051637076759344 
-0.1784253146840947 -0.03987477068941777 -0.02237763352289161 -0.02314476521896574 0.2469073409563833 -0.1131109837973659 0.03044772685163404 
-0.08446273793891766 -0.00127236882640868 -0.06853595927262647 -0.1324033610109786 0.1673881143431529 -0.404394664363588 0.2004758123632668 
-0.1019010845158946 -0.02597998838107552 0.01142612475305017 0.07001731962111057 0.0656567509568127 0.1408191051501207 -0.1035091929374547 
0.208837860098623 -0.01037317629666101 0.1330320898111081 0.1052910330852657 -0.2720502108630725 0.007441283981472258 -0.1002353878142756 
-0.007699529701867946 -0.2431135842406921 0.1000268863766406 -0.01107042865753216 0.03637679724469128 0.177772802626244 0.02290440421556796 
-0.1882915699091151 -0.187350661446742 -0.01924826505781139 -0.1116003934854175 0.02369564417741003 0.07083488377225494 0.1847737352061134 
0.1557111917296175 -0.08996526964323324 0.05715622727020341 -0.05037441811735308 -0.2456469975391443 0.04350809547845056 -0.01699371083756542 
0.2767704549703898 0.0893802287684542 0.05162892383773222 0.06512480784180313 -0.2575559173474518 -0.03416461548027323 -0.1839513056575664 
0.1134366885344173 -0.1048611764796766 -0.02515987514032239 0.0005934342325954298 0.03595527471692421 -0.005909952824913843 -0.007274555871520536 
-0.06397840133814921 0.1026275410545191 0.1381945773326848 -0.3706768073411993 0.1214096361476319 -0.02847379046618956 -0.05367974323909837 
-0.1693118790269157 0.04388110851182152 -0.1063372583832059 -0.01439115511490109 0.1218738168783856 0.1010394841787599 0.1256862060626387 
0.07672622120885982 0.0313435103825134 0.1495738469459608 -0.1911842121303788 -0.06771184201185979 -0.1122266493362803 -0.1483203531601472 
0.1513503466253543 0.1902231875666601 -0.1163612464206965 -0.3729494375758529 0.0202464157866609 -0.1109807035519093 -0.133601850641714 
0.1085580879209534 -0.03274464855730332 -0.02572711404939119 0.02404256898265393 0.09707194645763621 0.009614489656167246 -0.07148823616697633 
0.06868523708797197 -0.2161916520773302 0.07699007945365038 0.157940316156718 -0.08456082414952779 -0.002801193650478759 -0.004484996344879588 
0.2789528388388266 0.04201572166463442 -0.1903523262041819 -0.1902950701445637 0.02338795114843673 0.01566017334174696 -0.07508225476478053 
0.187402190441186 0.3467012939599208 -0.3342226692597204 -0.4046301568358769 0.09315830778391918 0.00507936082500386 -0.09375458610812312 
0.2248352578289396 -0.1262188095337758 -0.07152878187416595 -0.06214179411633686 0.02030118018982391 0.02554995161894814 -0.04495011611213707 
-0.06990942722885844 0.07980092783493976 0.1453002418054723 -0.3416875341577946 0.1124595701719421 -0.02413747791185432 -0.05245960316688299 
-0.02488562871046618 -0.223802315196389 -0.06105662405071102 0.1245384776924819 -0.04735512924085439 0.2084191907414279 -0.0628472246189993 
-0.03900409545450358 0.2423089475477841 0.1099679790676831 -0.2700132156798629 0.05612472131220346 -0.2079456865924109 0.01066625632545731 
0.02799073584698284 0.2159609811020373 -0.04318982717082262 -0.3396818831203671 0.02947729880730177 -0.08936279088682975 -0.06064853718771832 
0.2540653490993412 -0.01559164250930332 -0.08607832096850006 -0.1033971488459588 0.07022682585207735 0.007746928368671736 -0.07459601933810986 
0.2245534264082072 -0.06648149994137592 -0.05399788174833922 0.1265877266837379 0.0276912848260029 -0.1715882268721169 -0.04023622241224162 
0.3218531047305455 -0.01141477824741606 -0.2617372688515699 -0.2534620895383269 -0.04755971619729286 0.0355590140992035 -0.02656764477599494 
0.02861211716287407 0.0769958846096381 -0.2210843410029205 -0.3982412774512353 -0.1274722526203659 0.2331178595688426 0.006011794396148969 
0.0875962566048905 -0.1079336399240123 -0.02891955195478685 0.05660027995781373 0.01874112532263633 -0.07400866256704931 0.008150476097819387 
0.1724581530488228 -0.1799301408029569 0.1139490656928732 -0.2960053330208332 -0.0636572641282505 -0.06191665739324334 -0.01282471937603693 
-0.1681350491144723 0.043278845015869 -0.08181350652939877 -0.01944996257277488 0.1157665045503381 0.09860716874569686 0.123377143245504 
0.2169835352633822 -0.1415127984057613 0.1180242152484509 -0.1581032828858535 -0.1665801528935072 -0.1271954703170006 -0.1160918377698126 
0.2319585594746213 0.1033108364950803 -0.08771166450253672 -0.3223357512683358 -0.06545542675481161 -0.1481305266129296 -0.06820199502564193 
0.07920534487530523 -0.08066524641476418 -0.002169926742727452 0.05673020260598752 0.08871740100731391 -0.1400927716441891 -0.009754406705395922 
-0.01082053066264133 -0.2163121877294777 0.0323661284590456 0.2620110715900646 -0.05427279197941169 -0.1237178960969398 0.06573361311134572 
0.1558843023064014 -0.03317664639469491 -0.09792975005738928 -0.103578175595191 0.1130012097612683 -0.07416187956439771 -0.06306352368467905 
0.2057849273441276 0.2232796709288326 -0.1741554770956499 -0.4467083671858422 0.1950602023143649 0.04870283732599889 -0.1683830000507796 
-0.03205521463291979 -0.03654669208654934 0.07754866257768839 -0.04810712371388873 0.02035628171043254 -0.01290916758080095 0.06014664238196873 
-0.1470274572047299 -0.0001628110142066 0.06592790595123885 -0.1277256776488442 0.05190392031103803 0.02945642676144792 0.0237030657779683 
-0.2701532555014178 0.1718104672898192 -0.2843395600141084 0.1751997022975021 -0.1460269089388436 0.02827553618013598 0.1284637121927583 
0.0567607015094564 -0.1136735723878666 0.2332479170030669 -0.2071684131204035 0.1116962351386409 -0.006262302725869804 -0.0802724306211515 
0.1998345097101928 -0.01900772263370205 0.1959200631351288 -0.2387084523042748 -0.01480180818664049 -0.07003573809283793 -0.06067098725256757 
0.01036897964956983 -0.03673988313912274 0.1183989559646399 -0.03858271791178171 0.0360915147306733 -0.05654825310065568 0.02499474515162657 
-0.1134959870023421 -0.06484030988232334 0.09703454598075503 -0.01901409841217929 0.1245799573502351 -0.02015779274225169 0.03620892754876079 
0.04404535721216163 -0.07011712562563865 0.1656735669928615 -0.09546938341963643 0.00801851361720554 -0.015699801719723 0.05030945451328386 
0.1680770606389771 -0.003532591552290708 0.07062136217290549 -0.0795299651588402 -0.1569067193805511 -0.003095372848100941 0.008168501622568741 
0.0128541352699465 -0.09048753134048938 0.1328253190968641 -0.0208826948567297 0.1085123797454053 -0.02807044246569435 -0.01337344279346611 
-0.1417382532263216 -0.007834338822310497 0.07893061449219102 -0.1394689105732764 0.0629670051037446 0.03232867941396889 0.02473117268475326 
-0.281584003486847 -0.2254355857479468 -0.2949922428620735 0.3320913267771992 0.1552849714742103 0.08378006533912206 0.1593655623128384 
0.07724160403984899 0.1545296758695618 0.2454236788912603 -0.31504078572126 -0.09371687518587894 -0.0454039836629199 -0.1038505064123216 
0.1205709003776841 0.08902200422779086 0.07666932698138403 -0.2121034038625374 -0.0615289155918702 -0.07863811308960147 0.02299097610818721 
0.1105390062801929 -0.01753042334030894 0.1297123156844882 0.0417210763017078 0.00811951975455415 -0.04941925791672619 -0.09856416895205418 
-0.02256829422795213 -0.0617814439278634 0.2505915866453307 -0.07450241476317461 0.2130202566769202 -0.1703704895379261 -0.1351039902617623 
0.1389161874567053 -0.02614995126568857 0.1955367983316716 -0.1164117321182202 0.03613708066289903 -0.01607911704859021 0.02432367975784023 
0.1451291152038671 0.03306563860197183 -0.03996032954632214 -0.03952221115450781 -0.1809454362491895 0.1275350027409715 0.1356199199123805 
-0.01137957774445448 -0.06120918944616746 0.1078688520130019 -0.04488320722599062 -0.03382740287461679 -0.001571858090260881 0.05731083201009197 
-0.03237526655909743 0.03020569607840779 0.09006626383258065 -0.1952643819159517 0.17416725669283 -0.06582679339661432 0.01299566871839501 
-0.2716422678862047 0.1640315463866202 -0.2908791750748828 0.1736781619963495 -0.1454727427361092 0.009298078175838942 0.1398093047560217 
0.1250550497129077 -0.07231929464055249 0.2325417536606404 -0.2425785089172215 0.1927643612695803 -0.06490955472885536 -0.08501266507141617 
0.2826922125301279 -0.01621857804578189 0.3042418911362794 -0.2838634252478032 -0.02954369627179041 -0.09947738528053854 -0.1170123635948089 
0.038717687892943 -0.09621153283969724 0.3078441318713431 -0.1805323864772995 -0.01895082133454147 -0.1052284002642276 0.01361998682929039 
0.01395395030136505 -0.07784678329576228 -0.01464125072022176 0.008464124773202042 -0.09153801246438885 0.1161403874925287 0.03676197189387128 
0.0297687594465539 -0.02677832403866418 0.2273625742366847 -0.09877941302650153 0.03358648935649517 -0.06594259843146874 0.01971265819272584 
0.001339253796243462 0.04982202059126536 0.2178674901633341 -0.09122618581440145 0.08966218610470374 -0.1778284625053758 -0.02457979172963385 
0.03161269545802929 -0.06340217795688943 0.008701096422277522 0.106792547389907 -0.03568933880759876 0.06049067799459415 -0.1309329866092202 
0.06119238033006516 -0.104385249665413 -0.06013206563378395 -0.168267283244623 0.2125133091844042 0.08702318514566819 -0.008768797274155235 
-0.05723410137558804 0.007595448959409211 -0.04804863587572875 0.01716298208818538 0.06204275765203584 0.03800880592552494 -0.1123247146387798 
0.09022299260790974 -0.08804667059989527 -0.01566854110860296 -0.1405258350009712 0.06155978016670439 0.01441088033770193 0.1016878087762134 
-0.01351149227600016 0.06731590832224184 -0.02139762032109918 -0.1804806555686552 -0.1019648170424591 -0.1073507089439112 0.02341750969243027 
0.04047464921707462 -0.1326763799660926 0.09918046816030546 0.1718967156152924 -0.1721016275467163 0.1432410593877764 -0.1401881636782611 
0.008922778809614396 -0.1126812620012956 0.0175122580459197 0.1145688434069664 0.06511372483262602 0.09681912022988447 -0.1228390249688315 
0.04720078602074574 0.01406092194097327 0.04664767990667041 0.1112508446203919 -0.2163865060449038 -0.02000575782797178 -0.1097149175935442 
0.04773043603476251 0.2109178407500926 0.03544788298926255 0.002457645106171576 -0.4818259262059438 -0.1993714024745104 0.01425732987137291 
0.04667666063764298 -0.06398049510006035 0.00166995490400062 0.1081084708401663 0.01732438313642072 0.0716317407083835 -0.1485094767201366 
0.06665134566211985 -0.1182878646963841 -0.07083572228912316 -0.1693081440074939 0.2262293237055438 0.09036224714508155 -0.006564451970623384 
0.1083629832115381 -0.03072494909234024 -0.07320524141118813 0.1489896862702796 0.1265669457830368 -0.04332354440726042 -0.1314010941743096 
-0.04636095299551859 -0.05700680958857953 -0.01204778135192907 -0.2119035705456612 0.03888892674609557 0.08366097017849405 0.07643979771100366 
0.0110510051943354 0.09285920057721321 0.01705452106496972 -0.1836069719281828 -0.1422884502811172 -0.1691772453536331 0.007463548858492555 
0.04324623392422342 -0.005028721394917742 0.1273778787372688 0.08834529006704625 -0.2499143510219451 0.06145915074743136 -0.1504043935918818 
-0.02895969531280125 -0.223663107420121 0.1094733409225029 0.1743690996492006 0.07712094578352897 0.3855854955550985 -0.1583496823088485 
-0.02526267177613479 0.04078372810266565 0.02308328481982285 0.0774105114840411 -0.03588788044957871 -0.03744087002379582 -0.1067457671974864 
-0.009145573861267353 0.3375930687780012 -0.1156178875814189 -0.1063594555420483 -0.1659669048844037 -0.5397973124836924 0.04773380102187243 
0.01306147987416489 -0.0976714552296908 0.05273856648474559 0.1020922624774132 -0.03305267260698539 0.03101898971761064 -0.1016240333936346 
0.1284086445657995 -0.0245675785619329 -0.1407340565316316 -0.04961589682584926 0.05623578449674212 -0.009740318539033651 0.0007133606579367664 
-0.05522298476075631 0.007511023738488426 -0.04958835907338659 0.02123243894778886 0.0582040245650759 0.02060644824121362 -0.112901412435526 
0.1333779406555108 -0.02049483978379302 -0.0784459901811477 -0.04360246871307728 -0.05680894994155447 -0.04256022785738572 0.0990067536697298 
0.02588148109624762 0.05819319231690179 -0.03819617674057008 -0.1110245671827289 -0.164648709245396 -0.07894928269133467 0.07425000444308497 
-0.09396301544911152 -0.264413784260528 0.2334444679146915 0.1346264250208225 0.03683151694077778 0.1679006531313705 -0.1673707842724646 
-0.01625014114633859 -0.1308672534118412 0.008009522248492641 0.02197830297621505 0.1156311622442066 0.0004813004127562458 -0.08990352973034454 
-0.001314013525045177 -0.04591143558373216 0.1952803893901393 0.151263305161065 -0.1682264984776334 -0.047367842297763 -0.08167750665777576 
8.550016304866709e-06 0.1194057681901203 0.1932074722030846 0.1555808875425798 -0.3699822973405354 -0.06552722936627846 0.009272276190806275 
0.1454255787948996 0.06833803096943976 -0.1037673048009925 -0.05817043379918235 -0.07134486288711125 -0.01317194400639468 -0.005517044953954258 
0.3412954867368461 -0.0360812358194631 -0.1877729769156371 -0.2088687314963106 -0.1666167179478708 -0.05251280225998686 0.1920192981050035 
-0.05485647826228785 0.1349052429216561 -0.03914864499716256 -0.1332378348210352 0.1884269868371339 -0.05842474553344419 -0.06264192069100741 
0.2313510647520902 -0.110072278255194 -0.1037561185331563 -0.02496484416944805 -0.2652888500073573 -0.003419914084863786 0.149908799040247 
0.002063099710504199 0.006363596772806403 -0.01545055583321969 -0.09018128489743435 -0.06436735902396107 -0.06934776836471647 0.002615001899937448 
0.09171715324460147 0.05733046858687647 -0.05698130428834979 0.02411373704836522 -0.06888170036123555 -0.0247970353563774 -0.06029217152247392 
0.1826563474451394 0.01801845420452028 -0.05504112867122028 0.03652028504607252 -0.119162685477381 -0.07717861087731992 0.003647423182375983 
0.09913061992140994 0.09153986727120397 -0.08539000113433599 -0.09873660013378827 -0.0854774171720369 -0.03815813053659611 -0.02342364824062731 
-0.1535126595640899 0.1221458843894446 -0.0608020984471719 -0.205918798999837 0.02632303560744924 0.05395933105228168 -0.05450726552849627 
0.1542446298610249 0.04149074145342724 -0.08248486471045784 -0.01115531670602361 -0.1574500023201029 0.07942126753843212 -0.06798042183079778 
0.3390946687781066 -0.03408805929582496 -0.1774315970945392 -0.2385772428343933 -0.1619232825136407 -0.04769782370737204 0.1895888707308734 
0.2377420383153372 -0.0616304118525186 -0.2215974098288835 -0.005046077299749563 -0.2485500833711952 0.4620045401873603 -0.02529857270773733 
0.03242060302464971 0.02864863093644034 0.0356800108503325 -0.1470285060149603 0.04980322056723382 -0.3978907052124145 0.1377147001225766 
0.01208542701452048 0.0843266041808165 0.0004955860984226755 -0.2005758045533272 0.03755709671916192 -0.2689803136341507 0.0330610917706149 
0.02268988237174308 0.01691890069443247 -0.02552994553909261 0.05451633957299896 -0.1101613102972298 0.1318023948474479 -0.1261792885116016 
0.09323195101834658 -0.002752050311676295 -0.001948265016654899 0.07299883934723496 -0.1946079807291391 0.2094204389852606 -0.08749155625628879 
0.1904118946580642 0.208158120357521 -0.1091233554788453 -0.1597806912898177 -0.1438729317917076 -0.03015707835506135 -0.1183633554837249 
0.1430183122445146 0.3268412182621686 -0.1783494242321289 -0.3332467210139352 0.01936350535093696 -0.3496878114987353 -0.07066149690120914 
0.1244183673456254 0.06677525484282058 -0.05778575272242386 0.01366887516513941 -0.1647823760171127 0.06034705832005854 0.002367485921095916 
-0.113933113288273 -0.03552666533810965 -0.0494774868946688 -0.01887542938663971 -0.07126117639674888 -0.01378477602133739 0.1311309428622318 
-0.04421913148586117 0.134832454213715 -0.03966976862207109 -0.1336303536085567 0.1815330531409119 -0.05899844494085019 -0.06266427777033969 
-0.05853930889330766 -0.1012559443174229 -0.01823591006636753 0.08103231365283363 -0.1830924577456401 0.0187141320879785 0.1108191542889287 
-0.1063413394542392 -0.05265714164603609 -0.02106866261291538 0.1384462331207181 -0.1638751647780902 -0.002227309400471512 -0.04310544060108133 
0.1606753242890414 0.006345539613894568 0.05102007141463443 0.06455954482763118 -0.2429327034780304 0.01907923917020361 0.003910219469153117 
0.1344508916136725 0.07904620765444885 0.002951975089863464 0.0191984365634682 -0.1160967917501654 0.001484630826858095 0.02325410930285835 
0.02782809192251865 0.1098622304153678 -0.01239687313360579 0.04507631260410531 -0.1080313099507239 -0.005626137236462214 -0.08388968467353378 
-0.1569336655198589 0.01337290157839002 -0.0302419740730132 0.03297670211203818 0.005499688320014261 -0.018519761988863 -0.1216666647207599 
-0.04601530045220049 -0.05373050771478059 -0.05723825779858407 -0.07251015786647091 0.1190754845258146 0.04417809915754909 0.05802607918539945 
0.01954198081838054 -0.1803766630822115 0.06698022613264458 -0.2621023056002634 0.07842942418678191 0.09438392044938378 0.04553895025094357 
0.002962531640802107 0.05790345558981393 0.07654710896056012 -0.113866406962101 -0.1747815019003711 0.09288508354163359 0.0104828020053328 
-0.01578526382902505 -0.1200610617129051 -0.04594853301323439 -0.0162506912305247 0.1274525461087741 -0.04171113538347333 -0.002487957053140709 
-0.0042140228804343 -0.07130426637889306 -0.1006820837965346 -0.1331293023574029 0.02548204812352007 -0.01534961357131286 0.004515835873135027 
-0.0001915430576588653 -0.1021943896664931 -0.006515028164756121 -0.1049561092230918 0.07930108531722442 0.06703402526651049 0.04012141841431548 
-0.06506570261208111 -0.03041764574651815 -0.07075562237422794 0.05721190356326843 0.1041917059398049 0.07524342091349649 0.02454674657018854 
0.008026841755650204 0.009066872931286277 -0.09063320489037902 -0.1304349670545526 0.06892911882571441 -0.01983581095236066 0.05685835650514425 
0.05867644000912096 0.04327819940902199 -0.03700631888495481 -0.1835968818409515 -0.05532329351095356 -0.1034595976830728 0.02638072166951693 
0.001595297325477306 -0.07574868881120889 -0.04902465041029447 -0.0886487408623251 0.1072472028842208 0.03559139419211622 0.03670067951719395 
0.02428941338953858 -0.1863917287171138 0.07525791323323472 -0.2680101740952565 0.08435774265791537 0.09478392038280778 0.04902768930883446 
-0.1850964787876724 0.01809656256373144 -0.1489109352776662 0.1443520055307467 0.03280030365394578 -0.003069073212596926 -0.06760771904599597 
0.1368343781736205 -0.1271818244610122 0.1455367375145098 -0.2665626605916839 -0.008038105238047768 0.05041381216712017 0.06932661205179949 
0.06159355627471896 -0.06243637769017996 -0.04445780891249327 -0.2384923860922724 0.01976893365562701 0.0751903719166038 0.0243346149271752 
0.1338993754621749 -0.1094317268669172 0.03916907171705295 -0.1401066701532123 0.07129865412313284 -0.02472667019452578 0.01101822748331377 
0.03026917297507625 -0.1161226519254181 0.03868028179342309 -0.03845252149860607 -0.001051313128365471 0.03284073310093744 0.02433828232023651 
-0.0005618668350297357 -0.02070678938361102 -0.122082274539157 -0.0905954726114948 0.1045803625408019 0.1341391766683078 -0.004187253154358569 
-0.05187600247676079 0.1195876905766086 -0.2121141293520747 -0.05653141994420287 0.1063945726965711 0.119643739415231 -0.04463277361226508 
-0.05491289232571125 -0.02313455901866973 -0.04817690862453088 -0.01267928226602496 0.1107938676955944 -0.06988430077697699 0.07838851223902246 
-0.1504229941614238 0.07535028077780306 0.01841999221598491 -0.1822994360557036 0.212845056332293 -0.01052043400268829 0.06132713726167849 
0.005284182742456347 0.0553056199851781 0.08070162996905952 -0.1086075541205862 -0.1709570286452612 0.08849092799189015 0.008966131759638349 
-0.1073046307129982 -0.004077854827022253 -0.08309978213220791 0.02131190156719811 0.2197588220029875 -0.1005774522156015 0.007124380787442384 
-0.04523318016806045 0.02613518412135959 -0.09319145891882599 -0.02742395461294386 0.05192593091665924 -0.1718260445057344 -0.005951002624055428 
0.0003908295670274672 -0.108805817069411 -0.03328054507917401 0.04074623161871864 0.02382436333110005 -0.05712217333546291 0.08448478275875181 
-0.1215142116637309 -0.03010755644180417 -0.06049808629792343 0.1401057240335971 0.08150420759706994 -0.00362446631029189 0.01111495517253479 
0.03719059160256283 -0.07052937803730418 0.0448564363171501 -0.1048411513905378 0.05958481545820149 -0.0749679090717339 0.08944856446648428 
0.154210937989934 -0.02665972225496898 0.09574776062444534 -0.2430215658614918 -0.0696751611659335 -0.07676386758968547 0.05855986529913516 
0.03379254765108535 0.06226379725118462 -0.05362494673054398 -0.0777958060567174 -0.08658776907381142 0.01331611681097947 0.06735136741201245 
0.1698970614604242 -0.02437457055518177 -0.08783317852534531 -0.1306951765350554 0.1293139600830644 0.1030188387434723 -0.09993680518460524 
-0.07380260828653272 -0.08919535797996406 0.06786926035837369 -0.2226871329789765 -0.04307349147572938 0.1206437293251482 0.133028035849161 
0.1470959091239064 0.06785898994593097 -0.1304527202270686 0.1270571779312653 0.0770931860252124 -0.05380033177565058 -0.1913461755612295 
-0.1073496500418476 -0.0001803029800102195 -0.1420198575882125 -0.04542610327175699 0.3521998768267362 -0.02609174576401464 -0.1601153148548287 
0.03111188905209826 0.07467003076932385 -0.1064761610322001 -0.001615646176448113 -0.05177896681826952 -0.04901891355214509 0.0849358703731945 
0.1163667847121664 0.05597252707825894 0.02288231264783659 -0.01265967529114449 -0.2834060614685079 -0.01842367260343394 0.1165713958942083 
-0.0858885332717452 0.0180676969891958 -0.1418830095772592 -0.07252745205994501 0.05696219680234056 0.1266398017037145 -0.02108675415975225 
-0.2846843089692133 -0.05032035337961605 -0.2185203650500563 -0.0549174893297272 0.4242038186100354 0.1652353311521483 -0.2006384633130737 
0.04790796732745523 0.1000006662106489 -0.1373427493176725 -0.07602338382230212 0.04317118398802412 0.03099410187705646 0.01887747840777503 
0.1653566860262547 -0.02382453295779467 -0.09589483650066408 -0.143659587554515 0.1396142634932492 0.1078567649725145 -0.09878709692840798 
-0.004426349483989249 0.08069174481535893 -0.07030195524412375 -0.005484535306648778 -0.0411147708529546 0.03059284347789298 0.08477081342124812 
0.08700064615809261 -0.08590837751119121 -0.01571116809570283 -0.07014791672747732 0.08394322795774416 0.02544387379988905 -0.1629552248911825 
-0.07379186606091195 -0.07226398859573013 -0.04818264188674964 -0.1125504607362633 0.3158834179898741 -0.02887524968494332 -0.1231231430632258 
-0.02218874524772144 0.07701232093655881 -0.08407336187426175 0.03776514826813697 0.05091516507835933 -0.05684476941500998 0.01125990037749214 
0.0404470917073339 0.1109159203247169 -0.1256669505154639 -0.04158069543064273 0.06408685805293231 -0.04144774715558332 0.0768752422361966 
0.03034117280983781 0.05818387542150553 -0.1434391034884762 -0.1295386325052784 0.1074155506436281 0.09820829598100836 -0.03466904458473657 
-0.02669401465891331 -0.05847198808179612 -0.03111256604574482 -0.09128153553160433 0.0229206806132527 0.1538572612582611 -0.1404131019433963 
-0.004458361911105456 0.09048471246283103 -0.002838064062348886 0.01297105706368787 -0.07609422927398167 0.003083694854194949 0.07621501369266048 
0.002989926452326456 0.1576951321420654 -0.1097291982235253 -0.1118905301887115 0.2883052708950731 -0.001734927249643558 0.002516460927733007 
-0.06161118106205788 -0.08777677937290768 0.05845778567179498 -0.2281545507369904 -0.04650871981498642 0.112091745070675 0.130817028991281 
0.03267118723581917 0.1771773292846701 -0.1349145820324434 0.1470539976666177 0.1720219446792352 -0.1122664080670565 -0.1272641815328283 
-0.1773856126026246 0.05792462474101445 -0.1832889140185025 0.0177860827242299 0.3715106300888784 -0.08164259490807366 -0.1205481438984076 
-0.001376601057682178 0.04443454475144972 -0.07785294638322243 0.03600742657013704 0.03282199997302539 -0.03163326411284112 0.07612577828443673 
0.1336711830845932 0.04134140373014204 0.09719674280431612 0.02449703749724549 -0.2734890679770975 -0.05218034861134704 0.1004030785458894 
-0.09974342365872318 0.1079588462908459 -0.06241086561069466 0.07561267588624078 0.06118555935625973 0.07205394442682198 -0.06021664773287663 
-0.284054199587734 0.06811498978858128 -0.1976001871327532 0.06351701585977008 0.3565206371305291 0.125661333964454 -0.1966539592942336 
0.03347406808378294 -0.1110725118409297 0.05883178747592396 -0.1196018477739005 0.1225781063555988 -0.008126931467720665 0.02664388351065285 
0.02296737258896218 -0.1284796229303112 0.01262234038257622 -0.2736851175046986 0.04869672560154713 0.07464194560524744 0.09930630584759 
-0.008204873077489114 -0.1345649932953093 0.00171144810684298 -0.0199299228129496 -0.1451729022901901 0.005838119719360138 0.04583151688148637 
0.003102220787121199 0.01274826135974509 -0.007047351077742077 -0.1519130538720125 0.09830917551449221 0.03379560196323898 0.02161986242729806 
-0.1877093382942821 0.02351052510018463 -0.05976205784922596 -0.1500837809135545 0.2956507426545497 -0.008065176256046261 0.003221427123265359 
-0.04555906134825572 -0.09354713403980533 0.001605630177545573 -0.04312120159870272 0.2451379709069571 -0.1049882916679236 0.0187220192489085 
0.1398567708861668 -0.1202370127227168 0.09813941135909378 -0.001660370840032981 -0.02821547452499176 -0.08641980037134618 0.009532646499768442 
-0.006696578806400176 -0.06569981304023584 0.01593202210031766 -0.1597442956845904 0.1974344056410535 0.03793403542582649 0.02472127782058557 
-0.1888645895333774 0.06653747680589604 -0.1095638282761388 -0.1775522572012023 0.238746031530491 0.1361479901127743 0.00693911154448075 
-0.0301028728296654 -0.09401688357436885 0.0402749206089463 -0.08342642580610042 0.2226547078374529 -0.03762812271826688 0.008036446097435326 
0.03293486814379652 -0.1228321157623064 0.02156011196203268 -0.2718081312483372 0.05671122451377075 0.01397800204080673 0.1001939217487786 
-0.0254544916739766 -0.03109328308634548 0.2428941516024963 -0.08273866384245573 0.105238917174908 -0.09165228340537425 -0.0370262484003662 
0.02634408247049495 -0.06683985313971316 -0.1818099768551972 -0.1351891684631867 -0.06963324109288392 0.06865566372847447 0.09328687688922002 
-0.0599888726683319 -0.01709225479567655 -0.1182463631675493 -0.2582683534320531 0.1430678993694816 0.1007286735201192 0.002909678071827557 
-0.1489539218878508 -0.09152721009875511 -0.01574507224932187 -0.06996992879359341 0.3854109415982841 -0.1544338876317151 0.08173955255315146 
-0.09285585971652278 -0.07619402697934072 -0.006438353948703825 0.1412549441221257 0.1436804711400814 -0.1820902321978932 0.02693702235467879 
-0.07392357337378605 -0.04232534705155677 0.01322138808196958 -0.1592903425455519 0.2216852072791897 0.1835951945435373 -0.02218629089878725 
-0.01470390440024629 0.02643899183631243 0.009989760967998598 -0.3165975506679942 0.1010686408486838 0.3867394178807483 -0.06278177308091823 
-0.03272782900870821 -0.1224354867054855 0.0838708468189258 -0.01492989872980008 0.1198958879340607 -0.09753490394654826 0.08442129533307048 
-0.04497964131669712 -0.02955158855947785 0.03929866736286438 -0.2482528046044965 -0.05990049939734754 0.05713144691476678 0.02971796878851179 
-0.008576132521889475 -0.1334518901908865 0.005870354209694732 -0.02075020580261375 -0.1467363368160631 -0.00331198916555458 0.04557865784086001 
-0.04041699030295539 0.07574547348520685 0.005649130957446079 -0.1265950639383912 0.02700136228162413 0.02624375004703107 -0.02440646856266881 
-0.3027646984796209 0.08713255623494262 -0.1250977440959219 -0.05956365705136238 0.3181193506489512 -0.0903866600987755 0.008400555232710865 
-0.06807931337534338 -0.09164207672189081 0.04279217787856902 0.02726001544065711 0.1432749397897376 -0.2134825805197141 0.05741282207541831 
0.1434491095884468 -0.1601737005409677 0.2026564792752798 0.04231160572751093 -0.0534396854291441 -0.1298079022892508 0.05556787202844325 
-0.1578299908734179 0.00295611668448995 -0.03588458064001782 -0.01627752831308261 0.2810594739235812 -0.2107510292892372 0.09157311523302676 
-0.3192744005320379 0.1928710205448873 -0.2801613673057508 -0.04882440764077229 0.2659207560893456 -0.04138758751297572 0.0008297440396888879 
0.1150974721469879 -0.05925618416553731 -0.1842693740094694 -0.06963949039515253 0.1215401928913911 0.06884058015089263 0.02190531120486985 
0.2539399464936317 -0.04018236853156913 -0.01615777307339361 -0.1398022229253634 0.1749079944397492 -0.07084144418506315 -0.0253465455246168 
0.04852261379060696 -0.05743285028878645 -0.2183800822066661 0.03641413375195122 0.0216529347754759 -0.02801274397176454 0.04528986516239895 
0.0903527037917769 0.02528263743156086 0.1373727098224861 -0.09325713009677493 0.04748406572877402 -0.03269051943672845 -0.06231906054287974 
-0.08618384616071345 0.01553757688050405 0.002679670868411973 0.06475235024100717 0.03672134659627479 -0.040752134260114 -0.09335480464347311 
0.07084847061823663 -0.0511051186077514 -0.1472579606818518 -0.07249747450379737 0.08608061474598781 0.07545514019707919 0.02904460066251154 
0.1222009999170353 -0.03098341830183588 -0.1234856866446683 -0.06551840547868494 0.06817858767023069 0.03739882801551545 0.03740820052795337 
0.03895888851710654 -0.07347130481804297 -0.1976029906029043 -0.09029931965750015 0.1928829314522735 0.147915806098264 -0.00336742011110716 
-0.1452786798375001 -0.02401522546471484 -0.05102747662059121 0.01565133024692524 0.05235391629958608 0.07908273197254301 -0.06848328753866371 
0.2082742862803472 -0.1205530151588523 -0.2074227263868408 -0.05441999687417063 0.04422281870128948 0.1458188027755969 -0.001757006657588452 
0.2539399464936317 -0.04018236853156913 -0.01615777307339361 -0.1398022229253634 0.1749079944397492 -0.07084144418506315 -0.0253465455246168 
0.1879055022103397 -0.06602189672793478 -0.1836569934669413 -0.07931008094492334 -0.129518460750485 0.1131260369302937 -0.1137827479470034 
0.01985944542335448 0.0238372805326714 0.09839262920445566 -0.02383009740765527 0.1670504883332432 -0.1356661084173385 0.04737363002569719 
-0.1588482400317028 0.006122980504067621 -0.05764581054911548 0.1051384561862934 0.2361741896831633 -0.1003559524664221 -0.03670603271221777 
0.1228561813429354 -0.1360153178155758 -0.2568702308237096 -0.007362407684199781 -0.02388384637520789 0.267921127653337 0.01537951879843201 
0.2440356080632158 -0.1191560821594806 -0.1239782999257054 0.01815895500176027 -0.1198209349072426 0.06729856640566138 0.02044871224479687 
0.03953458803059909 -0.1020216536314142 -0.1959868896162049 -0.02598951102335909 0.1303542459188509 0.1388053468222175 -0.009354780568931784 
-0.2608577288464612 0.01888452833036212 -0.1159996340499237 -0.03928060365957292 0.2685199552856746 0.08196558899413067 -0.05006181031223921 
0.118876638881916 -0.02858737115839562 -0.1322898046358351 -0.06682285030918357 0.01979205104301372 0.1037676656538055 0.01906073902970993 
0.05889259573847089 -0.1328875159443329 -0.1526014900313352 -0.1298757957690467 0.07993242233434264 0.1491107357768134 0.007416549047689129 
0.05494982157309162 -0.05252174583836899 -0.2189427824152227 0.04182078276194987 0.01916081216725078 -0.03244159401509688 0.0451945645416971 
-0.03750507041835508 -0.02551120162995884 0.08684176465837047 -0.09781880055178185 -0.01256229624412902 0.1033767701694367 -0.05193084696823122 
-0.1400379331541281 -0.03442648737020998 -0.002037787818229686 0.1342539954584964 -0.03064290934550571 -0.008334659526781443 -0.05794832992147977 
0.1325955752742232 -0.03007776299783584 -0.09540706110587359 -0.03322326765796289 -0.04490492216809501 0.0146613034882648 0.02476837431112585 
0.2267386017731273 0.01886076540618286 -0.07327397276893863 -0.1114074756745797 -0.003720506476069014 0.06188860875369771 0.02138641223553859 
0.002363690812416268 -0.08408171400591898 -0.04025004621688218 -0.0193869552906038 0.005491480054383484 0.1564716764587393 -0.01858671484015902 
-0.2687949056918804 -0.1123996096073394 0.03371251309502685 0.1139574491160706 -0.00519496977981801 0.09578431449535191 -0.05106173393370646 
0.01947745449048712 0.06698239907392765 0.1204251596848963 -0.09681877956790459 -0.01066733178393785 0.01505930630712609 -0.1091676799156217 
-0.1075734291087859 -0.04325204203483963 0.06736477918904908 -0.1017471008619086 0.04345952381381755 0.1076358331093747 0.01910245037098186 
-0.1590649223340655 -0.03924191756804175 -0.09238431957829223 0.07836664360558579 -0.1554330160576415 0.3331110155045215 0.01429207326100674 
0.003929596396660751 -0.002626597049912854 0.09438513684688631 -0.1122749520445201 0.09905003695721169 -0.1405375469697513 -0.006248297344358996 
-0.04499364078340359 0.01769650873800659 -0.06475622710794632 0.02845906200583475 0.04108584662850737 -0.1389152001396708 -0.05827620038233766 
0.08791561959600444 0.1052265498023613 0.07998817970298185 -0.150069324704455 0.1634009927241411 -0.1680751682693689 -0.1279009103416025 
0.1117445486471349 0.1046930819662094 0.1245610246882825 -0.1424042180573097 -0.03495344934016379 -0.08521866327464089 -0.07298171862119029 
-0.0004881335707382856 0.01185417435817542 0.1023389556452407 -0.009142799709972421 -0.01228523614997061 0.01476603209432773 -0.1275221477828465 
-0.1337188282300405 -0.0923546314912408 -0.0186626447236786 0.1504478053434755 -0.005180830458953728 0.09921865772710832 -0.08871105790650237 
0.05400429231767401 0.05948515387221882 0.05390007040929369 -0.05660413836871984 0.01675280697748724 -0.04039001729134656 -0.1122303020638082 
-0.1023555290500251 -0.04317105531644014 0.06860975945630543 -0.1034999773683871 0.03172624605714274 0.1085752082457392 0.01940598787906227 
0.01774945058386145 -0.05150393479087327 -0.07654705299828697 0.05023041341910579 -0.1374857345475795 0.2005204557983379 -0.06449469402466758 
-0.1113662225043337 0.007955223299822067 0.09540696723025846 -0.1053559069101116 0.09205501557931826 -0.07003280976405134 0.05004264948090748 
-0.123574149982709 0.004647546553608206 0.006795045228864137 0.02151377775899024 -0.01822039654856031 0.02667285993407204 -0.02590264311103006 
0.0005513473076998645 0.06513732024730184 0.07850262627745942 -0.02798158187781401 0.1699118749970455 -0.05170084099712146 -0.1368364238324275 
0.09591547932427083 0.117294049959437 -0.06577455327386195 -0.1420365674743051 0.1327476657951307 -0.1055816385487442 -0.1227792777731817 
0.01008112240535926 0.01945619851732225 0.07467509722172239 0.004914496052927562 -0.07783138849328153 -0.008394463330942712 -0.07601642816847119 
-0.08402018456035103 -0.07551590368524452 0.1493785815690881 0.1421734156292415 -0.2447863583429121 0.07581106320787588 -0.0001563271739862503 
0.0270767611642121 0.04850567922262172 0.09180093176332361 -0.09537113222434646 0.03269251608694015 -0.05870411157460247 -0.05503789668141573 
-0.175736306707751 -0.01362566463933336 0.0698359163647953 0.01675788851120111 0.1127763337961656 0.04957517790480218 -0.04580617239191893 
-0.1551901968972613 -0.03843611258294957 -0.09048120871577159 0.07866729512191668 -0.152469128418866 0.3237724960462111 0.01670547843595339 
-0.03875997962328077 0.02010677384461237 0.09620613661603845 -0.02815004357569996 0.1508212042439949 -0.1881458373488422 -0.05452571637010836 
-0.08630355855034209 0.01709988220778557 -0.06552858156249063 0.05530940700223873 0.1457487585303376 -0.1518046875040441 -0.03924867042316736 
0.01494949346316761 0.102532422592957 -0.05290501826879824 -0.1980445552141908 0.3527337436703312 -0.2250850449330304 -0.04333541771819903 
0.148875984842132 0.1243596091571366 0.13213720574006 -0.1268608816480845 -0.06879977773543952 -0.1087154137005108 -0.03957627122259712 
0.0274711991705845 0.01108498242602981 0.02945524219780827 0.004056913883359953 0.09817134555451154 -0.1539424536484276 -0.07265753397757044 
-0.113859913115623 -0.09480551643361153 -0.09536419123802857 0.1220842669357803 0.1346954693922049 -0.05946593253819143 -0.04234950705730665 
-0.1147300448115215 0.09274641047974047 0.006631917823003796 -0.07118083591281618 0.0460972175499479 -0.0247312848391197 -0.04520505693307612 
0.02426813271751174 0.09581485712171883 -0.1442267298291217 -0.120523723708116 -0.2380254102764043 0.02346909427682997 0.04238463541908304 
0.07936051085711689 0.08158725630729871 -0.09024549918323561 0.0353597829969337 -0.1588151424766742 -0.1554209453474862 -0.002099190047476323 
-0.04336042215984283 0.01822217909326709 -0.05070263759385145 -0.07600327376066032 -0.08710462755735787 0.08325833992670001 0.01438558905379817 
-0.06718516791660634 -0.03627725919033284 -0.2184600712919878 -0.006003055153773909 0.03344323247812894 -0.08955835537450027 0.02531188922627358 
-0.03126700810167918 0.02369451195508834 0.06453244012541977 0.1365589666917839 0.03884206144104414 -0.09057337391582648 -0.09181659663742826 
-0.1362640409080112 0.1777251508727843 0.2051393848564913 -0.06306144843892851 -0.1689393947007036 0.1572852620580729 -0.1148433715026626 
-0.08044985158681446 -0.0578160328516758 0.03724045232078552 -0.04006620292483459 0.2767230048655959 -0.1137783925386146 -0.09554296365818243 
0.004565556546898038 -0.1150347336797847 -0.08831392688056952 0.01732738922794591 0.215803084731936 -0.1504235535449104 -0.009961804816182036 
0.03881870111386533 -0.05155681315725465 -0.113508398997882 0.04359756647965918 0.1603383764616556 -0.03630304223163722 -0.07678319699097212 
0.02745426197317678 0.08651571807994829 -0.1530034477765225 -0.1408805925664476 -0.2343481604161771 0.03524086509374955 0.04437376210817813 
0.01812661353580642 -0.02422043036911287 0.2813015745278855 -0.2114801422780462 0.1697161480388555 0.0510572266968774 -0.2455545521806113 
-0.002867664920722763 0.07350313396322532 -0.2385742899846426 0.006136585803087954 -0.2596420879847611 -0.006743445803400838 0.1283079475684388 
-0.02592274540937741 0.06366975475368712 -0.2832554601544559 0.03205759642438544 -0.09757477643295236 -0.08418928991841115 0.07218343907727467 
0.06167764612567381 -0.1917309839145512 -0.08272468778086042 -0.06014720354037142 0.303977350097547 -0.05128564249766782 -0.01856563869231531 
-0.01225310562719923 -0.08850758230716947 -0.1081580397531174 0.1933839738002203 0.1129439153873901 -0.1018164009585844 -0.001466114877278719 
-0.03607607472769828 -0.1102830550732489 -0.02808561623920166 0.1563063102859017 0.133924256502173 -0.05918197130892969 -0.001314117145556619 
-0.0350137055032877 -0.05113783355804717 0.01968302360613677 0.05052986566595671 0.04522841636531681 -0.008691692814917867 -0.006855116239152382 
-0.06345218401496132 0.1090432646489035 0.213697841557641 -0.0883321792751077 -0.1191763566706622 0.01309496057809761 -0.05083278610735564 
-0.06659600891132189 0.2062432645993563 0.2401408121186079 -0.1640026938693058 0.1099009316577396 0.05215947393620159 -0.199229054065105 
0.02790617713392103 0.08268407246541666 -0.09491789088655937 0.02144674144247323 -0.1201248975110157 -0.1592621887417529 -0.00309182377674275 
-0.09185405356999357 0.06526163333501817 0.2144514730036539 -0.1040469475502949 0.1277736333238931 0.156466660259808 -0.1405873597909377 
0.00161002025525838 -0.04291619943583368 -0.03894844852101096 -0.0007815017423990159 0.04420052392139589 -0.01190183892442048 -0.1007487439500097 
-0.1880028513994269 0.2013015609026011 0.2315813048605285 -0.3133535739558491 -0.1999211971355917 0.1897720369183876 -0.09301854293175621 
-0.05310913174453876 0.1774054735353441 0.07524505903466748 0.02565577852492914 -0.2236927778549359 0.01916539908835237 0.001575363783056394 
-0.02788457980148847 -0.0003844536972787754 0.1636513881047982 0.07219285249904535 -0.1159717181617355 -0.09554034489753271 -0.03207998038107752 
0.01699158474906858 -0.1961791384834922 0.02531718210571251 0.04317788193855963 0.1237195805903515 -0.110139642471214 -0.04160733208096506 
-0.1541000626137233 0.1678820034257805 -0.0216371911169865 -0.1516658772988025 0.1308702084902377 -0.1013398491419239 -0.05762160679777074 
-0.2217864738382355 0.09494943217811863 -0.2136900287574101 0.04554307970069331 0.1470331182863577 0.2930273413531035 -0.04909019829773289 
-0.08378123205643036 0.06118998316925831 0.08318083489731545 0.164578740511296 0.03935594984771613 -0.293641286641587 0.05859000162480965 
-0.1073224912580583 0.02858262135695567 -0.1958686455609235 -0.05433628703616056 0.036516268391151 0.3425143325723307 -0.0765866987143749 
-0.08465204235035553 -0.02482296777427802 -0.1919637583645034 0.06721401988142983 0.03284742712226219 0.2561555074820251 -0.1296324965819657 
