solver_type L2R_LR
nr_class 7
label 0 1 2 3 4 5 6
nr_feature 6374
bias 0.1
w
0.04996455242833397 0.06142136616535786 -0.02583002098264656 0.06992358804766964 -0.001422806060032601 -0.01352723704323876 -0.06505042386420924 
-0.02357627690297582 -0.1526339144553838 -0.01222049443409999 0.1665922292463251 0.003432040784118284 -0.1347232329247596 0.01344633913217371 
-0.06178813213849748 0.06476140296545688 -0.05962174779061471 -0.1677328001804599 0.01922638908968439 0.1701174712026833 0.005713646304004614 
-0.06137974672280463 0.05060243526416102 0.09149487328253637 0.09001401078635064 -0.08102985701746188 0.0361512922522226 -0.07678182296507198 
-0.01418718986853224 0.01659642793552714 0.1073743858832217 0.09257496302638082 -0.06621595703999394 -0.008472734485831065 -0.03850110687128237 
0.04287634991863951 0.008929872212152842 0.06104318890030838 0.05483705524181148 -0.04520801429947967 -0.03976952640670517 -0.05954529743528553 
0.04923796303586548 -0.03261515252937493 0.06710563245097269 0.04431145918014681 -0.01276896761599716 -0.0568819766014028 0.02781180251283727 
0.08178746529631134 -0.003498416103922369 -0.02892854880023387 -0.02483988895732817 0.001006985280954334 -0.05500657115538307 -0.05098276324202902 
0.07944006145446968 -0.01833725876318589 0.01281718022271226 0.005079867736576049 -0.004797124556741482 -0.06434812809170957 -0.02084444225066544 
-0.00619058146323513 0.005432640242167106 -0.07920736120966648 0.06579437501594815 -0.04705834120559015 -0.03660196603854787 -0.00840079431681897 
0.03606324277216787 0.08048263445512202 -0.02794232689032067 0.06105031384735204 -0.008512740842388247 -0.03009140866443162 -0.0763934768398831 
0.03621509129777916 0.07940574992196137 -0.01983481755918616 0.05372765226975134 -0.004077027361273203 -0.0263390473076276 -0.07505676391264349 
0.06801549583362436 0.03827261083596958 -0.01757616463103424 0.02272595130584555 -0.01546392127873684 -0.05009644693003828 -0.05777092235155751 
0.00088873731180008 0.09189564679438465 -0.1462645424697175 0.03966991509355529 0.03519471091554801 0.03284840304938751 -0.05222895988603291 
-0.00717989663027292 0.07688401862961869 -0.07377423571755609 0.0335358818204906 0.01395395580879678 0.02670213589562842 -0.03038372470157844 
0.03508656737497253 0.03133065843717501 0.04126290588216588 -0.04018186688135164 -0.05466905741322185 -0.1248598252166114 0.03735104256780078 
0.02326903749398957 0.005053226084589543 -0.02777921447455787 0.01549697230786353 -0.0265609170425225 -0.08436891804457043 0.03301070591446933 
-0.002739072673350867 -0.01486936518358041 -0.0221002492972606 -0.02477592009701196 -0.03726598910974561 0.01860300299854565 0.03609118819500267 
0.02721808520084278 0.01293208965986153 -0.01963454360758887 -0.001049767180946501 -0.0382069300379077 -0.08244916893971524 0.02954619410694781 
-0.06080675230011082 -0.07202459151859129 0.1575007325052117 0.03789662979077357 -0.09509393576406838 0.01188535761623058 0.01149038603574229 
0.009464700313152665 -0.0199365305640597 0.08663092803453978 -0.06939811833841109 -0.06584964301051123 -0.1094258240349747 -0.0004379251590620366 
-0.02427386831722827 -0.05585891473969977 0.05728453709758675 0.01939832178464138 -0.05420787519781014 -0.04612267476489269 -0.0378163805212457 
-0.02754503077401765 -0.02124249722849634 0.0208438183189879 -0.007400585157640341 -0.01224297002802226 -0.04768435424051514 -0.01647102081107093 
0.01801691202652125 0.003041834722330012 0.02103456989416891 0.1160066794185612 -0.03350348774788362 -0.04202297849195868 -0.02075153109553482 
-0.02932559421091468 -0.07608356720603651 0.0643552598058733 0.03532295079263476 0.07547370867683631 -0.1156491135131993 0.02315843059882755 
0.08813881658345224 -0.03096844663301565 0.03838008832726 0.02186888768302138 -0.1060686673787182 0.01480105534923695 0.01222168724948667 
0.03241035503811993 -0.03518272034133128 0.02554511653120072 -0.03182324164419707 -0.1535557310603884 0.04025863495618497 0.08708067671585915 
-0.04785713946330072 0.03116795886283745 -0.02924618302638922 0.01615214697020075 0.1426941627137318 -0.0827391085222997 -0.07113546124212415 
0.02594492097551513 -0.01720650387353016 0.0005923681072539998 -0.01584083343906009 -0.1220612602822283 0.1160332533247146 0.03026285373888039 
-0.01432706478018201 0.02416594478996687 0.03768518257660296 -0.006950931973079992 0.06632308406494383 -0.1348139802634292 -0.03307596122760226 
-0.004736990873691997 -0.003032247770437059 -0.05193771165799057 -0.02831955702399321 -0.08072609799467015 0.08766408502565926 0.0345343272378917 
0.01314146418655068 0.002430012675674068 -0.007242905743471119 0.009513248627166793 -0.03527378729100883 -0.002481872764928984 -0.01269546526932713 
0.04814420154883354 -0.1073545008427844 0.09897871608163905 -0.02107185511832306 -0.04061891093046294 0.02174835908477228 0.01479566130462485 
0.02605312058116489 0.02930712424103845 0.02808948082401995 0.01857065623934865 -0.00268337329928009 -0.1790460955091968 -0.003328778284713293 
-0.05965416080054971 0.0171998887451438 -0.007094316300715598 0.07057715554822254 -0.07590589686173449 0.05985686346962851 0.008800382011785089 
0.03865081422420243 0.02328599377609605 0.06960474734568059 -0.005432699772213276 -0.03447722344163386 -0.01091113645858083 -0.00414948517150034 
0.08438376030015124 -0.0275236444387929 0.01281932805485708 -0.009952021166986845 -0.06516169799476983 -0.02934939095102361 0.0001973488035763762 
0.09528375344635061 0.01602078719688331 0.09074602224402897 -0.07249245706350915 0.01679159521409209 -0.06773094858818011 -0.01507493113151743 
0.06582217406638129 -0.04038428031797686 -0.02473384635610249 -0.01011430311922129 -0.05297699580355734 -0.02634807038763722 0.001215218475510331 
0.09622452819886926 -0.02998623292166704 0.01397294345833047 -0.03552062343145165 -0.03772730757125722 -0.04866917730422576 -0.004004849850586884 
-0.006957078668331789 -0.005937055108067323 -0.1108735508013205 0.0491270334506687 -0.03113920666982937 -0.06055203454279118 0.01940358521363173 
0.01825877658323712 0.004219272874801341 -0.00577026253965127 0.01240675676874055 -0.03569236681414394 -0.009768544785801109 -0.01645904765844848 
0.01816084992617942 0.004435698690493493 -0.00251250874006738 0.01067640268618133 -0.03467165132587406 -0.008017763462900779 -0.01694881381050116 
0.02110808939764721 -0.002068869905618325 0.002901518548210825 -0.007494603219857574 -0.01061735885707748 -0.0236428858209791 -0.009496393797654648 
-0.004047121920585677 0.008828705943893598 -0.0190939859183888 0.05104024349522211 -0.0676055944621127 -0.01265445329668462 -0.01934041088315567 
0.002056772690911723 0.01579362009116673 -0.01890048881717394 0.04448310379541204 -0.06139640992525316 0.01463018828281504 -0.02448031577653418 
0.02931891485031842 -0.0001008169835992211 -0.01068999681697372 0.04290261984094569 -0.08612295316199114 -0.09150197908408989 0.009740852828192691 
0.01936929837301419 -0.0107483116684004 -0.02753668065630711 0.04360236063360931 -0.06687526925219849 -0.08910505880063981 0.01723316751933317 
0.06295117285064793 -0.01315691539166136 -0.005546739919753791 0.002974603026275596 -0.09120667939563859 -0.01172357777440217 0.03417489485189678 
0.02607495402605004 -0.01199909366581893 -0.03429978011744342 0.06485503612611153 -0.08719816123895872 -0.09574773530248575 0.0004362727446869962 
-0.0167277115444612 0.05499282907550144 -0.003818032486953694 -0.04969949946253863 0.05693872169187456 0.03163857731529673 -0.01516033614618908 
0.007261642992599427 0.01053857890436177 -0.05055803582959775 0.0007797222184439479 0.03896576030802515 -0.03427095014254045 -0.003400484181031628 
0.00651347877261611 -0.009364112095985413 0.006521210593970715 -0.01557546697383574 0.05070626350335049 -0.04191298083780907 -0.02415570294307731 
0.005231107439074225 -0.006300830842380693 -0.004152961926866149 0.02288645225833411 0.01294074123755223 -0.06512838822866848 -0.008265605571412375 
-0.04147659037969142 -0.0420724607822037 -0.06300857524143125 0.02597159835841215 0.11603692959402 0.04636407121875977 0.01561305762325445 
-0.00697061983543436 -0.05606294489953266 0.08293214946497089 -0.0773965334089021 0.08180048993535521 -0.007950866412537389 -0.007403628131787215 
0.01936729718980637 0.02747473279938696 0.0525428149309007 -0.03165487714721623 0.04741868083120451 -0.08504944427641402 -0.03003372594241418 
-0.007107114960009007 0.09340904492516558 0.008355724786557175 -0.01773585403635294 0.01322165458207154 -0.1000575432158449 -0.02782395814560159 
-0.01392551465648465 -0.08604420357570129 -0.008631128149594981 0.006131766825358992 -0.0381501669196178 0.08720111904813728 0.02737034069597839 
0.006949401638144547 0.05788950404382404 0.001640396750043188 -0.02015223257245235 0.02739589916244987 -0.05335432923622733 -0.02990667572007287 
0.001943008845945033 0.01447370371290318 -0.0136128055274653 0.003337767200358146 -0.02797477130275687 -0.003565506293151334 -0.01790171119762671 
-0.02322010875429152 -0.02859928667728608 0.05175260649416895 -0.03669342402194384 -0.02759306022209118 -0.02683404619198425 0.04909664405594411 
0.0358664153736894 0.06133085526873457 -0.06466204961736514 -0.006980378963666154 -0.0446032889113825 -0.02801124985513741 -0.02603344361670418 
0.07592327408364236 -0.08271702572787562 -0.01170418473482866 0.2627755175013123 0.0009680779262030595 -0.1918318185867415 -0.05906307862084198 
0.05160948292002321 0.06723449822598782 -0.107192664595438 -0.1689645220109387 -0.1599186894239764 0.1866090241420567 0.09682016253587394 
-0.07255293192874999 0.03911746409097792 0.04896775424658716 0.07245896913939465 -0.06092899854828528 0.01372756617812872 -0.04758384915765021 
-0.05707229136905378 0.04297989299805838 0.03431573096311067 0.05709418641917241 -0.05589606108570194 0.04213443370048162 -0.01976799858300207 
-0.0528041012042032 0.05983802714605802 -0.02654977435956235 0.01935228318694754 -0.04157039333321466 0.0280928115013742 0.01571539871926379 
-0.03712819100515176 0.04464760961944671 0.01606155814937909 0.03556635726157791 -0.0479119022346293 0.06924914431442618 0.01107483249595766 
-0.01087923297804768 0.04318749862748999 -0.09530941883563331 -0.0480896976120887 0.006815628909129088 -0.0113385917014016 0.05544726397901308 
-0.02536261365665276 0.05114602321616138 -0.05735342797820139 -0.01541952944185145 -0.01839267914493432 0.02600126433465015 0.0433856899853261 
-0.0448071806984304 -0.006293478115997851 -0.1214431689905182 0.03089461121395893 -0.009316881424062191 0.003438366832761702 0.04475061029341045 
0.01671123485457638 0.06473594959232556 -0.05482538482427524 -0.003784007625073544 -0.0630506396713407 -0.05576443235870858 -0.01332114689276199 
0.01854375199741496 0.06550050576223733 -0.05047906676348944 -0.0050981418397246 -0.06325022832201779 -0.05635704048464611 -0.0152110115908071 
0.02666875178603153 0.05922644246731319 -0.07011984465936918 -0.02745485648930562 -0.06813665148319746 -0.04394809154300505 0.01679204838228053 
0.06287805220245865 0.00992275679639743 -0.06572171475802964 -0.06991180233274642 0.06707713998180889 -0.0899629480757046 -0.02279673512928144 
0.03846963877852549 0.0005212183118440961 -0.04215731659998544 -0.05685473895342339 0.08576902194070339 -0.03650415281071828 -0.02652022852935389 
0.07085752425080551 -0.002088910447027215 -0.01359646880737169 -0.03128328908798632 -0.06591536677660445 -0.06501030554740304 0.004611902905442469 
0.07267478752757495 -0.02093017515637375 -0.03992984389354114 -0.01949833529590555 -0.05807305145253087 -0.06585372601386223 0.01257480420511018 
0.04736189657069226 -0.01718051858786793 0.01556669079370132 -0.07058213700612341 -0.04043020517578919 0.02791181852771582 0.02016479095769645 
0.06643413365698389 -0.01209901896633369 -0.02974030712673138 -0.01791385813152693 -0.05240897625328506 -0.05781288177658387 0.001328995339725993 
-0.1033624210361881 -0.01267657164034502 0.09386337711862812 0.1091624787628072 -0.09415014775045175 0.07943981708566493 -0.01109842192741823 
-0.0428590409439333 -0.02710297533677157 0.07345696625219686 -0.04971198677592886 -0.06189099476449508 -0.01708528203538077 0.07836534188421088 
-0.007538122084777934 -0.1239321820512521 0.05509428071686374 -0.1487845344237199 -0.05068669091345442 0.01618176398793492 0.1121878292306642 
-0.02978131385936291 -0.0959480007909396 0.113738090791138 -0.1259726454670375 -0.04716331487455922 -0.03327587015905438 0.08362833113629847 
-0.0005271630634417484 -0.05004719745622973 0.04597815756121594 0.1042786999216654 -0.08580048570434526 -0.01642929004529418 -0.01193409276768027 
0.08412206044906223 -0.1143451399472812 0.1553586513854475 0.0357161771608712 -0.03532030565335747 -0.08999149219733399 -0.03051469067224298 
-0.005568487429246306 -0.01212593553338351 0.04831508847269503 0.04261653715943595 -0.03647104551049871 0.004257093904265496 -0.007469089674968939 
0.007731760123347741 0.0425195111387083 0.04368886642250686 0.04552431666283092 -0.06370852666182802 -0.02820068766390132 -0.00258060859442751 
-0.02063031092656273 -0.062805552069751 -0.03222378840951683 -0.06389083471098134 0.04717618518984915 0.03972423251185631 -0.002520010333752139 
0.008138314445824933 0.09185660282843063 0.01106264947091512 0.06667568398915567 -0.05380231307839842 -0.06965651573989812 -0.006064440651104477 
-0.007580758316936854 -0.07662316439426427 0.003822748915702406 -0.09058926029359579 0.003431760001089267 0.0662778707354255 -0.005520732874836657 
-0.005579036458122309 0.07215613205362514 -0.01053434224300614 0.05795397689659096 0.002446924619413223 -0.07714832271184005 0.00911088341558613 
-0.01256343841891935 -0.02512798599336202 0.001644159290151883 0.006572790595866606 0.04017280286325521 -0.03091597075107597 0.001373401281997236 
-0.07321857696461924 -0.03314971042194142 0.009575675234813327 0.1327181253748076 -0.0203486899534049 0.1176200747386932 -0.04874226491370052 
-0.05982294949403385 -0.1012716490643381 0.1674707053403234 0.02239917041099649 -0.06073918868917402 0.2027351093647307 0.02278011147571446 
0.0643629875656615 -0.003762300044541398 0.00218962450654354 -0.04887957297708664 -0.04755337105171335 -0.04781104279446528 -0.04329146948930267 
0.06813556225248445 -0.01776581471707624 0.01224979830939059 -0.02128910396043182 -0.02334207408725072 -0.07008939175916611 -0.04700270398506114 
0.06741225888658241 -0.004136391405604173 0.01506105052482375 0.03745709753779687 -0.04262323366149817 -0.07992699831674667 -0.03807182045014378 
0.06121291850494946 -0.04025989181156329 0.02891334700400238 0.03362893242005286 0.02507965078255753 -0.1000867067145084 -0.04590979513974167 
0.025038972439265 0.01123612922269054 0.008364864753004894 0.06795850788473783 -0.03506307365921497 -0.04037900152573487 -0.006833244000723738 
0.04009183843484757 -0.00232021267910726 0.01582750521492906 0.06939996195072191 -0.02247208251397213 -0.06429756297651784 -0.0192377995475557 
0.05594740941455918 -0.01334541570491929 0.02576266936056505 -0.01163846295957721 -0.03127940358970741 -0.03898896837014604 -0.03907856097200519 
-0.01597084685281366 -0.02717620561789771 0.02557663333108426 0.01950351307549297 0.02689014802765435 -0.06759603491079122 0.008494536759014331 
-0.02276873482668202 -0.02551298335724407 0.0226403267190921 0.02046449929026615 0.03002108485836145 -0.0635502149421513 0.01281891853274037 
-0.0411607236737577 -0.03014810834861015 0.04758721755196116 0.03305275052274895 0.01337797201203066 -0.0773074467025798 0.03793333902698448 
-0.02192750365349444 0.03767638007636028 -0.02468004062889506 -0.02747239817817958 0.003073518879109539 -0.01177729957789513 -0.006037594704478622 
-0.006151826168012227 0.05304851601034191 -0.04908846250762397 -0.03238012014413942 0.01043899016542791 -0.02293021193000055 -0.02932974914536777 
-0.001781117365554207 0.0100144350000821 -0.0150720521727596 -0.0252611020164027 0.01755158746043526 -0.004782624159683876 0.006786393442357383 
-0.00671685129210545 0.01159572173271049 -0.01425515466293718 -0.03485636518267612 0.03585689208310015 -0.008684431052524916 0.03446765427776197 
0.02079638388109814 -0.0381992158774137 -0.001887146117373229 -0.01017080348939049 0.01456139949256042 0.0008545464923005754 -0.006618711653930445 
-0.01137758015428234 0.008194097193256929 -0.01455169883460419 -0.02570643066558678 0.02836462975207015 -0.0004273677426579933 0.02051465917217118 
0.01715962811252815 -0.01781337441626979 0.00136686063641438 0.0007143273928716971 -0.03436407882855583 -0.03113485388647788 -0.01901600562967556 
-0.01444686097356227 -0.006628747375689973 0.01251009584880833 0.009151881483485095 -0.01595541091436661 -0.01359705599486859 0.001099407927524329 
-0.02032529011018414 -0.002382700125771904 0.03306172969878385 0.03103738061939111 -0.0559688187691408 -0.04803296232651743 0.02276756815336903 
-0.02319137420344976 -0.004174770117690688 -0.009279433019707833 0.05562445410436554 -0.03725190508276789 -0.07219779572746231 0.04961753378924637 
0.1197438403459423 0.01643658643922989 0.1228002883893079 -0.01077567092852168 -0.2538443398869465 0.007975188642251524 0.002227713399784761 
-0.02529243013929717 -0.06664777219149765 -0.04301024737403805 0.1176259720930469 -0.03648139984588671 0.03876085508514024 0.01321796765885122 
0.01303638796928316 -0.004572692893365859 0.05377734861135378 0.04832331447946833 -0.01336590456016215 -0.1085252428085672 0.0198210645489475 
0.03374166031341606 0.07075395933338163 0.03636201462388194 0.07251989189464803 -0.07954293352307035 -0.1652661004177972 -0.003042307146567747 
-0.03459541868814253 -0.08689621950740109 -0.0218760269351171 -0.08328343755269778 0.05239666506349951 0.173890075131432 0.01317280933810904 
-0.0070908823025947 0.09896215866319487 -0.02005396899654094 0.00624485942639699 -0.008831200847662229 -0.1296976965231761 -0.05034449124478986 
0.01617071221882163 0.01283043796329337 0.00515835532761602 0.05978505958739116 -0.067833817931537 -0.04331782360071124 0.01731870481700177 
-0.01660285143475007 -0.04653112442283415 0.0382261185180631 -0.04245231061580523 0.01244844533092697 0.03719663395104111 0.01168701757825828 
0.09267193229355157 0.02070557080683163 -0.0390613097233188 0.02651883143993417 -0.03115753114350443 -0.001687711096457754 -0.03389058532383592 
-0.01421751946263144 -0.1351535892524226 0.09207431046733119 0.01089750339733671 0.0306500229325701 -0.2314351088270251 0.04792678673595888 
0.02315562243312624 -0.09158359426269594 -0.0294581829105337 0.1243828088420229 -0.053785100583191 -0.08926406373334059 0.006760273430465018 
-0.009712412734994796 0.0472906883088793 0.006333677102342843 -0.09341846990369597 -0.03435450788421301 -0.0414579477751355 0.06626499384799638 
0.02844238979725566 0.0007556872968055891 0.008207745149148486 -0.007853672537676871 0.007213502391726051 -0.04438700862347103 0.01287620845106643 
0.05752183450069046 0.002676484895794336 -0.04489357542086034 0.06268457205866629 0.02728688865186097 0.03954072350843141 -0.08017378783484068 
0.01096248517137114 -0.03549918255147286 -0.0036616709525863 0.06707484700910085 0.01829650816707979 0.01438295612574269 -0.05803349693988313 
0.05025443426654463 0.003866916945660933 -0.05487734504971998 0.07207627758013348 0.02432125311609052 0.06393301292210378 -0.09796898080402312 
0.02900327909309341 -0.0195726971969818 -0.02650653233715012 0.07223173249244103 0.02202687475757357 0.03708523915491745 -0.07794835357510362 
-0.06446541218352356 -0.03037995592737554 0.01033310100424966 -0.01622313444155033 -0.01898687047127058 -0.006208159618056127 0.0314227693281741 
0.03134124172373828 -0.03695355878484041 -0.03686178191916799 0.02151384568553438 0.03477678720427057 -0.01692484384231654 -0.04272400412079946 
0.052200464734999 0.003667123114778837 -0.02715458735273616 0.01319531648673295 0.01971902746086153 -0.009965578416287297 -0.047108235551049 
0.05070677767478297 -0.02157355310665372 -0.04061052522784191 0.04907041950236841 0.02355619259938855 0.03162786905092736 -0.0590988624660379 
-0.03022119852691851 -0.07637139097340329 -0.01374518727913667 0.01101707751815766 0.02326680060473055 0.01244545100616839 -0.02232534496195053 
0.02349604752422748 0.03322521948235665 -0.007560110472139648 -0.0543053490319221 -0.04791478453399488 -0.06455762583751042 0.04385457228923176 
0.04530044351515883 0.002586239162782699 -0.04109904972812838 -0.00644677257736477 -0.05486725415803698 -0.02976975977808837 0.03782189854847912 
0.04122315999318978 -0.008619519865946329 -0.04047500099866696 0.03377949479086506 -0.06304496163688807 -0.02923575922417455 0.03656607746518204 
0.04199239538914199 -0.01289935866278135 -0.05113457924353165 -0.01992630038806063 -0.001891239234757205 -0.05143441020321158 0.02847957445090338 
0.04786476676933558 0.007272457370616913 -0.04322296968810506 0.01066273278576958 -0.06090305890067318 -0.02684825094810705 0.02583043038781602 
0.01058317924253816 0.06095988667642141 0.01052310971567009 -0.02801150290529862 -0.1217335965463503 0.04282277653265622 0.03035851110034514 
0.05015940180172704 0.07130596371557646 0.05131764277814042 0.01924185924268065 -0.1597914514554212 0.04923155348632614 0.04469738872921785 
0.03363373691693754 0.02939483714762488 0.05708409615501162 -0.009383221281067264 -0.06212279480962302 0.1014793097877773 -0.03627489484461898 
0.01539264689343552 -0.01444497200445424 0.06713724295837334 -0.0200985119764683 -0.02653212565399721 0.1276956862326712 -0.05627145661680529 
-0.02146484489094895 -0.08156437887996938 0.06248649378406882 -0.01035237119912729 0.1293995609116345 -0.1147284515941525 -0.01157439776389225 
0.01441743203414277 0.02275775472913946 0.008679968880182694 -0.03132137229687203 -0.02643171379245087 0.05243137562835808 0.0197407183412793 
0.09674255813190485 -0.06577551275534313 -0.05830930583764759 0.04293837872010488 -0.0829753662755352 0.03308211023968116 0.0380427946016557 
0.03382689273169514 -0.1198018944088411 -0.01508596384090384 -0.02353994417984411 -0.1036473120536142 0.09128622494896732 0.1222168867635855 
-0.04573488935621951 0.1205187389569443 -0.004459988307832455 0.02739790739110986 0.08560068524651833 -0.1287839803055954 -0.1079138530708384 
0.02600967820960759 -0.1264286156416227 0.01524859749992955 -0.06892525063531137 -0.1144005539006508 0.1932584036306817 0.0958164460870968 
-0.006649776091698249 0.09654312178973228 -0.02881535640529206 0.06815868348631744 0.07441796384786949 -0.2145224302166494 -0.06835070022555165 
-0.03510112163597086 -0.06298836074428797 0.0330092136276565 -0.09214177839196425 -0.08059935822275448 0.2139378025362137 0.04993225730908973 
-0.001013745158398483 -0.01124095207075088 0.0007226793927029671 -0.0009015860991839352 0.006321835167182908 0.005177335309267104 -0.009135377592742841 
0.0861706227225279 -0.08712329615349923 0.06990315993794134 -0.1203957728248612 -0.09693198861221247 0.04225648873592545 0.1137239871298825 
-0.001411380393401782 -0.06806751775341303 -0.02039272179430922 0.001613216413193174 0.01855031257773229 -0.01127802495809044 0.03564878976266334 
-0.03929866416943098 0.02210067669706291 0.04875465417728498 0.006103645562293189 -0.03761623655837363 -0.06487209288000051 0.0364983024583605 
-0.02797820281896591 -0.02476908596208413 -0.02655326472333681 0.013624546485154 0.03318703181169523 0.04817628182990785 0.003632300390203949 
0.05478890754049962 0.0007065249330778477 -0.1100612819727476 -0.01537600592712547 0.05137252976465784 0.05512175590391807 -0.0398265275037424 
0.02135071763036644 -0.02602349744147203 -0.05857010714596016 -0.01123030735958642 0.03608122107295411 0.0756416009877116 -0.03935110017281065 
0.06063777086932066 0.01190887238890013 -0.0969344078807568 -0.02419306355906158 0.03192048649871784 0.03295260809079829 -0.04190288557992411 
0.04214991341657041 -0.007372923428207227 -0.08001767309368998 -0.01820466211754047 0.03506079181542929 0.0560614725831194 -0.04184913267474714 
-0.02387627567768676 0.02385605765807468 0.02328183774244739 -0.01550106171883241 -0.02127866390687713 -0.01880613675403719 0.004852001346957124 
-0.001175521337995969 -0.01073497528108241 0.02603553954999183 -0.005711706274487471 -0.003435436178285406 -0.000807423213247782 -0.01776260859985097 
0.005537314918203019 -0.01347450295937624 0.003680561016555676 -0.002898749836044826 -0.0008425008071003088 0.004179785445053132 -0.01520377498478891 
0.01097224814407638 -0.02061385133348771 -0.003830180983127823 -0.01804462858275441 0.01809768244749408 0.006561455820559709 -0.01435326688136473 
-0.04364130327482214 -0.02405532406774759 0.1361093616556904 -0.01264503606261408 -0.08166186201438401 -0.06513464892964059 0.009261502113388258 
-0.01495004173861246 -0.01873387940222358 0.04413806742887529 0.02134162570970952 -0.05485488156658734 -0.006727484099279597 -0.005759735210663986 
0.02692404067846295 -0.03269580670899108 -0.002042839300942245 0.002571509789176075 -0.0117525847798578 -0.009073456965786453 0.01537832337992351 
-0.002236445581528642 -0.02277133489706385 0.02701268243294382 -0.0155620522260212 0.004799882356517134 -0.02788248331069864 0.02581025774198611 
0.01180213228225711 -0.02795178284196587 -0.01843970459630522 0.008407943375372361 -0.0284861408674943 0.05125568139040435 8.982892419717096e-05 
-0.000704380017309914 -0.03215987524344567 0.01503264349541809 -0.001803128869191684 0.00272660281667795 -0.01967829325963245 0.0192570941179816 
0.05097313640607224 -0.02099072630722255 -0.08934925333191411 -0.03290939459041731 0.08742351890331787 0.04312453668927425 -0.009408323592767141 
0.07335656262622481 -0.04177088422846545 -0.1059313298018142 -0.05210457636308798 0.06390197173902341 0.1101109834062645 0.007114420137111169 
0.08061145775022624 -0.007812639753728217 -0.05166943200241643 -0.03259549710086502 0.02068606057181964 0.03551707649903918 0.007935970763704414 
0.0958017781401984 -0.06134166861843784 -0.01182380195314314 -0.04404067318719396 0.002944657836641763 0.01046959433333987 0.03862419394607668 
-0.05730083201365611 -0.09757545399297712 0.06488411495867367 -0.07493341763440066 0.1072943168473868 0.01286129773108536 0.02962129224745599 
-0.07410231214675771 -0.004013105830423491 0.07031321057347195 0.0277246392660792 0.03086766204595269 -0.04341832600378299 0.0502805682767187 
0.07921718262963662 -0.03932115673687879 -0.005690764803534207 -0.04402623677714299 0.02873618322307868 -0.01455386044440857 0.01574352145122808 
0.03831000493143304 -0.02271968738703375 0.03875551338395093 -0.008256718833483903 0.009659704679761717 -0.03067042870045009 0.006131191790413148 
-0.05334851780835568 0.02229710350562598 -0.05220594437261666 -0.008727449354209139 -0.02401471451815724 0.04039578605538598 -0.00436019056114266 
0.04706753577555403 -0.005049393044775145 0.06671329370657048 0.002094006448278798 0.001288258752376238 -0.07155507372533708 -0.01541855169703863 
-0.05034540972638642 -0.007908169093172815 -0.07789154716084884 -0.02531553278660131 -0.01484831401844895 0.08266273595822199 0.02019557686728794 
0.02857954634034724 0.03448694134386122 0.08484009772341163 0.01699857802272694 -0.001639543584201904 -0.1042488618476103 -0.03357737191735478 
0.03303012646851826 0.01603513802965291 -0.06238320823159422 -0.04208286849400817 0.04608341705173067 -0.04072751609833757 -0.01069120742971499 
0.08010839947951623 -0.1666820434690601 0.02890526752264339 -0.030218107037089 0.02014334510433502 -0.1034264338491497 0.01864787128302463 
-0.002983503257520302 -0.09383174417463533 0.09629103892219551 0.1394960463196818 -0.02764080351427667 -0.1460165285521741 -0.02723708878166531 
0.04748571793031471 0.09113246308769396 0.002992431328844389 -0.06224788028322663 -0.1008211352703027 -0.09482184920912672 -0.02264164468392382 
0.0195635128345498 -0.0189818475006062 0.01081864148370482 0.04755226928167753 -0.0823547467363506 -0.02439552709899771 0.01373305616663724 
-0.01855661850536092 -0.07046584646553407 -0.001590872759344995 0.06111170980894731 -0.03892680522830422 0.1673931420994306 -0.01222842886181639 
-0.04803132993935751 -0.102813275643593 0.0013994954981506 0.08086101342240763 0.05186885322630386 0.08321499921050811 0.02632255868216028 
-0.02640250452612336 -0.04886089679284378 -0.006321468946657109 0.02677128931318705 -0.002043372920382034 0.1479480123118349 -0.01791795148658238 
-0.04491568465646734 -0.09166681767726788 -0.003500973166125671 0.06436893608777459 0.02838641115982852 0.1484953012452642 0.002778964189873081 
-0.04620818321354364 -0.002665309531913168 0.07057232376408944 0.02237220305495669 -0.0007468528632500792 0.009766487360274427 -0.004794966279044939 
0.004249895478092334 0.01790188054747196 -0.04224174884588652 -0.04388977421773956 0.02584135165255315 -0.06558939208699763 -0.01039443061994404 
0.02425324922565041 0.01509407016815744 -0.06544248204895685 -0.04518938680036114 0.004401117155271396 -0.04610026768040387 -0.006686244728558425 
0.006827984820078724 -0.01641883120404439 -0.0757755508827189 -0.002663845733499971 0.01990823509624475 0.03966683531527171 -0.008776289765618749 
-0.06690281108007899 0.005771882386909833 -0.008611906694773028 -0.01215529693574259 0.08989115642977111 -0.02625107055801908 -0.02374647633598907 
0.02712436409847375 0.04529694005615433 -0.005265187463091382 -0.06024426878941252 0.02008466115588906 -0.09684191996803389 -0.0131646408583872 
0.03223358384261365 -0.01848908687977085 -0.0146350823005969 -0.02588553074005361 0.01025731038431749 -0.05082803383900049 0.008974099545177016 
0.09620069633831813 -0.01886598747680554 -0.02873161860889685 0.03483321090566044 -0.08954519835231246 -0.1118384761553 0.01527129424219645 
-0.02312293953691699 0.01370993115788889 -0.002294188496250402 -0.01418910675418309 0.03236381760692518 -0.04641747130978233 0.02005469397681422 
0.07520335359481142 -0.01502991330577957 -0.03244008143184305 0.0007552151909389581 -0.04017100902355732 -0.0761368221152196 0.007080719526152583 
0.07320767691951663 -0.005928754922451174 -0.06746148063825308 -0.1185924797054373 -0.04741804210815603 0.08042827980964837 -0.003051653431602464 
0.100681237645165 -0.0310324642458172 0.02948774933411957 -0.01203619694008841 -0.2055373645558699 0.07782066551399804 0.0644722576294928 
0.008909594390492624 -0.05196863202540416 0.01380053789221905 -0.02432788613761467 -0.1074466193071723 0.132768054059286 0.03756231553156394 
0.006761594540781551 -0.02618678588480067 -0.01124331277295304 -0.02748467363544001 -0.08773444996339876 0.102853440928091 0.02483406494144869 
0.04234229920465821 -0.1274422068884307 0.202203034487721 0.02345216183322788 0.01055281881031332 -0.0541863302650015 -0.02549561975110782 
-0.07773178484668372 -0.0186821274095887 0.01743741264959528 -0.08738447679313922 0.1450262848392786 -0.06046133185237412 0.02236583064595675 
0.006623247967141174 0.005976444054549935 -0.01597105460974846 -0.005990357531044023 -0.01823023553971194 0.01706863953604489 0.007261622292760055 
0.01869996246070808 0.01421233707767447 0.02413545584637168 0.02107472660263571 -0.08439618610433125 0.01856151867539152 0.01171882930451206 
-0.02866115479418105 -0.02900354362993232 -0.02412663426780801 -0.02487753251827098 0.07561218357068696 -0.0215411030421736 -0.01368517292032894 
0.009804126921039432 0.05864423296386701 0.02058702085878449 0.01518521115804035 -0.1098096747692601 0.01504726457512313 -0.001405240007363304 
-0.002015196825526519 -0.07083752249161834 -0.01548507067795948 -0.03719509777105758 0.09047525417227545 -0.02275222689762048 0.003670070712015469 
-0.02946161635395988 0.08501985861611172 -0.0002453603704911872 0.03495133644881186 -0.09753961577338194 0.01935145565007374 -0.0159979590887698 
-0.04627350889408403 -0.01340860976476643 -0.01848053913494946 0.03280533870169711 0.02721068072411219 -0.002464591176378643 0.01070975317170055 
-0.114624471369032 -0.09327799467467149 0.01053018300138706 0.1252754261067474 -0.0503647038678463 0.04394996236707197 -0.01794217642251238 
0.02605590338736995 0.02173552674018418 -0.07235546994799068 0.005073877131001086 -0.04157726796646294 -0.07725579691223361 0.02135168334123647 
-0.04332710084178355 0.06869368744799759 -0.002602086779571747 -0.1267213931311036 0.0265432898591328 0.07243665659449589 0.03735075898630297 
0.08089636134530111 0.01160040473919289 -0.01581791579153858 -0.02421451652036564 -0.1912598820344714 0.04626915333110695 0.03497455427527182 
0.07044139551588498 -0.02725798849624696 -0.02428558321118113 0.05871273294022352 -0.08448031783254317 -0.08970707082755851 -0.02286086754342538 
0.06663054874875246 -0.05965204369510846 -0.004337165336640801 0.107456257095285 -0.1123425261696169 -0.06170988986779306 -0.02973687196862126 
0.03938026180879466 -0.02896018656345937 -0.01876600785528433 0.06213640588043514 -0.02267615763766754 -0.1053371366137885 -0.03582344598772842 
0.05672004298808449 -0.04717649489982858 -0.01293149308176042 0.0906847187817986 -0.07050258321758643 -0.09175824624731879 -0.035675033142659 
0.02104066633078721 0.0359813735372575 0.01519225927158432 -0.03146743625114564 -0.04254612442588664 0.01134369617915441 -0.03565443904454309 
-0.07842616221893146 -0.01995356024931618 0.002067890885265638 0.03598515090529229 0.05395872676767832 0.0004990612551734612 0.02212603523890831 
-0.05386400429067448 -0.02465587462069311 -0.007565999922453782 0.02598308324415929 0.03832537198858515 -0.009913777171135068 0.0254469369759729 
-0.05939058204217471 -0.01518437438564148 -0.05187120444103623 0.05973099377787219 0.04389853583634901 -0.01834220148679209 0.01908167525137002 
-0.04728424072483439 -0.007195450310550523 0.01480705534753421 -0.0008134754591094892 0.05800252801959151 0.03538150648030178 -0.02059927849689657 
-0.02715997374319886 0.03369243535411154 0.01309078735178544 -0.06044981869416793 0.06707683350185538 -0.03171570643289565 -0.02265030146562342 
0.03086167086642591 -0.00771402817846382 -0.04375693400562403 -0.008632118656629216 0.001076635216626286 0.00426165371475517 0.01322419841149985 
0.005253344677437448 0.007729101121494553 -0.04132778535136861 -0.02327544005875423 0.03558540354939072 -0.001191574161506098 0.01501375671206081 
-0.01025054825697338 -0.03275722323529028 -0.007451920897796182 0.01104636367059536 -0.03587740991068267 0.01970342090885266 0.05029160583740835 
0.01490363962464747 0.001250665103033043 -0.04419253559934673 -0.01498315872494984 0.03023383927966345 0.006404690603506756 0.00961835812669282 
0.01139852024984066 -0.003468827688411629 0.01520046747995179 0.02276184984151017 -0.08521310423979435 -0.01823083741375828 -0.008530420881263484 
0.05768221859531816 -0.008277103853815181 0.02327393052252809 0.02408860981172536 -0.04331480915861915 -0.05150559797270521 -0.00150099457119755 
0.01700647466775164 -0.01165460578115885 -0.06393699923642102 0.01221324228121265 -0.006422384968845628 0.01019034372649097 0.001798580347070843 
-0.006666243961578246 -0.02502733544441903 0.02177047434789929 0.0158462661585185 0.02328726531249011 0.01351333996879209 -0.002717927738222747 
-0.02783240483235453 -0.05344300983535907 -0.1336384812665771 0.1142408716779763 -0.06134216915996173 0.06725772572560978 0.03718408833114713 
0.01739220494024851 0.0396930358628662 -0.08535331906399735 0.07473570414773176 -0.02694404650399269 0.01596115002908182 -0.04776270152743341 
0.01449774828209301 -0.0135672422913507 -0.06832260613421645 0.03294872661459621 -0.03725613009964582 -0.07010900735379441 0.04227413620331155 
0.04499267409559203 -0.008506640925415121 -0.06401866609264079 -0.009697741113778805 -0.0678222220364743 -0.06784289952908161 0.04927180065312764 
-0.05758083560204977 0.002762253375425917 0.06377936621440948 -0.001941916857266036 0.04299369484490741 0.06967550543220971 -0.0572002136152966 
0.04357623664292123 0.0273786149167375 -0.04843369193507992 -0.01581029804198011 -0.0404814446439013 -0.07754667951100387 0.03830179132056657 
-0.03037355599480552 -0.04013953730579638 -0.004053225151667695 -0.002754088897154193 -0.02065055313346815 0.03653600835678377 -0.01164927109021218 
-0.003276292290322304 0.05417854283581063 0.06041304832460739 -0.008124228010834424 0.03818105543962714 -0.006931585771348614 -0.02911501665692128 
-0.06463717719202623 -0.05421253701706254 -0.0394656135201346 0.01830098533104136 0.05798819538907436 -0.01793259032842214 0.05886947282209134 
-0.06891113854738856 0.09199822822774043 -0.05615568540910515 0.008148585848854235 0.1645833133144186 -0.114679979942917 -0.005600211337519556 
0.004251892241244084 0.1211503738143086 -0.09259822884471108 0.1804384729093256 -0.1460676160972315 0.06669559576344236 -0.06485441138368887 
-0.03821113941414946 0.08221487737365041 -0.1244541043938609 0.1311670995564822 -0.06070764013928738 -0.02117687637652172 -0.08646365112933779 
-0.01649009816627161 0.1389445019323157 -0.009275181015395812 0.01484440398914564 -0.1653928835148874 0.07433860786252572 -0.02760269644222324 
0.07449178105781731 0.05782489632156274 -0.003816279568191739 -0.01670673440419691 -0.1134018816275152 -0.04338161787325669 0.03509587030955692 
0.01164335253191313 0.05357391993450528 0.08284042705864993 -0.08818917673713882 -0.09406576813227316 0.07250798435630094 0.03872992228502271 
0.11054507591087 0.00191754417273002 -0.0001959065899657855 -0.03346400795473418 -0.06512180262762998 -0.1029726539257305 0.06296957200875442 
0.08191749929650563 0.02724656989662445 0.04015800512412079 -0.0656552556649431 -0.09023600119311335 -0.03549376728475883 0.06229050797981711 
-0.04893374509684775 -0.1235002719632251 -0.003895003047577732 0.1192903340192828 0.09924357524963502 -0.1005482956881854 0.02189893973231963 
-0.0673419329614208 -0.07124385007406206 -0.03418388328254398 0.01623623041228466 0.05459352404957284 -0.006253661234341236 0.06787661005093798 
-0.06072058126502754 -0.05843682766365892 -0.03201085901986845 0.006456753791618159 0.04368153110607119 0.0003402384198626734 0.06204052809016342 
-0.03427081082234549 -0.02983910050826467 -0.02647448384976258 -0.01799454304080719 0.04075210606952243 -0.03147344669365469 0.0677077791440138 
-0.1915693968072243 -0.1282389389741154 -0.04518111738409483 0.04936517686971029 0.2206145156940906 -0.02611116694486407 0.05900421221447785 
-0.2102335437091488 -0.09521708883726633 -0.05488700541202256 0.08128493887229535 0.1963288565608889 -0.01610769292371512 0.03316927070535007 
-0.1102307523806476 -0.005620213164522711 -0.0354602967612202 -0.01925964476505352 0.1798652471098062 -0.03295352003692173 -0.005456978860400873 
-0.1143557954363873 0.008448703948120306 -0.09472850537876112 -0.05134408214182816 0.1759779164605312 -0.04960833877110268 0.03306609255597804 
0.0359605859418347 -0.04288893461610156 -0.02200665860711833 0.06146921026496711 -0.03505782006860575 -0.03744822851743652 -0.03217943976908617 
-0.102042339915291 -0.01440993148944514 -0.06243437547873098 -0.0238304270659054 0.1556313879181907 -0.0270840207019173 0.01363380116108767 
0.1668346957322372 0.1838121084603266 9.253070545781148e-05 0.002824008588408038 -0.2615780213362399 0.03106348193088796 -0.1329873241820804 
0.08722422162385453 0.1123029612650702 -0.01969919671132679 -0.02557784851401931 -0.1191703371985774 -0.033936196173367 -0.06964073358875786 
0.0413033163662965 0.133450182475206 -0.0399243106429812 0.008306553182197914 5.158196619706396e-05 -0.1297524446093097 -0.05426331688896976 
-0.008110593785312981 0.05144827169371838 -0.02932605406040449 -0.00135402334321815 0.004607919785702174 -0.05865063652529332 -0.03718627516773602 
0.06161737038831516 -0.1474805507693623 0.008856651280954 0.04954177082944784 -0.02034758428095925 -0.01295823244220862 0.05747195435067189 
0.08164803153712512 0.003868226873430835 0.02615917715460046 0.07286676673469712 -0.1125601308577278 -0.1203642934767365 -0.01982444511621631 
-0.04489186242605317 -0.04401728384342384 -0.0004840086209287439 -0.03948952144592472 0.0736852055537425 -0.06070827698123678 0.009220010978856934 
0.008662914699010612 0.003073067754079801 0.03564575269318888 -0.05346208108586352 0.05235230523226225 -0.08099027569428116 -0.05330259170729059 
-0.039510410043821 -0.003297062511198028 -0.05755815344782975 0.08908310226819627 -0.07150897432349684 0.04284674424105117 0.04265871891297911 
0.04705829488082952 -0.01549843015070621 0.04770041657143395 -0.08919512479000764 -0.02588102171215326 0.05471932633161163 0.003118161201538067 
-0.0032909142813201 0.05918624259761555 -0.004053760954096021 -0.04278980274594073 0.08848690989851915 -0.08879776166564839 -0.08692742676168372 
-0.03054535893372961 -0.01523450227798009 0.02243602877870309 -0.02903023206570171 -0.04036472209696747 0.01242393864311898 0.06662713482882288 
-0.07350839768284512 -0.03539458469216603 -0.04141382000844977 0.03643873979836672 0.03852806750552249 -0.0005342750726443366 0.03701355861692921 
-0.01054191417985978 -0.05853379496954152 -0.1225806006884138 0.07241767275044682 0.08630619732345572 -0.01251835219464554 0.02903972658510825 
-0.1832901378798618 -0.04650206599646847 0.02260211099234553 0.2009185466449653 0.04826081891327516 0.1115557879703543 -0.04659099084675447 
0.01405370689331023 0.05962030083431303 -0.01882009553672006 0.09759261002776107 -0.1333351307758879 0.0495951924342467 -0.08957885705748958 
0.04466102583115113 0.05963125849880271 0.004789956488526579 0.03543392353686337 -0.05569291986361785 0.04751482509474413 -0.03462367210718862 
-0.002452878612585556 0.02573205878171359 -0.003791868120913769 0.0004401551078093589 -0.02058982906015752 -0.01150196929740311 0.03823118828965835 
0.02555127936111996 0.01197114435053608 0.01639693517124828 -0.04011300367829583 0.03795101883191113 0.004343885877655889 0.02937812235049679 
-0.03195644875020549 -0.003756909857619952 -0.007940145499215498 -0.02306327208536673 0.006580308120446908 -0.04505661955470086 0.06933207796472279 
-0.009216482271214155 0.003498056897240909 0.002988465751733064 -0.03738191650968965 0.02505722759615631 -0.02979825659855578 0.06522492591845699 
-0.05346772006449704 -0.06124194261054368 -0.0417570083493736 0.1010916159343444 0.03375329276629187 -0.06407522208055468 0.01698084760075474 
-0.09154038515424479 -0.04340727274365096 -0.04508308068708682 0.03880524859902622 0.0430765468841379 0.01868654206462565 0.04331152332297208 
-0.08974948216955597 -0.04159778154210045 -0.04380320742017759 0.0360091499419577 0.04180217646901456 0.01999092545079338 0.04254600354726906 
-0.07906033085981849 -0.03628718351231808 -0.03899472228926429 0.01025452427482317 0.04167798576780471 0.004181983749570406 0.0546868220150526 
-0.1329003741917436 -0.06773034489818969 -0.04626261873682202 0.09109944765335472 0.0677200193819168 0.01922955456082282 0.03042155833586913 
-0.1057546690733215 -0.04386908675145357 -0.04036449088034259 0.09444436423176966 0.05946139208318685 -0.006557016572448037 0.02204018321401324 
-0.03972450376811583 -0.02050241766523806 -0.02026318864461197 0.02526697323984667 0.01727262240598147 -0.04094745531228194 0.02874071212911287 
-0.07227206576645556 -0.01705975424182278 -0.05157228711733958 0.02840769967492815 0.04969146651316958 -0.006242077778230818 0.03914323928933953 
-0.01144413553118871 -0.02395444629745143 0.1485005386359849 -0.04434974605003812 0.01430069110683971 -0.008926165851131925 -0.01320363519209283 
-0.05228854152607636 -0.01709115176491287 -0.03474121913318125 0.03389830918844588 0.01567613548436842 -0.02318927676954311 0.0324153307549735 
0.1530335488073113 0.1221626600571652 0.06600189216822047 -0.09060086452391297 -0.1162364005032326 -0.09624006138551613 -0.06525423096370683 
0.09079292485160323 0.06709327717506741 0.03439539535740968 -0.06655723214451374 -0.05356554989796937 -0.1032772204092423 -0.01071766378112332 
0.02685462043703163 0.02392653767569253 0.05158391616700125 -0.05809735547821152 0.01960282653767231 -0.09785480812790544 0.002083849576662128 
0.03010071310400129 0.008541705111529588 0.0611093493710692 -0.05937628895113456 0.006045058753157004 -0.1148929441917271 0.009458316634626165 
0.02136078327287134 -0.1383213680883973 -0.09190215669977168 0.06662679089682813 -0.03240543066089623 0.008912802520033816 0.0571750326621729 
0.0788479433595211 0.006455273041298944 -0.02831169308853507 -0.1120148762987345 -0.0673918075623199 -0.02514289703720394 0.02409014648143364 
-0.04990065618668839 -0.01079694870278391 -0.02336910395670354 0.000913475050501808 0.04243627382061235 -0.01561394121366652 -0.002633984745014592 
-0.009754741585144994 0.0365405078760971 0.06220202362773111 -0.08178777805217821 0.01932016728555086 -0.08576165778321504 -0.05387746500833537 
-0.01059070895104049 -0.03802701057899473 -0.09322446897015832 0.09972987396618398 -0.03467491263825088 0.06832377281869179 0.04302035865311422 
0.02069789686261336 0.03995589534299537 0.09185336217968797 -0.1161211375831916 -0.008686159403169292 -0.04252595068693877 -0.02782635884471896 
-0.03724378714416832 -0.008522263196903499 -0.03966875486763062 0.02653903661794692 0.01735870494607278 -0.006814443972580675 -0.01725403092816184 
0.006332129426867274 -0.00142272742727636 -0.002045384183952018 0.03698670117417607 -0.03464321186611374 0.01357285163360807 0.04017355982539369 
-0.06234134917445968 -0.009751327878356947 -0.03469304732674492 0.01643500897673175 0.05925845455722634 0.0198589500038983 0.006985469588938116 
0.04201052452160903 -0.06845521006976076 0.06148723286501799 -0.02454530816019969 0.0138215066802775 -0.08432844260523523 0.04076343695225022 
-0.02516641647721859 -0.07276121741307151 0.03533276799940958 0.1275385722782269 0.1338047234679746 -0.2374085080325478 0.02035895109229189 
0.06714756128259398 0.03690974477015683 -0.04341351463895188 0.04287360948257797 -0.05993872691550933 -0.01509722665859464 -0.07304174357389719 
0.008411335212770744 0.01178432810780669 0.0258889729680694 0.07580979356499344 -0.05017315024682351 0.05114289714315774 -0.03719661773368185 
-0.05870601652453161 -0.03652309529991277 -0.006390475421570199 0.08131587162167821 -0.05285169250616571 0.05075020978421969 0.02053084090803028 
-0.04751774684658866 -0.01554704131046581 0.05991988416229644 0.03776159497202165 -0.007902461015261894 0.06083001159196325 0.01871010092585089 
-0.07137904034168159 -0.04629849164563608 -0.02149167960145647 0.04725368870444119 -0.03392767468752868 0.02751769387107797 0.04235611748505897 
-0.07636792244799454 -0.04321602174025269 0.008923873037006402 0.05368029762779856 -0.02970667007017778 0.04797081610872723 0.04148201578400283 
-0.009833071600956454 -0.04087425415914979 -0.04919117699916867 -0.005859675474737388 0.07456227583087827 -0.07388609746207013 0.0250548422863081 
-0.08311825716825214 -0.01677653850279781 -0.04866281502621594 0.01658302388064669 0.06906942309353406 0.05284002154207917 0.01039955172508685 
-0.08288576884528384 -0.01620647300258102 -0.04796238769835234 0.01657533681206387 0.06794088917222359 0.05365244820246233 0.01003970791410872 
-0.0727216755619433 -0.02022791909279534 -0.04945451117210112 0.01745052172034646 0.05013704581016593 0.05343893757710431 0.01819161730284891 
-0.1124525786036648 -0.03494856130158121 -0.01747240440278242 0.01132312215815787 0.1224992092284219 0.01934268974148828 0.01708855892927977 
-0.08974056299014334 -0.01023875532755255 -0.01772846638488407 0.01729406151900671 0.1072802931852332 -0.006335358717445866 0.005256546118173768 
-0.07436114659936754 -0.03628996685213724 -0.0003994278325075766 0.04283135339424502 0.03457707526435797 -0.02757945050175371 0.04249023998568947 
-0.117123573920896 -0.02240072920954771 -0.02434387638717169 0.007076386753969248 0.0797955876489843 -0.005925440411396923 0.05511420698825797 
0.008618144603469305 0.08230745761221681 0.1526016492341694 0.01348253853497327 -0.0490613216726276 -0.1198267734516768 -0.0828921070665767 
-0.1133669028989364 -0.02652072790898825 -0.01168904227730695 0.03499464431046911 0.0683994382164793 -0.02207701494399356 0.05360562007372658 
0.1407353411993722 0.09619243241413257 -0.01758017629939969 -0.0313467760384037 -0.1463113448957039 -0.06198027769046027 -0.05630912512218576 
0.06801484442387418 0.03796387609152622 -0.01586514295920387 -0.001679070418079523 -0.09015882750880358 -0.06109265935783618 -0.00912125032805336 
-0.0006339371745443338 0.0002207056018504456 0.009140069669799565 -0.02253027614344375 0.001310080885428787 0.002285960329756617 -0.005853929387462328 
0.004706318143301957 -0.008925208522034468 -0.003696252827821941 -0.02721780319373544 -0.0141422590632457 0.03420925437258973 -0.004804524589345225 
0.009626912594032949 -0.1273825088391637 0.043183907786797 0.004943767840139285 -0.02062039025294151 -0.006752675783915668 0.04857560713997192 
-0.01533740820610923 0.03699944189260831 0.05535340146526295 -0.06366801105705602 -0.0197512351604015 -0.0905011494272224 0.04130819831584906 
-0.05350094572583448 -0.02789538972400418 -0.02358815116564279 0.008641104772663524 0.05278380521997342 0.00210262522540758 -0.005593442050477835 
0.03396864657589733 0.04667676945887513 0.06616799078961286 -0.09917523322668875 -0.01715738640084036 -0.09893974877458653 -0.04460667695278021 
-0.05049169505438012 -0.03574293970683234 -0.07723174943067909 0.09827116773910503 0.007283894644950838 0.07598881821035085 0.02930490513203345 
0.04516017497233072 0.02303823250797367 0.07651847418081541 -0.1082740307461932 -0.04299179262860045 -0.05525900561464964 -0.01587733415843877 
-0.05275338979049295 0.01429641882901332 -0.05117711692659585 0.04880759937979778 0.04195486131974216 0.004807111673322355 -0.02422230702095881 
0.04677868953102016 -0.02409225725412212 0.0219618695592848 -0.03038653741186719 -0.07606307709532131 0.01476927397543543 0.04723330034236521 
-0.04765357613976938 0.0179916993445417 -0.01220080259128046 0.03940519306442634 0.02813090893544269 -0.01777633184692592 -0.03040851365081926 
0.04157161775457202 -0.00899127750553012 0.05046324275082267 -0.05581986135921889 0.108274868611566 0.03979879228743285 -0.03500914602410915 
-0.05263814686765595 -0.04733362989925326 0.09505775278534651 0.09078741585524519 -0.03472034495838208 -0.1173841514969772 0.01405208164235733 
0.06186260378167636 -0.01263255001939433 -0.07549083666981221 0.06717200154054877 -0.07655331678276484 -0.003359772378062602 -0.0436747921717632 
-0.003114407417802284 0.02094717742758536 -0.03117080328572511 0.1007542006637435 -0.1001154780843925 0.125521148507884 -0.05933483601127763 
-0.07788846061681233 -0.01442098408925168 0.004314293162876306 0.1124305024444539 -0.007893465854466739 0.04179864146435463 -0.005556856091087006 
-0.05114581994618324 0.03252291130637375 0.02303422249181721 0.04954044787574345 -0.05134717147326257 0.1281984165423899 -0.03054569053523887 
-0.07879229808011229 -0.02331813835348107 0.01883645601179121 0.06359244460863328 0.03619065287509778 -0.01835918915876499 0.02122448506665553 
-0.0879007044069839 -0.007383534484782443 0.02545667289678518 0.07506789108531066 0.01140871946350135 0.03556701246198293 0.006373989707163216 
0.02948538012389675 -0.06590879668400342 -0.1037371002490459 -0.02705335179809189 0.01778549114279872 -0.04369684437847277 0.08233888175812751 
-0.04413984806525672 0.005308639015458425 -0.009270958744190231 0.03009242249008243 0.02762177672901157 0.005580908250774542 -0.03160038413948857 
-0.04432740646154068 0.005828193239718426 -0.008464990093876079 0.03020347575552413 0.02737983858873348 0.005880076016079964 -0.03220447111968271 
-0.04530655045463754 0.007531497887501966 -0.006375504939986197 0.02680653446226047 0.03120908624692923 -0.006550653147397793 -0.02095606270949747 
-0.04046022058893967 0.01091126770899728 -0.006692861051150643 0.006183825628082043 0.03295913556290906 -0.05023750436450412 -0.0214200565864259 
-0.05061198098151825 0.04172809361649748 -0.01657265831388736 0.04477054440290693 0.02507578046646115 -0.06561891327104658 -0.04209322894587546 
-0.01792900048038073 -0.02832867285191876 0.00842691803303207 0.04599746460115296 -0.006637557790002024 -0.04972640768112459 0.01983003787461105 
-0.05139327594955893 -0.04628292854503119 -0.01708882820044942 -0.005405050803260843 0.06499037282342869 -0.05756284533132695 0.03989066110888366 
0.009214127941885657 0.007472313102279255 0.02622643200870226 0.008905158429003317 -0.06341519893285087 0.01248868064880821 -0.02508180581494123 
-0.05019907028119562 -0.04081066743364244 -0.008036073389913787 0.03717108892363613 0.04954250125088062 -0.06927442128095329 0.02877862920589492 
0.03758876644323976 0.04421517754613005 -0.01583329700866079 0.04300362705099109 -0.07951824562423054 0.01403901490268239 -0.03409584443664322 
-0.01603631160461066 -0.001057011885205427 0.008117465509180875 0.02313991823602781 -0.008746237404519427 -0.03698396456941776 0.0060277158807697 
-0.03267584278172609 -0.01739997790174145 0.01059461194395284 0.008379323665740854 0.04204801361523255 -0.006722925849418368 0.00398459520943566 
0.002685610099008241 -0.05073122806169066 0.01905118666885501 0.01660043070977121 -0.01465347720759919 -0.04013644423136462 0.03392784898328923 
-0.01541060599577422 -0.0679349316792944 0.1122293684796878 0.001374005167575154 -0.03217353043253714 -0.03252480061220216 0.03310028816848357 
0.03469266118825221 0.04602723311559419 0.06077197797508104 -0.0002188682840333937 -0.07190305644262762 -0.06628169299142568 0.005131004704803428 
-0.02965904413722615 0.001076527661980523 -0.01840746734902046 0.0172721855761922 0.0214604994589098 -0.03419814428572614 -0.0194544410082321 
0.04313798915344343 0.006054668335212879 0.02446333199777263 -0.1137288984667792 0.01559374278275885 -0.03610030744361634 0.0003917960309159842 
-0.0614490408192278 0.01432968834255009 -0.03372700693604851 0.1222399356308068 -0.04439526552435224 -0.0005100931282529715 -0.01726591546221613 
0.06467689090699498 -0.03268007910768864 0.04072552535820646 -0.1526740755945041 0.02637673784871371 0.03643412600876358 0.02640029000998306 
-0.07227964305006983 0.05540280786170947 -0.04077616775351848 0.1002454175766561 -0.02462818181354826 -0.07517147926488812 -0.04955875086605436 
0.05059028458190606 -0.03986670254816384 0.03515287088782775 -0.07606507051581232 -0.01043366585155359 0.06174466336971042 0.05576454316996645 
-0.01687900796407621 0.01434813062486629 0.0295829434965717 -0.0149738818136912 0.02135931568254382 -0.01167343113547792 -0.02422609157061975 
-0.01232424441868105 -0.02619673411687043 -0.01679811837155203 -0.02474351514120154 0.1531915938319303 -0.1260810676273251 0.03237915326246032 
-0.06426735177422824 -0.06666667962398207 0.119189450364122 -0.01027593021354378 0.03721757446687739 -0.08594967023786745 0.01530631001528243 
0.01179431008765177 -0.01002840265990631 -0.08814252352588312 0.117257959170739 -0.0836156879578239 -0.08988721030273436 -0.005516133162813782 
-0.001392389702006421 -0.005223470630323072 0.03982699453685069 0.06119968671310933 -0.03184763646151251 0.02464545427487561 -0.04958446023617415 
-0.03941691417159288 0.01784212561466686 0.07700057485931579 -0.01137613047909563 0.00813721948870976 0.05534369934380896 -0.01274362562485865 
-0.01110146079088495 0.002973161768372585 0.09157325643315405 -0.01754861532833715 0.01611993369150224 0.07641514432873737 -0.04560773335453761 
-0.04095923586804404 0.02134192461239092 0.06179822221406507 -0.04001513266439478 0.02066404158316506 0.04549361969744407 0.008003193975293603 
-0.04038287971563796 0.01983513087291393 0.09201013489902697 -0.04201879191233503 0.02544407841674424 0.07164786298892374 -0.01132436108436557 
-0.03444464701913137 -0.0743450186544122 -0.120864188409208 0.01232877316765952 0.00984885494735353 -0.04335680561469763 0.1039167695649824 
-0.01940315330740859 0.00442699009330486 0.03515108403816187 -0.02313397696622312 0.01890374268884006 0.007633913281087359 -0.02229266231341426 
-0.01917189764122634 0.004843569427378357 0.03564129199015047 -0.02316345207340018 0.01867597869567621 0.007796478187659317 -0.02278896417418074 
-0.02498166337013143 0.007829675823733027 0.04257528039240865 -0.02537386276590399 0.01986637185829712 0.007393397359614291 -0.01776343149513588 
0.006203824424636612 -0.004942519477505934 0.05087162009972089 -0.03165639577924054 -0.01860824519805236 -0.03202468723414836 -0.02993413430301365 
0.007856959220771297 0.02077573343300808 0.04321651541322042 -0.005870517323279542 -0.01368991506412518 -0.04733848629491447 -0.03980787859868238 
0.03741587307281603 -0.01133345883696025 -0.000229794441463621 0.01639954387140982 -0.05640039102144343 -0.06577997080075726 0.005240467967792487 
-0.002958849284204752 -0.03006721606253288 -0.02874808265827643 -0.01268444918154608 -0.02274773481230661 -0.05367492895375599 0.04499566371299631 
0.04244804538973235 0.06806223643057825 -0.07046710006989673 0.03457656100123899 -0.0839393828980851 -0.05832795720841346 -0.03911088198007316 
0.01252769074255207 -0.02793785750473253 -0.001763864133862939 -0.004217669942557559 -0.02476749815576846 -0.05126918234028566 0.02288302614725599 
-0.02934078420694082 0.06289137901974506 -0.07079607305989721 0.1007146072076468 -0.01206379991872903 0.01077985922291965 -0.011900799344483 
-0.04396011911072807 0.05063522278929226 -0.003015691734011444 0.03927688216946548 -0.02786048921179606 -0.004140606700228437 0.00462062706001586 
-0.03827490416642803 -0.02340964145401051 0.04345392094220989 0.0119877056361757 -0.02678346471872326 0.02828751252390715 0.0507563202297884 
-0.02882374145094081 -0.0227150888373359 0.03559110757822107 0.0025822395638701 -0.01446967076902375 0.02677959535659785 0.04564676550681993 
-0.05727584744356005 -0.02936133049562622 0.08001139784008844 0.05468196721956318 0.01203819379515389 -0.1180461227617715 0.03829816947930902 
0.01017171852800319 0.04411703576829819 0.1766835271945126 -0.09405685018763706 0.05505627647902738 -0.05947930721151968 -0.0299926800799871 
-0.02175179237018704 -0.001301138736044427 0.01128424449717022 -0.005824524720264415 0.04057868404437125 -0.03603200660653809 -0.01349198639665579 
0.001572359287357152 -0.005597568910701879 -0.0592591198968116 -0.004081182687325668 0.02018712509650911 -0.02533769993399806 0.003830267855611766 
-0.02134315313601721 0.01848183994978582 0.04173454782741236 0.007568255097704672 -0.02011379501847545 -0.0232460384890799 -0.01364434583304333 
0.03038909615238318 -0.0219958145706399 -0.02098090481129431 -0.03956908341355214 -0.0328155820064473 0.06773832892930989 0.008026862427933278 
-0.057884891594221 0.03080706320690384 -0.01148005837850388 0.03158158135676158 0.05692099446235246 -0.1077657114240914 -0.01657976002055936 
0.05442698282889403 -0.01067330324596772 0.03613607356554795 -0.05537743133277777 -0.1057251072877563 0.09424123689496361 0.01362207361007357 
0.006623543022256635 0.02816467556529617 0.008016750942758681 -0.04558127453923662 0.002737102038910938 0.02967927255013495 -0.03385183411960564 
-0.03234354811665053 -0.05263135044328639 -0.00017709055186434 0.07172853983144804 -0.02344798533744267 -0.1240234221036859 0.04142949468992471 
-0.04427661106798543 -0.06286636294006839 0.1371481784065819 0.0304799710276124 -0.07086626319839165 0.08918939293912781 -0.03323094011520998 
0.01212909741402853 -0.05443368712468769 0.03487001610572271 0.1054360958097254 -0.0915582600946924 -0.0660295090564219 0.04823770924382174 
0.02091326207384196 0.03603074356914372 0.02146108037958014 -0.003649537874947611 -0.01671433982821121 -0.02181046312513383 -0.03903478693339785 
0.0413550263614046 0.005375072384720373 0.03666526447511199 -0.001680750314899901 -0.0379247329658658 0.03131359326069786 -0.03965093227768163 
0.01413436891398211 0.062862597910625 0.005383794447588085 -0.05485390747808979 0.02275568860089781 0.007291735408218853 -0.06306029522529734 
0.03070847341937001 -0.01922985273708489 0.02621034975438588 -0.001538473925070896 -0.03426622455368506 0.05078924617750321 -0.01803733799265084 
0.02998987885171576 0.01898158896402813 0.02192894006968335 -0.02969963201685097 -0.01253442733450686 0.04095797406890463 -0.04618721210253007 
-0.03587138443486255 -0.08477981801354025 -0.1665623586880896 0.06622343070663934 -0.01379869210259214 -0.05612228621603353 0.1082080919682355 
0.02084795760046464 0.02285058151092476 0.002385573769574825 -0.04508787611578135 -0.02193380286909724 0.04222975622652538 -0.03298452035205628 
0.02104720361080413 0.02347095270626872 0.003625689125719126 -0.0455581982605688 -0.02185766439227842 0.04254938459562765 -0.03376376561611333 
0.02003632075566259 0.02647450495256866 0.006791719354469154 -0.04255769187859882 -0.01912738789375145 0.03072541960486634 -0.03022485858344546 
0.006685027200738332 0.0004888420297824748 0.05541289033096256 -0.06331160201505168 -0.009858506533019446 0.06683669707963467 -0.04069043180392468 
-0.01823670362282004 0.008511124245486338 0.05546307855059567 -0.05722392950647594 0.02414202598127602 0.0456562106466419 -0.04067009481946766 
-0.01055339970669655 -0.01521352192800208 0.04582064004356146 -0.04667620892368592 0.03168141925949443 -0.05600642147643949 0.02190959978834403 
-0.008901246731138669 -0.01140850969324474 -0.04411210918199931 -0.01610339502104093 0.03212543610523941 -0.07433162902336653 0.0447082722900766 
0.002447166277205509 -0.03068981297635491 0.02873802934547563 -0.09770578494072074 0.01229834718721891 -0.09678977589420112 0.1045404255587019 
-0.01583810460571343 -0.02120864874539205 -0.01280546035768157 -0.0229003427290784 0.03191784780876034 -0.0703956056462489 0.03585375806806877 
-0.06726346102498879 0.01079716936446854 -0.04325975147640687 0.05903160636503424 0.04032150163239057 -0.1129464065350163 0.02397215537465595 
-0.09443924299309607 -0.004137452975708018 -0.06462269051226166 0.04294416847198797 0.07850311456255779 -0.1494371302492507 0.06452671540835121 
-0.0607491541095443 -0.01088649822774408 -0.04913512945335726 0.04348153067797985 0.01570481867975539 -0.05196474759774497 0.05247979297184927 
-0.05486632777670848 -0.02229284856694596 -0.01736704197225705 0.04765498609685336 -0.014262905563699 0.007828197325906875 0.02328671341031974 
-0.1094271142135549 -0.03904500685595146 0.1134599854060084 0.08787000713491996 0.04008072913839594 -0.07389304218139349 0.006074583067809746 
0.04315210300812742 0.05160525379432814 -0.02023836107055211 0.01026337896158073 0.01435242425973162 0.02884980392530156 -0.06431804265472668 
-0.005744735996186065 -0.01607224097190914 -0.01720200417222011 -0.0008318166406916297 0.03272043830986332 -0.0026482703178013 -0.01315715980978157 
-0.04037850849872056 -0.01931865418107585 -0.009626210856004014 0.01547087082188472 0.0189088878421801 -0.08080482597327905 0.03952757028336283 
0.01565721197333399 0.01056962547626767 -0.01263794053387035 -0.01516725455567427 -0.01225747737147381 0.05533579351070341 -0.04025704199733165 
-0.001136560112716178 0.009588638341612827 0.03129226329558615 -0.01143350914811009 -0.03972811921017903 -0.03470765730364184 0.02502234048076217 
-0.0418707425782414 -0.01335371896246379 -0.0396093769173364 0.005951518174354102 0.05674294726393367 -0.009266505125382494 -0.02595665273210502 
0.06452416763130882 0.03651610074919396 0.03581310069290698 -0.03992046446623205 -0.1075137750969914 0.02072109494857144 0.01984343698393433 
0.03984095302085464 0.0222152267164752 -0.01165384489424435 -0.01583264262601602 -0.02031936266785094 0.01783841200709933 -0.02502228075367206 
0.06709844795463769 -0.1082010007432246 -0.03746313465434228 0.02925529671441211 0.03124764952262232 -0.05837798144597388 -0.00142773887543461 
-0.007590505665269083 -0.03440973569175341 0.08689867022569914 0.1306941421287753 -0.1397211958547845 -0.01820611100165435 -0.03949826335920257 
-0.01524204577549883 -0.07247462185834626 0.06777342765753575 0.06603572294501943 -0.09744957334150489 -0.04599940375911079 0.08092545296867008 
0.05754992724869763 0.02245381158259142 0.03264751429870642 0.02192713975050934 -0.1060083140653816 -0.02170127534591998 -0.01779007022078943 
0.0174267753620162 0.03452611030050469 -0.03338030523719413 0.05647168722688355 -0.006533997634808965 -0.03869972405278259 -0.03476141932846161 
0.08249266421492829 0.09108278428204364 -0.01592715986449715 -0.03201427640755754 -0.05788159347930225 0.008631838847849349 -0.09232069715104194 
-0.009210880511280831 0.02948121225311534 -0.05407711869829239 0.05193209741281918 0.04129832990544482 -0.03479300562210264 -0.03202698254021116 
0.01867255477352746 0.05222370136302298 -0.04905192628727872 0.03301154063491397 0.01642113198692527 -0.025346830183641 -0.0546807657929501 
-0.02896062480251725 -0.08520063109117347 -0.1249234399512667 0.03939153700503779 -0.004750449768829784 -0.05112795695330852 0.09414613319454293 
0.04029191399299561 0.0185386830122464 -0.01308735845867715 -0.01940698312779925 -0.02538103570295931 0.02097928061167064 -0.02398058024532633 
0.04041565773043481 0.01913601568516926 -0.01218519142472086 -0.01969826117224449 -0.02536077981175285 0.02129150560548635 -0.0246342978021448 
0.03586093018658532 0.02317477577716945 -0.0175976272241147 -0.02211209972675916 -0.01930215470887238 0.01909131946678875 -0.028510182574312 
0.04761532670469419 0.01126085709762071 0.03120350183984702 -0.01399865438000694 0.01023379262263502 0.02058977779667649 -0.01692140737973582 
0.0377529949224988 0.01803363692174689 0.03360684061237035 -0.009389657279861704 -0.001562274339032497 0.00403605203121452 -0.01169168770724599 
0.01984426139230301 -0.01203668989820277 0.009633941570292516 -0.02791012424676188 0.03677000552523214 -0.05474366664150083 0.01688978054715889 
-0.01031419133805405 0.00580310638083167 0.0004440740912109414 -0.03025772074270127 0.03647876736866119 -0.07421641623109554 0.02882294339441858 
-0.01509577374552734 0.0343304394898649 -0.03465901044044009 -0.03326986973785772 0.04702654980771008 -0.06375882759260942 0.01348949084381112 
0.004736274292394533 -0.01025902392907347 0.01303505473603876 -0.03792647742723909 0.04201092787070145 -0.06572027361173294 0.02422857095975567 
-0.08896385294531543 0.01162817940454671 0.003905025451275174 -0.004286398313503977 -0.04600423706299348 -0.08211779426316793 0.02075112329150295 
-0.08444432620662812 0.03343680275672298 0.02148912329361472 -0.01011019033729648 -0.005003509676642427 -0.1346443293580732 0.03224874784111919 
-0.07594828215748831 0.02582499453115289 0.003978598969241211 -0.05097603442708763 0.02245032358672557 -0.0617593694752487 0.06151251746082519 
-0.02155501670334772 0.003423918463665634 0.007863336493310696 -0.0515134223935324 -0.01176045625544337 -0.0158144004574574 0.01124311383114134 
-0.05801680233766059 -0.02503551883721222 0.01736374881850626 0.1240244640629795 0.006920638941814235 0.03406104800955003 -0.01201560344423861 
-0.01506404199376189 -0.001241248933554467 -0.01437907666059851 0.1114598089765282 -0.03475430487881442 0.02500806077191338 -0.1158808615395984 
0.02178606455353818 -0.01751336490644087 -0.01482538510855765 -0.01315793425129179 0.01278661982785933 -0.005374710816928802 -0.01420553944287199 
-0.03566470064014152 -0.01581695991276169 0.04322689603083634 -0.04625936664664745 0.01148275244127434 -0.09361437915367946 0.05110686111802013 
0.0231748295402188 0.00746330083253645 -0.05863654067912625 0.04647940871113194 -0.03620417491639177 0.07296651218195144 -0.05088000623913351 
-0.02579068216995058 0.003681206759141421 0.07219572904210755 -0.07100895468177482 0.02650309879358053 -0.04751170563357213 0.03339865090587724 
-0.0014396287097078 0.01166110038638475 -0.07056291884267282 0.04813120150912906 -0.04469354799306488 -0.007822291040561346 -0.03298991277896488 
0.0132289259742344 -0.005799418567039996 0.05753975959747298 -0.05910427892418411 0.01673768642869454 0.02476520235213419 0.02829548570322929 
0.003694467565869968 0.0435885385113709 0.001472155408498563 -0.005699136628031277 0.02516071449381667 -0.00578414582331272 -0.05800620824893646 
0.008833330452991887 0.04510331679373004 -0.00853754806458501 0.0205654729725786 0.01463177440988435 -0.01450985290869385 -0.05465177919647593 
0.02969814560505258 -0.1121023173845584 0.03872452824467572 -0.0405217220195575 -0.02543740414568147 -0.03325171807344616 0.02464579894956423 
-0.03663198382236504 -0.03419169955009891 0.04554652193054542 0.1059358122220771 -0.09441721788467194 -0.07059207941819176 0.07144536655071378 
0.03997021766465694 -0.0001301624769846088 -0.02148827032009296 0.02307065851913331 -0.07241201764723267 -0.06824156085701015 0.02304808155419951 
0.004230107332287936 0.03409245103073789 -0.05155509184132181 0.02078335226140008 0.03056668753143532 -0.05548157875370058 -0.0301879525917832 
0.06632598315832731 0.02892634809771123 -0.05810482716103791 -0.06425918458248256 -0.006329145393548776 -0.01725063070943565 -0.0347193841941606 
-0.008563607177073017 0.03842471017943053 -0.05061158799073361 0.01466672319211399 0.05496734307019919 -0.04095044498128076 -0.04125226205463473 
0.009158560214295048 0.03686418716306952 -0.05336218456912539 -0.003762854432304378 0.04153331289881977 -0.03604923245234654 -0.0404513250991211 
-0.02441720577648099 -0.08744528389148595 -0.104690190166522 0.05802330335899893 -0.06875466213687882 -0.0315512442643523 0.09492995064952545 
0.00425324472547567 0.03924315333192724 0.001372137732837112 -0.01145092695750546 0.02284856956114462 -0.004011287788192914 -0.05861049096562101 
0.004661992390944618 0.04100553790374679 0.00315799262384864 -0.01256271561024975 0.02409939853448773 -0.003528511352711004 -0.06062430909103445 
0.02493177438507302 0.03797175497371767 -0.004473566204140227 -0.03322743278984366 0.0256094480678338 -0.00258233966667041 -0.06731827679661942 
0.004164409190204739 0.02282616821765044 0.02018446450780341 0.01159457919334786 0.0101545369951133 0.03504988458683354 -0.03827003833243778 
0.001611732237383505 0.02843428126991917 0.02242266226030912 0.02176889545985534 0.001329015351157142 0.01750151002737788 -0.03341475709823802 
0.03873786980287266 -0.04703848558028322 0.02913411343256944 -0.01746950319056015 -0.01943553433678498 -0.01406243593059137 0.02885031580148466 
0.05497919214664137 -0.04227330994266974 0.006964287210907336 -0.03640915873368512 -0.04388892012578171 -0.01606948018160866 0.03795135377272098 
-0.004060626290756784 -0.0335269102233207 0.006157128477557835 -0.01900258741398453 -0.001298551388140147 -0.01838807392599811 0.04757658445124072 
0.05858927131438746 -0.0503445596663623 0.02867148068597036 -0.0356009497583749 -0.03738289467800823 -0.01865972811197728 0.03649581190506049 
-0.04264102523636445 -0.005777343059984038 0.01364939713918031 0.001409412444788254 -0.03153388692065178 -0.1017058542425408 0.03440668057685987 
-0.01498873846783521 -0.004918142099397939 0.045866811454105 -0.02478386934983882 -0.06442145441817794 -0.03871759003578693 0.01157961984801515 
-0.01279344029748196 -0.0147848247041463 0.06933170962105437 -0.0186657029977637 -0.07589227536392577 -0.03127444586533693 0.01055400166618374 
-0.003266281069006161 -0.02909638140643709 0.05675500438100865 -0.04631066371382717 -0.06403766321550454 -0.04529431949419405 0.06365363369308559 
-0.09436424612156349 0.03376814846154304 -0.004801230120886553 0.0782813964376267 0.0364079185731221 0.08705052568925246 -0.0434407814309062 
-0.02321996711740722 -0.06190089836183201 -0.02378358713135059 0.02633808535922454 -0.006900751563959731 0.06877439870210166 -0.06311479214031304 
-0.0051983025919452 -0.02608227680741648 0.02364570339203838 -0.009433570146636696 0.04882902919856242 -0.04160411526088008 -0.01568213254034864 
-0.0313349937459934 0.005232108473871455 0.06755497830641136 -0.0529345011853192 0.00610132230230462 -0.1097310764645928 0.0507479801101363 
0.01992510294129871 -0.0168335068606922 -0.07050319102868077 0.03060129605773603 -0.008418166922924271 0.07243121173578058 -0.04422006120536134 
-0.0282754900375694 0.01409939616527155 0.0511320615077992 -0.006772294112749685 -0.02426496598464413 -0.01543427976056242 0.0211624256394562 
0.01041601998650642 0.04403055960683587 -0.01462319756826477 -0.05627259649025457 0.00577410922295399 -0.06055750578185122 -0.02827103949076281 
-0.007424913332427909 -0.08942320505817299 -0.0032860158539769 0.05484795607981842 -0.02259756038773128 0.0818317371003251 0.04182641235079606 
0.05133160204073101 0.02124296557118125 -0.01669655400420609 0.01165035441213223 -0.08150163708419707 -0.008565359091078742 -0.04499791703034287 
-0.02760612444309743 -0.08471024165748461 0.0336421243362276 -0.07211460773082573 0.01337767488158762 0.03292730851275346 0.03041772439973022 
0.002884671498275241 -0.04274884518002486 -0.01909254226109434 -0.1331071848717646 -0.04571934398241226 -0.07863347180945628 0.03075103651184645 
-0.04362534783062855 -0.005171011432488454 0.008477974833856011 0.09267219058760892 -0.08046813797717449 -0.03691647499956885 0.05867576390187397 
0.07590065720125766 -0.01056179951358588 -0.04235145189934332 0.04116701113818626 -0.1090609456157851 -0.03982089715520829 0.03852466947756402 
0.03763180106317113 0.01813305712124768 -0.03853343297646657 0.01997294690174112 -0.05483362214891387 -0.05227176849651474 -0.01365236295178249 
0.1004600990331546 -0.003018171370922677 -0.04545629850370711 -0.04306727066818995 -0.03908806471108406 -0.00863008007772632 -0.0152942022956486 
0.02019542559319027 0.02420530757640366 -0.0316961020034888 0.009905626616129828 -0.03178900019640042 -0.04852962745503638 -0.02728487215568644 
0.04281273779475935 0.01863693359289839 -0.0374880038283881 -0.003094697027285477 -0.0356343386109106 -0.04130152760114485 -0.02592653609289979 
-0.04365260121989382 -0.04880615957543453 -0.07268809712140856 0.07576247115869783 -0.0561053727201942 -0.0518488127512188 0.0670469539743668 
0.04419824975820599 0.01620172952737212 -0.01484645565767861 0.003412008089315865 -0.06039660060706169 -0.003444492955670605 -0.03816480121389298 
0.04430342363437279 0.0167242426809585 -0.01387280998111186 0.002349437627933131 -0.05942602882988934 -0.002866712039517425 -0.03874139783020843 
0.05161618099826021 0.007163149603258964 -0.02237072675538884 -0.001464503693949236 -0.0471121723020995 -0.01024234775570543 -0.03759859476014772 
0.01400702345076942 0.02457550286594309 0.03137111527841135 0.03619506362291847 -0.06768642916075472 0.05903425541602877 -0.05664064440364206 
0.01359093800753098 0.02157842811485884 0.02020810234520767 0.03661893928845827 -0.08517389474751726 0.03785713039994683 -0.04167156240023597 
-0.004968873987909999 -0.005560261069643824 0.009349093122142585 0.001365116534478975 -0.01225860519850997 -0.01252107483994317 0.009772202490842524 
0.006873007887693859 -0.008575820666745535 0.01293404733130594 -0.01474509794403801 -0.03003091149695468 -0.009887935176529732 0.01588353345853146 
-0.009664447060749532 -0.00363871544691815 -0.01757401054369443 0.03563012733249345 -0.05320095250358741 0.0237587516698524 0.01665028123781763 
0.001185899163277189 -0.01101007497435514 0.009434964428224508 -0.0041066723906062 -0.01962721814869509 -0.007777297586171107 0.01147670602444036 
-0.03280385627577469 -0.001080890652126901 -0.04536534175075951 -0.03361609512204693 0.001068191537212828 -0.08433899269373009 0.05661556249762276 
-0.02328620545019842 -0.02329768325206241 -0.04118502296012117 -0.01269404748427651 -0.008326621713529162 -0.03549669895653194 0.01659471186130687 
-0.01134655897545658 -0.02947850518858584 -0.04965813766563375 0.01099274896638185 -0.03675857413599784 -0.007506174168461994 0.0615444908725174 
-0.03646469758547522 -0.07534957689688615 0.02282602599345266 0.005635488356673705 -0.01689929823699101 0.005683099609237628 0.1057035215031772 
-0.02528659661018831 0.092255460329318 -0.01607672528050703 -0.02106169161142338 -0.006462352302219737 -0.02451846814880341 -0.03644173678264014 
-0.01490554810538558 -0.06146433387785118 0.04587905857226039 0.02087688806060784 0.01749073698131973 0.05778070300285416 -0.09100223443103626 
0.01876550975060258 -0.02220643732737548 -0.01125674207606857 0.01304801930355958 -0.008049641483560846 -0.04611304108274553 -0.009229468166336345 
-0.04554578758432616 0.01711924150110352 0.05655277546033244 -0.03607087955088215 0.01447713567867223 -0.08179298754835279 0.0451187105056379 
0.03268015052540193 -0.02983449206030121 -0.06740364326432839 0.006052227564998685 -0.03340526906619168 0.04799255913226337 -0.03099748599214078 
-0.02860840264285904 0.03954151687540966 0.05567696535853243 0.008686405541636803 0.01318667358785117 -0.008846068014740052 -0.00261034730306839 
-0.008484508110466693 -0.002194303363962914 -0.02110135523223694 -0.03766906253285671 -0.02313392470917266 -0.03710112504825794 0.001858655125100033 
0.02717827002781951 -0.02458257142253686 -0.004067082657862786 0.002001652658161861 -0.006789430924369447 0.0337694360475626 0.003286170159771618 
0.009798328871761741 -0.0007331396023086768 0.01350150976935636 -0.02500834631124329 -0.00121916314705328 -0.006206893430278071 -0.02972523241343257 
-0.05380426496746207 -0.04660794930714541 0.1292936397424522 0.006744851887863352 0.06000460814564039 -0.06620944342311354 0.04195877581744947 
-0.00546607234724495 -0.0753458849653578 0.05091378835758298 -0.03280931019719229 -0.1124547651149855 -0.09139821610352392 0.03227640465674322 
0.01314068003389255 0.0233797310243121 0.009866322820358965 0.0784351707044177 -0.143034209903385 -0.02393614255209588 0.05465624637990391 
0.0713029196078715 -0.005888990770903558 -0.02626104063010531 0.04951091726685204 -0.09233068145745438 -0.05282036446514728 0.06336959571556815 
0.04201632242823433 0.02654651586980183 -0.06405213093040237 0.02345801326558097 -0.07967817969035319 -0.04410346538779868 -0.0128036816815163 
0.05545786773606754 -0.02202275494594833 -0.03389605553912194 -0.01961312634725613 0.01799631677937645 -0.03510110223241077 0.01552083608562929 
0.02149452298747997 0.03198324656835191 -0.06218193852386215 0.007979954195468132 -0.05824605903054587 -0.03149497965457498 -0.03640022848310369 
0.03341022920978944 0.01944505603775218 -0.05992353033949419 0.001244199063973621 -0.04154769016923598 -0.03526445248963204 -0.02486431650981443 
-0.02299691391740816 -0.03780064605574147 -0.07478465054610126 0.0675979227206417 -0.04449999801460233 -0.05714448829358824 0.05467341876672602 
0.02052301437779826 0.0007195968441895694 0.01357482740328687 -0.02652650270989506 -0.001322225021858111 -0.01475682377122601 -0.03627358993845114 
0.02041711701479209 0.001498423803200178 0.01464849023036703 -0.02754645400446844 -0.000846947201829565 -0.01365016652387615 -0.036767394429528 
0.03052474497958907 -0.006911131164080653 0.006319201834153758 -0.03485798476630824 -0.007481331028023041 -0.01623536826462849 -0.0373420853643254 
-0.01143661366725437 -0.01501782767667494 0.08121990049341817 -0.0362622659159595 0.04703252010188494 0.03101542561067507 -0.03127876847101957 
-0.01999928336603155 -0.008651053728357514 0.06189474780773219 -0.02675346270343915 0.02784000606589478 0.02909137040683947 -0.01663347587968081 
-0.01167131781340244 -0.02230150307807899 0.01406849338119159 -0.03041896864514883 0.009887094099703253 -0.006740236147991294 0.0123341375895668 
-0.01287770963550311 -0.01751601767293024 0.01366387754100787 -0.03243319632114644 0.002892706911395528 -0.01763703392086052 0.01811071460886164 
-0.01247475134958328 -0.07815864650042656 0.02412367702963451 -0.03010027708224216 -0.03985647377599796 0.04415554704423282 0.03973505715825187 
-0.01464190039498813 -0.01753953050921257 0.02028346838200046 -0.02510064282266381 0.008383442154745216 -0.01279766408634018 0.01252972904475715 
-0.03115879602817523 0.05511061221053811 -0.1113096366184665 0.04189233464456886 -0.06115332527097655 -0.06539090251118168 0.0294383790129298 
-0.01111326648842238 0.06183938341085024 -0.1447047143365369 0.02762890549801104 -0.06751480135605288 -0.07253487453502923 0.02585945987060055 
-0.01374365668459671 0.05089373126141616 -0.0532243581102499 0.01224893660718361 -0.008102354828691318 -0.05458470422216038 -0.01279207857413213 
-0.01312835331903371 0.0258350315845229 -0.01781849334629283 0.003808011167187463 -0.04970731572611153 -0.0361678948317538 0.01170621640300729 
-0.06184810344677404 0.04737567792217202 0.004876800501102968 -0.007770485472740733 0.04112896385475109 -0.02610306331412828 -0.0185802980870233 
0.0267325174827237 -0.05254781819443787 0.0367556301903437 0.02757469686678937 -0.02378449813197148 0.06728417806806519 -0.06880506856710099 
0.002093346497692858 -0.01776153006919257 0.005174021105024957 -0.01263011083954159 0.02205472825724373 -0.02920665743187649 -0.0003546137764137571 
-0.008062856341134126 0.02204750857406249 0.01279726338894802 -0.02047423757124545 -0.006923500314755806 -0.08330730783753908 0.0427286596833891 
-0.01319484308212737 -0.02880336202268946 -0.02411358798375247 0.005374521833692659 -0.02527112949381083 0.06259572758390444 -0.02981874997357122 
0.01314719677495519 0.03171056340670101 0.02352912262114364 -0.02701633538883935 0.03581678935605154 -0.02526041606872495 -0.001083386543902188 
-0.01398635542730418 0.0126504461440363 -0.005364263889293989 0.03564320322356565 -0.0712256628143664 -0.0502522580618517 -0.004255321921404263 
-0.01047815176497242 -0.03331887999587553 -0.0009731439647208587 -0.09264947368253103 0.05470329033527629 0.07675094707345384 0.01080418132269793 
0.0299729686208795 0.002478268283681986 9.262766029882004e-05 -0.02481513020305395 -0.01034438928969623 -0.00678588466189874 -0.01401129229456778 
-0.05976914736904396 0.01530606834698263 0.08694328044276059 -0.0809972784469722 0.1440372070348252 -0.04615197495642497 0.03888061616327956 
-0.02645894134310207 -0.03376348348899037 0.01209050386562384 -0.100999987273975 0.02516138820719135 -0.005528599597451654 -0.02658057603613714 
-0.01930440240551904 0.0471497782575989 -0.01910004753125531 0.1022773776141636 -0.1254179164091128 -0.001952647674167627 0.0455922429832815 
0.07209415835648564 0.005268012828307224 -0.003340120736314596 0.02131535650288243 -0.05250593950015824 -0.07266005856587486 0.06262848529656126 
0.0302960680811887 -0.001492109640715017 -0.04712056921993114 -0.01434976831825321 -0.04544947405159334 -0.01640321648026036 0.008914947947128951 
0.06692993462713533 -0.02614223817292256 0.0100988819348559 -0.05859043893015266 0.0390748099078595 -0.05858679299904068 0.01557896708402026 
0.0112210481980227 -0.002657032458058802 -0.04975201611326996 -0.02250639960482403 -0.03500828446106152 0.002668485116871135 -0.00885197334363649 
0.02971055831268207 -0.01026399356662387 -0.03807148139178959 -0.03583907938891676 -0.01666044349273228 -0.01519895335574939 -0.002431066854827298 
-0.01526840876656965 -0.03462575769616107 -0.1092395477248507 0.07245716781493074 -0.04259223520125627 -0.04140662152374298 0.04707739849969413 
0.0584654732044062 0.01041746051090254 0.003938729134882776 -0.05036361319769414 -0.03756898322180351 -0.01677818176781387 -0.02217891104885363 
0.05819768706730513 0.0109883687764736 0.005732015902805946 -0.05135115807839445 -0.03675576857975389 -0.01603788134015781 -0.02287404290616343 
0.05838135812568794 0.007110592593079473 -0.006553437920706232 -0.05080217626900053 -0.02176441734700334 -0.02898108733810032 -0.02374653722742935 
0.02074124795495461 -0.009930581155348998 0.05072154990304652 -0.007469615800771127 -0.001836550974268335 0.0269745892121741 -0.02185207576650343 
0.007098646719411866 -0.004904328833348365 0.04189974630278268 -0.003718601459738018 0.002925838628426844 0.03406598197332679 -0.008643110050437686 
0.01773600625113244 -0.0182318570720736 -0.02297800571308735 0.006768328175735789 0.004977151816141882 -0.008939984943950038 0.01335090138628291 
0.02426208486600079 -0.03570760438723095 -0.0521793936748785 -0.02767551447118519 -0.02550108534714312 0.007425413016356943 0.02542930775168455 
0.02399350636247681 -0.004355186108981531 0.02885973807856661 -0.04275633089119076 0.01957313603077054 -0.0312834285839852 0.01702482723369529 
0.02269887973425251 -0.04384503647172609 -0.04654113167739503 -0.02616948023778264 -0.00543758847311665 0.01198325768835206 0.02251531112443676 
-0.04880641867893093 0.05345997528007183 -0.08140056794130997 -0.02998508611832511 -0.02577835490555027 -0.04623115224072446 0.04339642254186579 
-0.002053043997495113 0.03904445057550079 -0.07440013111129268 -0.02629945539004779 -0.03158345361220168 -0.05207423393110234 0.03686192674554362 
0.01111339548013518 0.003483376545998015 -0.04322551317843649 -0.05433239957200271 -0.04856696681718518 -0.0767186545972444 0.07185137919226542 
-0.001704361851309521 0.02839860992137127 -0.003916351913808576 -0.03148309715133436 -0.02267267750078093 -0.1088207626527279 0.0393969681425405 
-0.036493453999894 0.05423246793720223 -0.03560543342656177 -0.002167841156347065 0.04882201398082656 -0.08564309070069945 0.02649080912905825 
0.03461655438025916 0.007128660130704707 -0.01533922190501484 -0.03038620062637964 0.01745111517227359 0.03883684124565429 -0.06524201043583737 
0.001620435142937368 -0.01080055920683477 -0.0008143653423866577 -0.01900425951440078 0.05202910684673691 -0.03380200016520157 0.003741216731590596 
-0.05632392715417874 0.02773754147667054 0.03044652600664394 -0.0176119003546501 0.04641237832811644 -0.08587477511074494 0.0269007108003751 
0.05389682637181756 -0.03965726945973579 -0.04392103632271155 0.002809149436312568 -0.07909084109492723 0.07943433118055035 -0.01674574821251433 
-0.07091283211610064 0.04165855724280224 0.0433637146642423 -0.0006184723000657766 0.07120570157867233 -0.04713646854378702 -0.008950158914149303 
0.05280835078571122 0.008681453128085711 -0.0201505360362977 -0.03569567711417986 -0.07377815695203153 -0.03278588511438758 -0.009331171250532944 
-0.04669478395315824 -0.02838991356791356 0.002194035301686546 0.01562509918613025 0.03542293469714072 0.04998176593931675 0.03275249346416099 
0.03953926651991549 0.003068995659173959 0.01801980504436522 -0.05237695740265988 -0.03366710133918692 0.00404386446378263 -0.01670418027466284 
-0.02427783935080743 -0.1523089466107372 0.1020689453607046 0.003949429856980943 0.172706399146313 -0.01720052336769029 0.06373406442585836 
-0.0001157831119263002 -0.01645683188698367 -0.0421925961987074 -0.02918300551457283 0.1519617475761481 -0.1694620739759413 -0.018170632344407 
0.009539457131888005 0.04830771427420912 -0.0402113343125215 0.07676701755175878 -0.1484884964905898 0.03973781635983523 0.03923515965805689 
0.03480266390762517 -0.01639954622842218 0.06430927771597439 -0.03372568393137666 -0.01225355904652038 -0.0474900219469448 0.05826166238931257 
-0.003211413745592137 0.005029126426914311 -0.01870614011391588 0.001859898019413498 0.007421915187808167 -0.04554945704720031 -6.491832774541909e-05 
0.02542759707668938 -0.04685232002583323 0.09215882147937547 -0.09160145039954062 0.08109751712459695 -0.07822123221624137 0.03022657483662965 
-0.01579302794875299 0.01146196384406929 -0.04323647120648132 0.01335656327911929 0.01217560338399284 -0.03530601576465869 -0.02023604483629606 
-0.006006884196368573 -0.00361306119546132 -0.01011532017467471 -0.01459921463143449 0.03290237370792235 -0.05134784784528652 -0.008357795960924761 
0.003033350297039749 -0.02697772654492511 -0.1154782563279105 0.07525878678263444 -0.0476107847173634 -0.03533245593598241 0.03523491684061697 
0.05407069402893232 0.002381709947154085 -0.001132134927687285 -0.05424696511206707 -0.0513369408671475 0.008939084465815943 -0.01835250002715254 
0.05385670564233164 0.002728971530938772 0.000273068109949687 -0.05507482183440242 -0.05068948876144033 0.009316466583187995 -0.01875911202348773 
0.04930091343755215 0.004278287028274117 -0.008482947279723291 -0.04731902972760042 -0.03576169472785087 -0.01175329747071388 -0.0176364708930607 
0.03219192083208326 -0.01611630856530273 0.0419425538164712 -0.04852688885610458 -0.03296430640325446 0.0588137856560652 -0.02713694376969499 
0.02245478185966326 -0.003460852557113775 0.04809094841136193 -0.04695839679395977 -0.0220013630694276 0.04854051573466545 -0.01764013626737657 
0.01950972835452356 -0.04793962325756607 0.04591216884118147 -0.0547771333070235 0.0006215655478743617 -0.0212158842400442 0.01938225861881854 
0.05497643125286031 -0.04189577252510537 0.02251114492502153 -0.05345514230102144 -0.0528337742882751 -0.03171415727844016 0.0348991218753338 
0.004358036859380042 -0.06287708382329919 0.01715296507789167 -0.01580468952920269 0.002857059031120865 -0.01131321954733786 0.0343657423408573 
0.05401753610010098 -0.0582359672526807 0.04347637472161858 -0.0673751711220236 -0.04149330523053567 -0.02087909129891837 0.02305876414568785 
-0.05649895577300897 0.05727890306904154 -0.03713835224733057 0.0183838175279548 0.01040071671800467 -0.08495134356598108 0.03358463659712538 
0.01632722855565868 0.07040139687552478 -0.0426868556749322 -0.03134322066460254 -0.01132242170684741 -0.09004430762818086 0.01978065273199016 
0.007360442548305445 0.01822176383010347 -0.02617649367272499 -0.0188926816191488 0.02200503833398062 -0.06569680644960775 0.007440593607259547 
0.02129443921712739 -0.01334738451321284 0.001170642594914696 0.001189199367775466 0.00803326655299893 -0.08425095153097636 -0.01366975588114119 
-0.07123762679112039 0.04645436294885806 -0.0007351365462698151 0.001424111246506061 0.05270214352316558 -0.01800860934588236 -0.01282868605609814 
-0.06996957629625747 -0.04679789721229403 -0.01028160535182989 0.06239830498412188 0.04616232186406054 0.05494753596737309 -0.05345715100562493 
-0.003658738764780494 -0.01696048834691356 0.008177442272656137 -0.02407615000533602 0.05157385958434274 -0.04276137777527858 0.02744276847359614 
-0.06576505286311117 0.05255278006738156 0.002326346116465317 0.03396726922580246 0.02875438286116555 -0.08558738872287446 0.0151347955200839 
0.05483296411884474 -0.06036693121186906 -0.001828237919556927 -0.06072906852067192 -0.04321728559237029 0.06750220342050191 0.002407273574853448 
-0.05769326688452216 0.05025268306440608 0.009158918525206113 0.05957575869447754 0.02079332818086768 -0.02395416448919445 -0.03240446473543165 
0.02600401577939752 0.01521746207144686 -0.03334826889759485 -0.05695642255146178 -0.03258573610492699 -0.05193038853141901 0.01150776455377859 
-0.007844767570900366 -0.05433404661811611 0.06010294438366463 -0.009117679910970922 0.004251282387137516 0.06476377440669816 0.02049245327977763 
0.04036644018885606 -0.01156001660344129 0.018188221222996 -0.02595225517885523 -0.05234543780783386 0.007301504713643802 0.0003248452211928985 
-0.06814533120238526 -0.1503954381852475 0.08408265990624675 0.05271445743523791 -0.02466924973168363 0.07592931773241586 0.09835050011233368 
-0.02947692307693519 -0.1045532099697195 -0.0572586925435749 -0.09864443759685136 0.1999184741535426 -0.1352627912583109 0.06221295025065121 
0.01195928291049611 0.02583832429174701 -0.06396434652652598 0.05591611336560831 -0.09130370686257966 0.025198916819335 0.03523194138328076 
0.02338347508285654 -0.01743040211254742 0.1040936236698708 -0.03892032245366119 -0.02064689987085013 -0.06225676613181397 0.03177483584729389 
0.0009760696201088337 0.01852430481576718 0.05274777010905311 -0.0248190985213104 0.001181364260601521 -0.09283429511556013 -0.01410652545888223 
0.01279686086021821 -0.03702694480050694 0.1578980122768589 -0.08735360397787546 0.04685158306869588 -0.08597346826241982 0.003678802118307496 
-0.009242964586710044 0.02918223127973224 0.01946357102148435 -0.01480374784397089 0.007640030919359417 -0.08370381442557061 -0.02980600692947951 
-0.003222930664887567 0.01193510184948845 0.06557926323050652 -0.0391186625575107 0.02151119965763694 -0.09502813348984158 -0.02293002459157487 
0.02149508065510597 -0.007152334015747071 -0.1703545306125929 0.07896098652502108 -0.05731121141327464 -0.01780791491406944 0.02466737151324732 
0.03389301458823432 -0.01030992902804652 0.01484382541086207 -0.02815016347246374 -0.05022036366214334 0.004967079507210021 -0.001323501499669711 
0.03341137089009608 -0.01012800253846507 0.01693821300358634 -0.02914226023101723 -0.0494178801276672 0.005114604136947342 -0.001681440952656938 
0.03796384749578927 -0.009361284398020038 0.0159355367878917 -0.03569145795629715 -0.03505088503798666 -0.009770756323836241 -0.004176888205873115 
0.03381369284351599 -0.01041883045831852 0.001612732350028433 0.008529555254814908 -0.09458391458930947 0.03091714541262908 0.002630602766168485 
0.02528522594281145 0.001764227358723222 0.02050634773783382 0.01146483532445016 -0.08777824870671658 0.03480173267561519 -0.004292794803313852 
0.02047054811350683 -0.01540773915980712 0.01251968950617627 -0.007434481476136931 -0.04698663573059319 -0.01518716526630093 0.01209733310722126 
0.008091827977262253 -0.02676586980311121 -0.004150999280194438 0.0005001998951694335 -0.03048266307656562 -0.03173146349930458 0.0258843687550938 
0.01287064803974667 -0.05718880770194975 0.005310761204994978 0.006043559269359674 -0.05242473533814438 -0.02054769829429686 0.02509130479536193 
0.008651182466171359 -0.01888990793984416 0.008159776358537417 -0.00117974700842629 -0.03542250330913296 -0.01566343731519262 0.01389189636076807 
-0.0488979229515813 0.04643485082996607 0.01244957228130932 -0.007305829240231885 0.04518475296133895 -0.03357859615838175 -0.0327942959822865 
0.00136990725413243 0.07548523734947148 0.004808244368413113 0.01871977432768404 0.00424902082510564 -0.017638086183345 -0.06103974416146937 
-0.006232945530531267 0.08034549202841844 -0.04190042054168949 0.07925967685178041 0.01502804399724583 -0.08984344715431222 -0.03692922924148116 
0.001963602201649056 0.07166831524728384 -0.07220139944300645 -0.03101442085996693 0.03055415444803179 -0.05946674908199642 -0.0196327279925124 
-0.04815786751825353 0.06403801597958635 -0.04667658388177062 0.004296446188480518 0.06112515241033017 0.008549886808036174 -0.04770041766253497 
-0.03610245562180307 -0.03006746220090695 -0.009198314834361971 -0.009713271826975196 -0.02278399280355741 0.05967952643580631 -0.0007652498436812221 
0.003814821033930047 -0.02246832315663183 0.01445043522957353 0.003219499307071813 -0.00224865562654656 -0.03722515575107346 0.03252289461306156 
-0.0361732596565541 0.05665811105956628 -0.02157196864266097 0.06334818074897462 -0.02095611952934138 -0.06655180819926773 -0.009907913315867409 
0.02436689787212238 -0.06341119248968909 0.01686779621605536 -0.07427151703839614 0.001881027588703073 0.04982247074429089 0.02351776423879227 
-0.03925810234589516 0.05854000305583976 -0.0008989839273688103 0.04582263159792242 -0.003317745563475632 -0.02148021038052929 -0.04818637954351583 
0.037115057718738 -0.004222558853799754 -0.03729649139711596 -0.03159869021014077 -0.04201232593859466 -0.02826110189321197 0.0295654168560927 
-0.04797238314858205 -0.03478812536648652 0.08557798129301969 -0.02096663129584011 0.03923181951080378 0.03246915834622824 -0.010242253115372 
0.0300991283608957 -0.01383234798765027 0.03541882267580625 0.004503446254397843 -0.01525487846882473 -0.008545844466372299 -0.004066246227019454 
0.0403707788172065 -0.152114633150958 0.09895249854179239 0.03784063335204967 -0.02130184316584229 0.04844673537567944 0.02988998409230768 
-0.06827547997002145 -0.01205431001821252 -0.1117558685180018 -0.01477402705482398 0.1611933562182936 -0.1589600411870624 -0.006624037015469508 
0.03955807005624414 0.06909520304021918 -0.09199876236849928 0.02818020342454023 -0.133463413254724 -0.0214870082312308 0.0540538324430286 
0.03806577772358566 -0.001535585748475392 0.04840562257388753 0.001924267660996462 -0.04103076144170719 -0.04864438463543563 -0.006359458266316241 
-0.01168572023986425 -0.03613279744685578 0.08513462006143394 -0.03004032561803598 0.04176702616414461 -0.05816618124851102 -0.005630411868967363 
0.01297245169839099 -0.04435959291915559 0.1076605600158327 -0.01759707493064681 0.03980200775997611 -0.0374383892622984 -0.04151182874594372 
-0.03053770375277978 -0.03632675648261884 0.06894499140125801 -0.03526389198698207 0.05851348769339614 -0.04204462123088257 -0.0044831044652531 
-0.02149765267911589 -0.04859126149064123 0.1002334719235599 -0.03663435650054505 0.0670265117305969 -0.05024292183115006 -0.01884020417909791 
0.01293734979800967 0.01256964943626885 -0.1674880897176533 0.04454113266875812 -0.04996059556995595 -0.01718349200273165 0.03326978090992921 
0.01657874632676256 -0.009559405730011999 0.02799052399216962 -0.00023984839297093 -0.003723082838691657 -0.008719865397106886 -0.006168167038002316 
0.01632098393957518 -0.00969006832620683 0.03033259608304101 -0.0009500073205288961 -0.003100974898995126 -0.008504705465971738 -0.006669956396040014 
0.01234693305736314 -0.01911639953065417 0.04154268927791665 -0.01072719680183128 0.008614220753231379 -0.01563567913601115 -0.004275256631602583 
0.06144690818114572 0.0262269304041381 -0.006007142362501728 0.01322772042076162 -0.07203885209122571 -0.02239569501121419 0.001225997655519747 
0.05653806506393676 0.01901023601052648 -0.0137056500334492 0.02193476747213486 -0.07456766119592499 -0.004283529103879503 0.004680308749535038 
0.02565857454638889 -0.01830042642704218 0.0325934964331674 0.04081045662616548 -0.06275950611902013 -0.06669009097501283 0.03262466209191121 
-0.01117460274410315 -0.01808374173400188 0.03866927295788306 0.04780652041819515 -0.03636403706171212 -0.1006239492703682 0.04549584762776269 
0.02641971337781994 -0.03090506281439196 0.04596622352891836 0.01373602919443464 -0.07723532875723005 -0.05120553799396818 0.06434774564810125 
0.000798340474916185 -0.01450231644314905 0.0349296464847309 0.05749592347979804 -0.04892761856251086 -0.09088205575250119 0.03331505844157313 
-0.06869695928673791 0.03223216415243456 -0.05430287030616815 -0.02696951349139149 0.03255436644611141 0.009084457702437055 -0.02250428426846733 
-0.07434568661418668 0.008846808441042282 -0.01326682369651618 0.00874240304942076 0.00287809667758364 0.04246267552724531 -0.02208722235535911 
-0.04210337226695827 0.00790631822239329 0.02852508005876015 -0.01686724978248768 0.01195485929631186 -0.01858053702053588 1.036855230508596e-05 
-0.01466024154810934 0.0154556397232905 0.02490784953227452 -0.07840423544687633 0.02639774584271152 -0.0694365230714316 0.01934899996045726 
-0.0006084709724982747 0.001431764800980984 -0.007829909590083926 0.05974131719836565 0.01995607857174395 -0.00664669600008053 -0.03128620485941318 
-0.02410735133343269 -0.08217638804539057 0.0623716860991004 -0.03232430815968582 0.011469474883629 0.01187113654671073 -0.008434839564194736 
0.01784168846467445 -0.03751446415801162 0.009998387459355702 0.02011082861983913 -0.00730026559836036 -0.01323576618297339 0.01507561051354857 
-0.02774768445888192 0.06216806907447124 -0.06319292948428148 0.06646379833789612 -0.07702469153790878 -0.05642274424665505 -0.003166444150814541 
0.01863975425144062 -0.08354476264973076 0.05082573718050259 -0.07116209211856343 0.06608689146973402 0.05588136003982256 0.01709548529737005 
-0.0197789705107162 0.1030824066969889 -0.01559002941651598 0.02826073025330563 -0.08012528132975134 -0.06037649521928755 -0.04530125386759296 
-0.0194348688543032 -0.05326085642151861 -0.06223470018375556 0.01282477974730776 0.02610223393492637 0.03731201017459437 0.03170746356979724 
0.05106703759914869 0.004650356272599414 0.156365363021426 -0.09512276055332636 -0.005780181695722995 -0.04961700457858954 -0.02080633353820352 
0.01413976631891914 0.0172224003777804 0.0166291367766282 0.0192514813431048 0.005620471896511271 -0.01450181200145587 -0.02653127891393766 
0.1150310495301483 -0.07090872019141439 -0.1717973332848995 -0.007117267258226071 -0.00213663141989934 0.09415522216836639 0.08152160229866086 
